<?xml version="1.0"?>
<opencv_storage>
<opencv_ml_svm>
  <format>3</format>
  <svmType>ONE_CLASS</svmType>
  <kernel>
    <type>RBF</type>
    <gamma>1.</gamma></kernel>
  <nu>5.0000000000000000e-01</nu>
  <term_criteria><epsilon>1.1920928955078125e-07</epsilon>
    <iterations>1000</iterations></term_criteria>
  <var_count>200</var_count>
  <class_count>1</class_count>
  <sv_total>161</sv_total>
  <support_vectors>
    <_>
      4.07331996e-03 2.03665998e-03 0. 4.07331996e-03 1.62932798e-02
      6.10997993e-03 2.03665998e-03 4.07331996e-03 0. 0. 1.01832999e-02
      8.14663991e-03 6.10997993e-03 2.03665998e-03 2.03665998e-03
      1.01832999e-02 6.10997993e-03 6.10997993e-03 2.03665998e-03
      4.07331996e-03 4.07331996e-03 2.03665998e-03 2.03665998e-03
      6.10997993e-03 1.42566198e-02 0. 6.10997993e-03 6.10997993e-03
      8.14663991e-03 0. 4.07331996e-03 0. 2.03665998e-03 1.42566198e-02
      1.01832999e-02 4.07331996e-03 4.07331996e-03 8.14663991e-03
      2.03665998e-03 4.07331996e-03 6.10997993e-03 0. 2.03665998e-03
      4.07331996e-03 0. 8.14663991e-03 4.07331996e-03 1.01832999e-02
      8.14663991e-03 6.10997993e-03 0. 4.07331996e-03 6.10997993e-03
      2.03665998e-03 0. 0. 0. 6.10997993e-03 2.03665998e-03
      8.14663991e-03 4.07331996e-03 0. 4.07331996e-03 8.14663991e-03 0.
      2.03665998e-03 8.14663991e-03 0. 1.42566198e-02 4.07331996e-03
      4.07331996e-03 1.22199599e-02 8.14663991e-03 4.07331996e-03
      2.03665998e-03 0. 6.10997993e-03 6.10997993e-03 2.03665998e-03 0.
      6.10997993e-03 1.62932798e-02 0. 8.14663991e-03 6.10997993e-03
      8.14663991e-03 2.03665998e-03 8.14663991e-03 6.10997993e-03
      2.03665998e-03 1.22199599e-02 1.42566198e-02 4.07331996e-03
      1.42566198e-02 0. 6.10997993e-03 8.14663991e-03 1.83299407e-02
      2.03665998e-03 2.03665998e-03 2.03665998e-03 4.07331996e-03
      8.14663991e-03 1.22199599e-02 2.03665998e-03 0. 0. 6.10997993e-03
      0. 1.01832999e-02 1.83299407e-02 2.03665998e-03 4.07331996e-03
      4.07331996e-03 4.07331996e-03 6.10997993e-03 4.07331996e-03
      6.10997993e-03 4.07331996e-03 8.14663991e-03 8.14663991e-03
      4.07331996e-03 8.14663991e-03 4.07331996e-03 6.10997993e-03
      2.03665998e-03 8.14663991e-03 0. 2.03665998e-03 6.10997993e-03
      6.10997993e-03 4.07331996e-03 2.03665998e-03 8.14663991e-03
      6.10997993e-03 1.01832999e-02 0. 4.07331996e-03 0. 4.07331996e-03
      0. 1.01832999e-02 4.07331996e-03 2.03665998e-03 6.10997993e-03
      2.03665998e-03 0. 6.10997993e-03 2.03665998e-03 4.07331996e-03
      1.83299407e-02 2.03665998e-03 2.03665998e-03 0. 6.10997993e-03 0.
      2.03665998e-03 2.03665998e-03 0. 2.03665998e-03 6.10997993e-03
      1.42566198e-02 4.07331996e-03 8.14663991e-03 4.07331996e-03
      6.10997993e-03 4.07331996e-03 2.03665998e-03 1.22199599e-02
      2.03665998e-03 2.03665998e-03 0. 0. 2.03665998e-03 1.01832999e-02
      2.03665998e-03 6.10997993e-03 1.62932798e-02 4.07331996e-03
      6.10997993e-03 6.10997993e-03 4.07331996e-03 1.83299407e-02
      4.07331996e-03 4.07331996e-03 4.07331996e-03 2.03665998e-03
      4.07331996e-03 0. 4.07331996e-03 8.14663991e-03 2.03665998e-03
      1.01832999e-02 0. 1.42566198e-02 2.03665998e-03 2.03665998e-03
      8.14663991e-03 2.03665998e-03 8.14663991e-03</_>
    <_>
      7.75193796e-03 7.75193796e-03 0. 0. 0. 0. 0. 0. 0. 7.75193796e-03
      0. 0. 0. 0. 0. 1.55038759e-02 0. 0. 0. 0. 0. 0. 3.10077518e-02 0.
      0. 7.75193796e-03 1.55038759e-02 0. 7.75193796e-03 2.32558139e-02
      0. 0. 7.75193796e-03 0. 0. 0. 7.75193796e-03 0. 1.55038759e-02 0.
      0. 0. 0. 0. 7.75193796e-03 1.55038759e-02 7.75193796e-03
      7.75193796e-03 7.75193796e-03 7.75193796e-03 3.87596898e-02
      1.55038759e-02 0. 0. 0. 0. 0. 0. 0. 7.75193796e-03 0. 0.
      7.75193796e-03 1.55038759e-02 0. 0. 1.55038759e-02 0.
      7.75193796e-03 0. 7.75193796e-03 0. 0. 3.87596898e-02 0. 0.
      7.75193796e-03 0. 0. 0. 0. 7.75193796e-03 7.75193796e-03
      7.75193796e-03 0. 7.75193796e-03 0. 0. 7.75193796e-03
      7.75193796e-03 7.75193796e-03 0. 0. 0. 7.75193796e-03 0. 0.
      7.75193796e-03 0. 7.75193796e-03 0. 0. 7.75193796e-03
      7.75193796e-03 7.75193796e-03 0. 0. 7.75193796e-03 7.75193796e-03
      0. 0. 0. 0. 0. 0. 0. 7.75193796e-03 0. 7.75193796e-03
      7.75193796e-03 1.55038759e-02 0. 7.75193796e-03 0. 7.75193796e-03
      1.55038759e-02 7.75193796e-03 0. 7.75193796e-03 3.87596898e-02 0.
      0. 1.55038759e-02 0. 0. 7.75193796e-03 0. 7.75193796e-03 0.
      7.75193796e-03 1.55038759e-02 2.32558139e-02 1.55038759e-02
      7.75193796e-03 2.32558139e-02 0. 0. 7.75193796e-03 0.
      7.75193796e-03 7.75193796e-03 7.75193796e-03 0. 0. 7.75193796e-03
      0. 0. 0. 1.55038759e-02 0. 7.75193796e-03 3.10077518e-02 0.
      1.55038759e-02 7.75193796e-03 0. 7.75193796e-03 0. 0. 0.
      7.75193796e-03 7.75193796e-03 0. 7.75193796e-03 7.75193796e-03
      7.75193796e-03 0. 7.75193796e-03 0. 0. 7.75193796e-03 0. 0. 0. 0.
      7.75193796e-03 7.75193796e-03 7.75193796e-03 0. 0. 0.
      1.55038759e-02 7.75193796e-03 7.75193796e-03 2.32558139e-02
      7.75193796e-03 0. 0. 0. 0.</_>
    <_>
      2.11064215e-03 4.44345688e-03 6.55409927e-03 3.66585213e-03
      3.11041996e-03 5.55432122e-03 6.77627185e-03 2.88824714e-03
      3.77693842e-03 4.44345688e-03 2.88824714e-03 3.77693842e-03
      6.44301251e-03 2.22172844e-03 3.22150625e-03 2.99933343e-03
      1.66629639e-03 6.99844491e-03 6.77627185e-03 3.44367907e-03
      5.99866686e-03 1.23305935e-02 1.27749387e-02 8.99800006e-03
      2.27727164e-02 7.66496314e-03 1.77738280e-03 3.44367907e-03
      2.77716061e-03 2.77716061e-03 2.22172844e-03 8.33148230e-03
      5.77649428e-03 3.77693842e-03 1.66629639e-03 2.99933343e-03
      1.33303716e-03 2.77716061e-03 8.77582747e-03 2.88824714e-03
      2.77716061e-03 8.10930878e-03 4.66562994e-03 5.10997558e-03
      2.55498779e-03 2.44390126e-03 2.55498779e-03 3.44367907e-03
      3.77693842e-03 6.66518556e-03 1.66629639e-03 4.44345688e-03
      4.88780253e-03 5.88758057e-03 4.33237059e-03 3.99911124e-03
      7.99822249e-03 5.22106187e-03 5.44323493e-03 5.99866686e-03
      1.82181746e-02 1.44412357e-03 5.99866686e-03 5.22106187e-03
      4.77671623e-03 2.23283712e-02 3.88802495e-03 3.22150625e-03
      4.55454364e-03 7.88713619e-03 4.11019754e-03 2.33281497e-03
      3.33259278e-03 2.11064215e-03 2.44390126e-03 3.33259278e-03
      5.99866686e-03 2.44390126e-03 4.44345688e-03 6.55409927e-03
      1.02199512e-02 2.22172844e-03 1.22195063e-03 3.55476560e-03
      5.77649428e-03 5.99866686e-03 2.77716061e-03 1.55520998e-03
      2.33281497e-03 3.66585213e-03 1.33303716e-03 1.11086424e-02
      8.44256859e-03 3.44367907e-03 2.11064215e-03 4.22128430e-03
      7.77604990e-03 6.88735815e-03 2.22172844e-03 2.99933343e-03
      2.77716061e-03 5.66540752e-03 7.44279055e-03 4.33237059e-03
      1.77738280e-03 1.18862474e-02 6.55409927e-03 3.22150625e-03
      4.11019754e-03 5.33214863e-03 2.66607432e-03 9.77560505e-03
      4.99888929e-03 1.99955562e-03 1.11086422e-03 3.11041996e-03
      2.88824714e-03 2.88824714e-03 2.88824714e-03 3.99911124e-03
      2.55498779e-03 1.77738280e-03 1.01088649e-02 2.88824714e-03
      1.11086424e-02 9.99777857e-03 3.33259278e-03 3.55476560e-03
      3.77693842e-03 3.66585213e-03 4.88780253e-03 5.10997558e-03
      2.55498779e-03 3.11041996e-03 5.77649428e-03 7.44279055e-03
      4.55454364e-03 2.55498779e-03 1.99955562e-03 1.08864699e-02
      3.33259278e-03 2.44390126e-03 4.44345688e-03 3.66585213e-03
      2.22172844e-03 9.22017358e-03 7.10953120e-03 1.44412357e-03
      3.08820270e-02 4.77671623e-03 7.77604990e-03 3.99911124e-03
      2.99933343e-03 1.44412357e-03 2.22172844e-03 8.77582747e-03
      5.44323493e-03 7.66496314e-03 2.55498779e-03 2.66607432e-03
      7.88713619e-03 6.88735815e-03 4.88780253e-03 4.99888929e-03
      2.33281497e-03 1.42190624e-02 1.66629639e-03 3.33259278e-03
      4.55454364e-03 3.11041996e-03 3.11041996e-03 2.88824714e-03
      1.55520998e-02 3.33259278e-03 3.77693842e-03 4.66562994e-03
      3.77693842e-03 3.99911124e-03 2.88824714e-03 3.44367907e-03
      2.55498779e-03 3.88802495e-03 5.55432122e-03 1.77738280e-03
      4.44345700e-04 1.88846921e-03 8.77582747e-03 6.66518579e-04
      6.44301251e-03 6.88735815e-03 2.77716061e-03 3.44367907e-03
      2.11064215e-03 2.77716061e-03 1.55520998e-03 6.99844491e-03
      3.88802495e-03 4.88780253e-03 1.96622964e-02 3.44367907e-03</_>
    <_>
      0. 0. 0. 0. 1.92307699e-02 7.69230798e-02 0. 0. 0. 0. 0. 0. 0. 0.
      1.92307699e-02 1.92307699e-02 0. 0. 0. 0. 0. 0. 5.76923117e-02 0.
      1.92307699e-02 0. 0. 0. 0. 0. 0. 0. 0. 1.92307699e-02
      1.92307699e-02 0. 0. 0. 3.84615399e-02 0. 0. 0. 0. 0. 0. 0. 0.
      1.92307699e-02 3.84615399e-02 1.92307699e-02 1.92307699e-02 0. 0.
      0. 0. 0. 0. 1.92307699e-02 1.92307699e-02 0. 1.92307699e-02 0. 0.
      1.92307699e-02 0. 0. 0. 0. 0. 0. 1.92307699e-02 0. 0. 0. 0. 0. 0.
      0. 0. 0. 0. 0. 0. 0. 0. 0. 0. 0. 0. 0. 1.92307699e-02
      1.92307699e-02 0. 0. 0. 1.92307699e-02 0. 0. 0. 0. 0. 0. 0. 0. 0.
      0. 0. 0. 0. 0. 0. 0. 0. 0. 0. 0. 0. 0. 0. 1.92307699e-02 0. 0. 0.
      0. 0. 0. 0. 0. 0. 0. 1.92307699e-02 0. 0. 0. 1.92307699e-02
      1.92307699e-02 0. 0. 0. 1.92307699e-02 0. 0. 0. 0. 0. 0. 0.
      3.84615399e-02 0. 0. 0. 1.92307699e-02 0. 0. 0. 0. 0.
      1.92307699e-02 0. 0. 1.92307699e-02 0. 0. 0. 0. 0. 0. 0.
      1.92307699e-02 1.92307699e-02 0. 0. 0. 0. 3.84615399e-02 0.
      3.84615399e-02 0. 0. 0. 0. 0. 0. 0. 0. 3.84615399e-02 0.
      1.92307699e-02 0. 3.84615399e-02 1.92307699e-02 0. 3.84615399e-02
      0. 0. 0. 0. 0. 0. 0.</_>
    <_>
      0. 0. 8.40336177e-03 0. 0. 0. 0. 8.40336177e-03 8.40336177e-03 0.
      0. 8.40336177e-03 0. 8.40336177e-03 0. 0. 1.68067235e-02 0. 0. 0.
      0. 8.40336177e-03 8.40336177e-03 8.40336177e-03 1.68067235e-02 0.
      8.40336177e-03 2.52100863e-02 8.40336177e-03 0. 0. 0.
      8.40336177e-03 0. 8.40336177e-03 8.40336177e-03 1.68067235e-02 0.
      0. 0. 0. 1.68067235e-02 0. 8.40336177e-03 8.40336177e-03
      8.40336177e-03 8.40336177e-03 0. 0. 8.40336177e-03 1.68067235e-02
      8.40336177e-03 0. 0. 8.40336177e-03 0. 0. 1.68067235e-02 0. 0.
      3.36134471e-02 0. 0. 0. 0. 0. 0. 0. 8.40336177e-03 0. 0.
      8.40336177e-03 0. 8.40336177e-03 0. 8.40336177e-03 1.68067235e-02
      0. 8.40336177e-03 0. 1.68067235e-02 8.40336177e-03 8.40336177e-03
      0. 0. 0. 0. 8.40336177e-03 1.68067235e-02 2.52100863e-02
      8.40336177e-03 0. 0. 0. 0. 0. 8.40336177e-03 8.40336177e-03 0.
      8.40336177e-03 1.68067235e-02 0. 0. 0. 3.36134471e-02 0. 0. 0. 0.
      0. 2.52100863e-02 8.40336177e-03 0. 0. 1.68067235e-02
      8.40336177e-03 1.68067235e-02 0. 0. 0. 0. 8.40336177e-03 0. 0.
      8.40336177e-03 0. 8.40336177e-03 0. 0. 8.40336177e-03 0.
      8.40336177e-03 0. 1.68067235e-02 8.40336177e-03 0. 8.40336177e-03
      8.40336177e-03 0. 0. 0. 0. 0. 1.68067235e-02 8.40336177e-03
      8.40336177e-03 8.40336177e-03 8.40336177e-03 0. 8.40336177e-03
      8.40336177e-03 8.40336177e-03 8.40336177e-03 0. 8.40336177e-03 0.
      0. 0. 0. 1.68067235e-02 0. 0. 8.40336177e-03 0. 0. 0. 0. 0. 0. 0.
      1.68067235e-02 8.40336177e-03 0. 0. 0. 0. 0. 0. 2.52100863e-02
      8.40336177e-03 0. 0. 0. 1.68067235e-02 8.40336177e-03
      1.68067235e-02 0. 1.68067235e-02 0. 0. 8.40336177e-03 0. 0. 0.
      2.52100863e-02 0. 0. 8.40336177e-03 8.40336177e-03 0.</_>
    <_>
      0. 6.87285233e-03 6.87285233e-03 6.87285233e-03 3.43642617e-03 0.
      1.03092790e-02 3.43642617e-03 1.03092790e-02 0. 0. 6.87285233e-03
      6.87285233e-03 0. 1.37457047e-02 3.43642617e-03 3.43642617e-03
      3.43642617e-03 3.43642617e-03 3.43642617e-03 0. 1.03092790e-02
      1.03092790e-02 6.87285233e-03 0. 0. 3.43642617e-03 6.87285233e-03
      6.87285233e-03 6.87285233e-03 3.43642617e-03 0. 1.03092790e-02 0.
      6.87285233e-03 3.43642617e-03 1.71821304e-02 3.43642617e-03
      1.03092790e-02 0. 6.87285233e-03 0. 0. 3.43642617e-03
      3.43642617e-03 6.87285233e-03 6.87285233e-03 3.43642617e-03
      6.87285233e-03 3.43642617e-03 0. 6.87285233e-03 6.87285233e-03
      3.43642617e-03 0. 0. 3.43642617e-03 6.87285233e-03 1.37457047e-02
      0. 3.43642617e-03 3.43642617e-03 3.43642617e-03 6.87285233e-03 0.
      0. 3.43642617e-03 6.87285233e-03 6.87285233e-03 3.43642617e-03
      6.87285233e-03 1.37457047e-02 0. 1.03092790e-02 6.87285233e-03
      6.87285233e-03 1.03092790e-02 6.87285233e-03 3.43642617e-03 0. 0.
      3.43642617e-03 6.87285233e-03 0. 3.43642617e-03 0. 0.
      6.87285233e-03 6.87285233e-03 0. 3.43642617e-03 3.43642617e-03 0.
      1.03092790e-02 3.43642617e-03 6.87285233e-03 0. 3.43642617e-03
      6.87285233e-03 3.43642617e-03 6.87285233e-03 0. 3.43642617e-03
      1.03092790e-02 3.43642617e-03 3.43642617e-03 0. 0. 6.87285233e-03
      1.71821304e-02 0. 3.43642617e-03 3.43642617e-03 3.43642617e-03
      1.71821304e-02 1.71821304e-02 6.87285233e-03 3.43642617e-03 0.
      3.43642617e-03 3.43642617e-03 1.37457047e-02 0. 6.87285233e-03
      6.87285233e-03 0. 6.87285233e-03 0. 6.87285233e-03 1.37457047e-02
      3.43642617e-03 0. 6.87285233e-03 3.43642617e-03 1.03092790e-02 0.
      3.43642617e-03 3.43642617e-03 3.43642617e-03 1.03092790e-02
      1.71821304e-02 1.03092790e-02 0. 0. 0. 3.43642617e-03 0. 0. 0.
      6.87285233e-03 1.03092790e-02 3.43642617e-03 6.87285233e-03
      3.43642617e-03 3.43642617e-03 6.87285233e-03 1.71821304e-02
      3.43642617e-03 0. 6.87285233e-03 6.87285233e-03 6.87285233e-03
      1.37457047e-02 0. 3.43642617e-03 0. 6.87285233e-03 1.03092790e-02
      6.87285233e-03 1.71821304e-02 6.87285233e-03 1.37457047e-02
      6.87285233e-03 6.87285233e-03 0. 0. 1.03092790e-02 6.87285233e-03
      3.43642617e-03 3.43642617e-03 6.87285233e-03 0. 3.43642617e-03
      3.43642617e-03 6.87285233e-03 6.87285233e-03 0. 1.37457047e-02
      1.03092790e-02 0. 6.87285233e-03 2.06185579e-02 6.87285233e-03
      6.87285233e-03 3.43642617e-03 0. 0. 0. 0. 6.87285233e-03</_>
    <_>
      1.96110480e-03 4.90276190e-03 3.26850801e-03 2.61480641e-03
      9.15182196e-03 9.15182196e-03 1.14397774e-03 9.47867334e-03
      8.17127002e-04 1.47082866e-03 3.75878415e-03 6.70044124e-03
      4.90276190e-03 1.47082866e-03 5.22961281e-03 1.29106063e-02
      1.24203302e-02 4.73933667e-03 3.26850801e-03 2.45138095e-03
      4.73933667e-03 1.63425400e-03 1.63425400e-04 4.08563484e-03
      3.75878415e-03 4.90276201e-04 5.22961281e-03 8.49812105e-03
      9.31524765e-03 2.12453026e-03 3.59535869e-03 4.90276190e-03
      1.30740320e-03 8.00784491e-03 8.17126967e-03 7.68099399e-03
      6.37359079e-03 5.88331465e-03 6.37359079e-03 3.92220961e-03
      7.68099399e-03 3.43193347e-03 8.17127002e-04 2.61480641e-03
      3.43193347e-03 1.20934797e-02 2.12453026e-03 3.75878415e-03
      7.19071738e-03 6.70044124e-03 8.17127002e-04 6.21016510e-03
      4.41248575e-03 1.96110480e-03 6.04673987e-03 1.96110480e-03
      4.90276201e-04 5.55646373e-03 2.61480641e-03 5.55646373e-03
      5.06618759e-03 9.47867334e-03 6.86386693e-03 9.80552379e-03
      1.14397774e-03 1.63425400e-03 6.37359079e-03 5.71988896e-03
      1.20934797e-02 3.43193347e-03 6.70044124e-03 6.70044124e-03
      1.63425400e-03 5.88331465e-03 5.06618759e-03 1.30740320e-03
      7.35414308e-03 3.92220961e-03 3.26850801e-03 2.77823186e-03
      3.10508255e-03 5.06618759e-03 1.63425400e-04 5.22961281e-03
      5.06618759e-03 7.84441922e-03 6.70044124e-03 4.41248575e-03
      5.71988896e-03 4.90276201e-04 1.17666293e-02 5.39303804e-03
      2.61480641e-03 6.04673987e-03 9.80552402e-04 5.39303804e-03
      5.55646373e-03 1.24203302e-02 1.79767935e-03 4.73933667e-03
      1.30740320e-03 4.24906053e-03 2.28795549e-03 8.82497150e-03
      1.47082866e-03 2.28795549e-03 4.41248575e-03 9.15182196e-03
      3.43193347e-03 1.14397779e-02 3.10508255e-03 5.55646373e-03
      3.10508255e-03 1.96110480e-03 3.75878415e-03 7.51756830e-03
      5.06618759e-03 2.77823186e-03 2.28795549e-03 6.53701602e-03
      6.21016510e-03 1.14397774e-03 2.45138095e-03 5.22961281e-03
      2.77823186e-03 2.45138095e-03 9.47867334e-03 1.63425400e-04
      1.63425400e-03 9.15182196e-03 5.71988896e-03 3.75878415e-03
      6.37359079e-03 8.98839720e-03 4.41248575e-03 8.17126967e-03
      2.12453026e-03 2.61480641e-03 3.59535869e-03 3.43193347e-03
      1.63425400e-03 1.12763522e-02 9.15182196e-03 1.14397774e-03
      1.09495018e-02 1.96110480e-03 2.12453026e-03 1.29106063e-02
      3.26850801e-04 9.96894948e-03 1.27471816e-02 5.39303804e-03
      1.79767935e-03 2.45138095e-03 9.47867334e-03 3.92220961e-03
      2.12453026e-03 7.35414308e-03 6.53701602e-04 4.08563484e-03
      1.14397779e-02 8.17126967e-03 6.21016510e-03 1.16032036e-02
      9.80552402e-04 3.43193347e-03 2.61480641e-03 1.47082866e-03
      3.92220961e-03 3.10508255e-03 6.04673987e-03 2.45138095e-03
      1.96110480e-03 1.47082866e-03 7.68099399e-03 8.66154581e-03
      1.02957999e-02 1.07860761e-02 8.17127002e-04 3.92220961e-03
      2.45138095e-03 1.96110480e-03 6.37359079e-03 1.30740320e-03
      2.45138095e-03 1.11129275e-02 3.43193347e-03 1.17666293e-02
      1.96110480e-03 9.47867334e-03 1.25837559e-02 8.17127002e-04
      1.55254127e-02 6.21016510e-03 3.10508255e-03 3.26850801e-03
      3.26850801e-03 3.10508255e-03 3.26850801e-03 7.35414308e-03</_>
    <_>
      8.05430929e-04 5.63801639e-03 2.41629267e-03 2.87653902e-03
      5.75307803e-03 1.31170172e-02 1.49580021e-03 1.02404784e-02
      4.60246229e-04 2.07110797e-03 1.84098491e-03 7.47900130e-03
      6.21332414e-03 1.49580021e-03 7.59406295e-03 9.78023279e-03
      1.33471405e-02 1.26567716e-03 2.41629267e-03 9.20492457e-04
      5.40789310e-03 1.49580021e-03 5.75307757e-04 5.52295474e-03
      6.44344743e-03 0. 7.01875519e-03 7.70912413e-03 6.32838579e-03
      5.75307757e-04 3.68196983e-03 6.09826250e-03 1.72592339e-03
      3.79703147e-03 7.36393966e-03 1.07007250e-02 6.55850861e-03
      2.18616962e-03 5.17777028e-03 4.71752370e-03 7.47900130e-03
      2.64641573e-03 8.05430929e-04 2.87653902e-03 5.40789310e-03
      1.15061561e-02 3.56690818e-03 5.29283145e-03 6.67357026e-03
      8.28443188e-03 1.49580021e-03 6.78863190e-03 4.14221594e-03
      6.90369343e-04 6.78863190e-03 5.75307757e-04 3.45184671e-04
      6.32838579e-03 5.06270863e-03 6.67357026e-03 6.44344743e-03
      6.44344743e-03 7.47900130e-03 9.43504740e-03 4.60246229e-04
      1.38073869e-03 5.63801639e-03 5.40789310e-03 1.32320793e-02
      3.56690818e-03 6.90369355e-03 8.39949399e-03 1.49580021e-03
      8.85973964e-03 6.44344743e-03 2.30123114e-04 8.39949399e-03
      2.53135432e-03 3.56690818e-03 4.48740087e-03 2.64641573e-03
      4.60246205e-03 6.90369343e-04 6.90369355e-03 6.90369355e-03
      6.78863190e-03 5.63801639e-03 4.48740087e-03 6.90369355e-03
      1.26567716e-03 8.51455517e-03 4.48740087e-03 3.10666207e-03
      5.29283145e-03 6.90369343e-04 5.86813921e-03 2.76147737e-03
      8.97480175e-03 4.60246229e-04 4.02715430e-03 2.30123103e-03
      2.99160043e-03 1.03555399e-03 1.01254173e-02 8.05430929e-04
      3.91209312e-03 6.78863190e-03 5.06270863e-03 3.33678513e-03
      1.15061561e-02 3.45184677e-03 3.56690818e-03 3.68196983e-03
      2.87653902e-03 4.71752370e-03 6.55850861e-03 5.06270863e-03
      2.64641573e-03 6.90369343e-04 6.21332414e-03 8.85973964e-03
      2.53135432e-03 2.30123103e-03 7.24887801e-03 1.49580021e-03
      1.38073869e-03 6.90369355e-03 0. 1.38073869e-03 8.62961635e-03
      5.52295474e-03 3.68196983e-03 5.17777028e-03 9.66517068e-03
      4.02715430e-03 9.66517068e-03 2.18616962e-03 1.84098491e-03
      3.33678513e-03 5.86813921e-03 5.75307757e-04 1.05856629e-02
      6.09826250e-03 9.20492457e-04 9.89529397e-03 9.20492457e-04
      3.10666207e-03 1.12760328e-02 1.03555399e-03 1.40375104e-02
      7.36393966e-03 6.44344743e-03 1.38073869e-03 2.76147737e-03
      9.89529397e-03 4.71752370e-03 1.03555399e-03 7.01875519e-03
      5.75307757e-04 5.29283145e-03 1.07007250e-02 7.36393966e-03
      6.55850861e-03 1.00103552e-02 1.72592339e-03 2.64641573e-03
      1.03555399e-03 2.30123114e-04 6.55850861e-03 7.13381637e-03
      7.13381637e-03 4.14221594e-03 2.76147737e-03 8.05430929e-04
      1.09308483e-02 1.03555406e-02 9.43504740e-03 8.39949399e-03
      2.18616962e-03 2.87653902e-03 5.29283145e-03 1.49580021e-03
      8.74467846e-03 2.07110797e-03 2.53135432e-03 1.03555406e-02
      3.79703147e-03 1.57634337e-02 3.45184671e-04 6.44344743e-03
      9.89529397e-03 5.75307757e-04 1.38073871e-02 1.02404784e-02
      5.63801639e-03 3.33678513e-03 2.76147737e-03 2.53135432e-03
      3.10666207e-03 8.74467846e-03</_>
    <_>
      1.96285686e-03 4.22769133e-03 1.05692283e-03 5.13362559e-03
      9.05933883e-03 9.36131738e-03 1.81186781e-03 9.36131738e-03
      3.01977969e-03 2.86879065e-03 6.19054819e-03 7.39846006e-03
      3.62373563e-03 1.81186781e-03 7.09648244e-03 1.07202176e-02
      9.81428381e-03 2.26483471e-03 3.47274658e-03 1.66087877e-03
      7.54944934e-03 7.54944922e-04 9.05933906e-04 5.28461440e-03
      5.88857057e-03 1.35890092e-03 5.73758129e-03 7.24747125e-03
      7.39846006e-03 1.81186781e-03 2.56681279e-03 5.28461440e-03
      1.50988984e-03 5.43560367e-03 8.75736121e-03 5.43560367e-03
      7.39846006e-03 3.17076873e-03 3.62373563e-03 4.52966942e-03
      7.54944934e-03 2.11384567e-03 1.20791188e-03 3.17076873e-03
      3.47274658e-03 1.11731850e-02 2.71780184e-03 4.07670252e-03
      6.49252627e-03 7.09648244e-03 2.11384567e-03 3.47274658e-03
      2.56681279e-03 3.01977969e-03 4.98263631e-03 1.50988984e-03
      1.05692283e-03 4.52966942e-03 3.62373563e-03 5.58659248e-03
      4.68065869e-03 6.94549317e-03 5.88857057e-03 9.51230619e-03
      1.66087877e-03 1.50988984e-03 6.34153746e-03 4.98263631e-03
      1.26830749e-02 3.92571371e-03 8.60637240e-03 5.43560367e-03
      2.71780184e-03 8.00241623e-03 6.19054819e-03 1.20791188e-03
      6.49252627e-03 2.26483471e-03 4.22769133e-03 3.77472467e-03
      1.50988984e-03 6.34153746e-03 6.03955938e-04 7.54944934e-03
      4.68065869e-03 6.79450436e-03 3.32175754e-03 4.83164750e-03
      8.15340504e-03 3.01977969e-04 6.94549317e-03 1.08712073e-02
      3.17076873e-03 7.70043815e-03 1.50988984e-03 4.98263631e-03
      4.68065869e-03 9.21032764e-03 2.86879065e-03 4.98263631e-03
      2.41582375e-03 3.62373563e-03 3.17076873e-03 8.15340504e-03
      1.50988984e-03 3.32175754e-03 4.07670252e-03 6.64351508e-03
      2.11384567e-03 1.32870302e-02 4.07670252e-03 3.62373563e-03
      2.56681279e-03 1.50988984e-03 4.52966942e-03 6.34153746e-03
      2.26483471e-03 3.62373563e-03 2.71780184e-03 5.73758129e-03
      6.19054819e-03 5.13362559e-03 1.96285686e-03 3.77472467e-03
      4.37868061e-03 2.41582375e-03 1.10221962e-02 0. 1.35890092e-03
      8.45538266e-03 3.17076873e-03 7.39846006e-03 6.94549317e-03
      6.03955938e-03 4.37868061e-03 6.94549317e-03 1.66087877e-03
      2.41582375e-03 1.66087877e-03 4.52966942e-03 1.66087877e-03
      1.16261514e-02 5.58659248e-03 9.05933906e-04 1.16261514e-02
      9.05933906e-04 2.56681279e-03 1.50988987e-02 1.66087877e-03
      8.30439385e-03 1.08712073e-02 6.34153746e-03 2.41582375e-03
      1.35890092e-03 7.39846006e-03 3.77472467e-03 2.11384567e-03
      5.13362559e-03 6.03955938e-04 5.43560367e-03 8.75736121e-03
      9.36131738e-03 5.13362559e-03 1.13241738e-02 7.54944922e-04
      3.47274658e-03 3.62373563e-03 1.20791188e-03 1.40419751e-02
      5.88857057e-03 4.98263631e-03 2.11384567e-03 3.17076873e-03
      1.96285686e-03 7.24747125e-03 9.05933883e-03 1.16261514e-02
      7.70043815e-03 7.54944922e-04 4.22769133e-03 2.56681279e-03
      1.50988984e-03 8.45538266e-03 2.86879065e-03 3.01977969e-03
      9.96527262e-03 4.52966942e-03 1.44949425e-02 3.62373563e-03
      4.98263631e-03 1.19281299e-02 2.26483471e-03 1.63068101e-02
      7.24747125e-03 3.32175754e-03 4.37868061e-03 3.77472467e-03
      2.41582375e-03 3.17076873e-03 9.05933883e-03</_>
    <_>
      0. 1.45011596e-04 1.45011596e-04 1.45011596e-04 0. 0.
      2.90023192e-04 1.01508119e-03 2.90023192e-04 2.90023192e-04
      7.25058001e-03 4.35034803e-04 5.80046384e-04 5.80046384e-04
      2.90023192e-04 2.39269137e-02 2.90023192e-04 5.80046384e-04
      1.45011596e-04 2.90023192e-04 1.45011596e-04 5.80046384e-04 0.
      2.90023192e-04 1.16009277e-03 7.25057966e-04 4.35034803e-04
      4.35034803e-04 1.45011596e-04 7.25057966e-04 1.45011596e-04
      1.45011596e-04 5.80046384e-04 1.16009277e-03 1.45011596e-04 0.
      7.25057966e-04 3.48027842e-03 8.70069605e-04 2.75522028e-03
      5.22041740e-03 7.25057966e-04 4.35034803e-04 4.35034803e-04
      5.80046384e-04 3.62529000e-03 1.45011596e-04 2.90023192e-04
      1.45011593e-03 2.90023192e-04 8.70069605e-04 4.35034803e-04
      1.45011596e-04 4.35034803e-04 1.45011596e-04 3.48027842e-03
      1.45011596e-04 7.25057966e-04 2.90023192e-04 4.35034803e-04
      1.45011596e-04 0. 8.70069605e-04 4.35034803e-04 4.35034803e-04
      1.45011596e-04 0. 2.90023192e-04 5.80046384e-04 0. 2.32018554e-03
      0. 2.90023192e-04 1.45011596e-04 1.45011596e-04 8.70069605e-04
      2.90023192e-04 4.35034791e-03 1.45011596e-04 0. 1.45011596e-04
      1.16009277e-03 1.45011596e-04 8.70069605e-04 2.90023192e-04
      1.94315538e-02 8.70069605e-04 1.30510435e-03 1.45011596e-04
      2.90023192e-04 7.71461725e-02 2.90023192e-04 5.80046384e-04
      1.45011596e-04 5.80046384e-04 7.25057966e-04 7.25057966e-04
      1.45011596e-04 1.45011596e-04 1.88515079e-03 2.90023192e-04
      1.24709969e-02 2.90023192e-04 4.35034803e-04 7.25057966e-04
      1.30510435e-03 0. 1.89965200e-02 1.45011596e-04 1.59512751e-03
      1.01508119e-03 1.45011596e-04 1.45011593e-03 0. 5.80046384e-04
      4.35034803e-04 4.35034803e-04 1.45011596e-04 1.45011596e-04
      5.80046384e-04 5.80046384e-04 5.80046384e-04 2.90023192e-04
      4.35034803e-04 4.35034803e-04 2.90023192e-04 4.64037107e-03
      2.90023192e-04 5.80046384e-04 5.80046384e-04 3.37877005e-01
      1.16009277e-03 0. 2.17517396e-03 0. 4.35034803e-04 5.80046384e-04
      4.35034803e-04 1.45011596e-04 4.35034803e-04 8.70069605e-04
      7.25057966e-04 6.67053321e-03 0. 8.99071898e-03 2.90023192e-04
      1.45011596e-04 3.17285359e-01 1.01508119e-03 1.45011596e-04
      2.90023192e-04 4.35034803e-04 5.80046384e-04 5.80046384e-04
      1.30510435e-03 4.35034803e-04 5.80046384e-04 1.88515079e-03
      4.35034803e-04 5.80046384e-04 2.90023192e-04 1.45011596e-04 0.
      4.35034803e-04 1.45011596e-04 0. 8.70069605e-04 1.30510435e-03
      2.90023192e-04 7.25057966e-04 1.45011596e-04 2.90023192e-04 0.
      2.90023192e-04 1.45011596e-04 1.45011596e-04 3.48027842e-03 0. 0.
      5.80046384e-04 2.90023192e-04 4.35034803e-04 2.32018554e-03
      2.90023192e-04 2.90023192e-04 1.45011596e-04 1.45011596e-04
      3.07424590e-02 7.25057966e-04 2.46519712e-03 5.80046384e-04
      2.90023192e-04 2.13167053e-02 2.90023192e-04 8.70069605e-04
      1.45011596e-04 5.80046384e-04 0. 1.59512751e-03 7.25057966e-04</_>
    <_>
      3.53148906e-03 3.23719811e-03 3.82577977e-03 4.56150668e-03
      3.67863430e-03 5.47380783e-02 1.47145370e-03 8.68157670e-03
      3.53148906e-03 6.32725097e-03 1.76574453e-03 4.12007049e-03
      6.03296049e-03 2.06003524e-03 4.85579716e-03 1.47145370e-03
      1.00058857e-02 4.56150668e-03 4.41436097e-03 3.53148906e-03
      7.35726859e-03 3.09005287e-03 2.06003524e-03 9.71159432e-03
      2.06003524e-03 4.56150668e-03 5.15008811e-03 3.23719811e-03
      4.26721573e-03 5.00294287e-03 3.38434358e-03 2.23660972e-02
      2.79576215e-03 5.15008811e-03 1.32430834e-03 1.30959386e-02
      2.20718049e-03 2.35432596e-03 9.56444908e-03 6.18010573e-03
      2.35432596e-03 4.70865192e-03 7.35726848e-04 2.06003524e-03
      3.23719811e-03 2.06003524e-03 3.38434358e-03 2.94290739e-03
      2.79576215e-03 6.47439621e-03 3.38434358e-03 4.41436097e-03
      7.50441384e-03 5.73866954e-03 3.09005287e-03 7.50441384e-03
      2.79576215e-03 1.32430834e-03 3.53148906e-03 4.41436097e-03
      1.47145370e-03 6.76868716e-03 2.06003524e-03 5.59152430e-03
      3.82577977e-03 3.38434358e-03 2.64861668e-03 5.29723335e-03
      5.29723335e-03 1.30959386e-02 2.35432596e-03 1.47145370e-03
      2.50147143e-03 1.32430834e-03 4.70865192e-03 5.00294287e-03
      1.61859905e-03 2.64861668e-03 2.79576215e-03 1.08887572e-02
      4.41436097e-03 2.94290739e-03 7.35726848e-04 2.06003524e-03
      6.18010573e-03 1.16244843e-02 1.11830486e-02 1.32430834e-03
      1.76574453e-03 5.88581478e-03 4.70865192e-03 7.94585049e-03
      3.23719811e-03 8.09299573e-03 5.88581478e-03 6.76868716e-03
      2.35432596e-03 3.53148906e-03 4.12007049e-03 5.44437859e-03
      2.64861668e-03 2.20718049e-03 4.56150668e-03 5.73866954e-03
      2.35432596e-03 3.38434358e-03 2.33961139e-02 3.67863430e-03
      2.35432596e-03 6.18010573e-03 4.12007049e-03 4.70865192e-03
      3.82577977e-03 3.09005287e-03 2.50147143e-03 4.56150668e-03
      1.91288989e-03 2.64861668e-03 5.73866954e-03 8.38728622e-03
      2.79576215e-03 2.35432596e-03 4.56150668e-03 4.12007049e-03
      5.44437859e-03 5.29723335e-03 3.53148906e-03 7.50441384e-03
      3.97292525e-03 2.64861668e-03 3.67863430e-03 3.53148906e-03
      5.00294287e-03 5.29723335e-03 2.94290739e-03 9.41730384e-03
      5.59152430e-03 2.50147143e-03 8.24014097e-03 1.16244843e-02
      7.06297811e-03 5.44437859e-03 9.12301335e-03 4.85579716e-03
      6.76868716e-03 3.67863430e-03 4.41436097e-03 1.47145370e-03
      2.94290739e-03 1.95703339e-02 3.09005287e-03 8.53443146e-03
      2.06003524e-03 2.20718049e-03 2.20718049e-03 1.17716296e-02
      3.23719811e-03 6.03296049e-03 2.64861668e-03 7.35726848e-04
      5.29723335e-03 8.38728622e-03 1.91288989e-03 8.82872194e-03
      6.32725097e-03 4.26721573e-03 3.97292525e-03 3.97292525e-03
      5.29723335e-03 2.94290739e-03 5.15008811e-03 3.38434358e-03
      5.88581478e-03 2.35432596e-03 1.61859905e-03 2.94290739e-03
      3.82577977e-03 2.20718049e-03 6.47439621e-03 6.76868716e-03
      2.35432596e-03 3.53148906e-03 2.79576215e-03 1.03001762e-03
      1.32430834e-03 1.76574453e-03 1.33902291e-02 4.12007049e-03
      3.23719811e-03 1.22130662e-02 1.47145370e-03 4.26721573e-03
      1.03001762e-03 1.05944667e-02 3.23719811e-03 5.44437859e-03
      2.94290739e-03 5.15008811e-03 4.41436097e-03 7.21012335e-03</_>
    <_>
      1.72043010e-03 2.75268825e-03 6.88172039e-03 4.55913972e-03
      7.13978522e-03 1.80645171e-03 4.21505375e-03 3.44086019e-03
      4.12903260e-03 3.09677422e-03 5.93548408e-03 3.44086019e-03
      6.27957005e-03 3.09677422e-03 3.01075284e-03 4.73118294e-03
      4.81720455e-03 3.69892479e-03 1.47956992e-02 8.60215048e-04
      1.31612904e-02 4.55913972e-03 7.48387119e-03 5.24731213e-03
      2.56344099e-02 3.78494640e-03 2.49462365e-03 4.81720455e-03
      5.07526891e-03 9.46236600e-04 2.92473123e-03 2.49462365e-03
      3.09677422e-03 3.87096778e-03 5.07526891e-03 4.64516133e-03
      3.44086019e-03 7.05376361e-03 6.88172039e-03 7.65591441e-03
      4.21505375e-03 5.41935489e-03 3.52688180e-03 2.49462365e-03
      2.75268825e-03 7.31182797e-03 2.92473123e-03 3.95698939e-03
      4.04301099e-03 3.01075284e-03 8.60215072e-03 2.32258067e-03
      4.73118294e-03 3.87096778e-03 3.01075284e-03 1.20430114e-03
      3.44086019e-03 5.50537650e-03 6.88172039e-03 6.70967763e-03
      1.41075272e-02 1.80645171e-03 3.95698939e-03 3.69892479e-03
      2.15053768e-03 6.45161327e-03 1.97849469e-03 3.26881721e-03
      5.07526891e-03 3.69892479e-03 4.98924730e-03 6.88172039e-03
      3.95698939e-03 2.15053768e-03 3.87096778e-03 2.40860227e-03
      8.25806521e-03 3.52688180e-03 4.55913972e-03 2.58064526e-03
      8.00000038e-03 1.37634408e-02 1.54838711e-03 3.69892479e-03
      6.53763441e-03 3.01075284e-03 4.73118294e-03 2.92473123e-03
      4.21505375e-03 8.25806521e-03 5.50537650e-03 3.24301086e-02
      3.78494640e-03 4.64516133e-03 9.46236600e-04 4.12903260e-03
      9.03225876e-03 1.01505378e-02 1.97849469e-03 9.37634427e-03
      2.49462365e-03 5.24731213e-03 4.21505375e-03 3.52688180e-03
      2.32258067e-03 9.63440910e-03 1.20430114e-03 4.73118294e-03
      3.44086019e-03 3.26881721e-03 5.59139811e-03 6.27957005e-03
      8.25806521e-03 3.87096778e-03 2.58064526e-03 2.66666664e-03
      3.52688180e-03 2.32258067e-03 1.97849469e-03 6.62365602e-03
      3.44086019e-03 6.79569924e-03 6.45161327e-03 3.52688180e-03
      5.07526891e-03 5.93548408e-03 7.39784958e-03 7.74193555e-04
      1.72043010e-03 3.09677422e-03 6.45161327e-03 6.96774200e-03
      1.20430114e-03 7.82795716e-03 4.98924730e-03 4.73118294e-03
      4.04301099e-03 1.46236562e-03 3.01075284e-03 1.00645162e-02
      1.37634412e-03 4.30107536e-03 2.58064526e-03 5.33333328e-03
      1.89247320e-03 2.32258067e-03 6.36559166e-03 3.44086019e-03
      1.06666666e-02 5.24731213e-03 4.21505375e-03 6.19354844e-03
      1.20430114e-03 2.23655929e-03 4.04301099e-03 3.95698939e-03
      9.46236600e-04 6.79569924e-03 1.20430114e-03 2.83870986e-03
      1.04946243e-02 2.06451630e-03 6.53763441e-03 3.09677422e-03
      3.44086019e-03 6.19354844e-03 1.54838711e-03 3.44086031e-04
      2.51182802e-02 4.21505375e-03 3.87096778e-03 2.66666664e-03
      6.19354844e-03 2.06451630e-03 5.67741971e-03 6.79569924e-03
      6.10752683e-03 4.55913972e-03 3.52688180e-03 4.38709697e-03
      2.92473123e-03 6.02150569e-03 2.83870986e-03 2.75268825e-03
      1.89247320e-03 3.78494640e-03 8.34408589e-03 3.26881721e-03
      5.33333328e-03 3.78494640e-03 8.25806521e-03 2.92473123e-03
      6.79569924e-03 2.58064526e-03 2.49462365e-03 3.09677422e-03
      5.67741971e-03 6.62365602e-03 2.73548402e-02 3.69892479e-03</_>
    <_>
      0. 0. 5.86510263e-03 0. 2.93255132e-03 0. 0. 0. 1.46627566e-02
      5.86510263e-03 1.17302053e-02 1.17302053e-02 2.93255132e-03
      2.93255132e-03 8.79765395e-03 2.93255132e-03 0. 8.79765395e-03 0.
      5.86510263e-03 0. 2.93255132e-03 0. 0. 5.86510263e-03
      3.22580636e-02 2.93255132e-03 8.79765395e-03 2.93255132e-03
      2.34604105e-02 0. 0. 0. 1.17302053e-02 5.86510263e-03
      8.79765395e-03 8.79765395e-03 0. 2.93255132e-03 5.86510263e-03
      2.93255132e-03 0. 2.93255132e-03 2.93255132e-03 2.93255132e-03
      1.17302053e-02 2.93255132e-03 0. 1.17302053e-02 2.93255132e-03
      2.05278583e-02 2.93255132e-03 2.93255132e-03 2.93255132e-03
      2.93255132e-03 2.93255132e-03 0. 0. 1.17302053e-02 0.
      8.79765395e-03 0. 0. 2.93255132e-03 2.93255132e-03 5.86510263e-03
      0. 2.93255132e-03 5.86510263e-03 0. 0. 2.93255132e-03
      5.86510263e-03 5.86510263e-03 0. 2.93255132e-03 2.93255132e-03 0.
      2.93255132e-03 2.93255132e-03 5.86510263e-03 2.93255132e-03
      1.17302053e-02 0. 2.93255132e-03 5.86510263e-03 0. 5.86510263e-03
      5.86510263e-03 8.79765395e-03 5.86510263e-03 2.93255132e-03 0. 0.
      1.75953079e-02 2.93255132e-03 2.93255132e-03 8.79765395e-03
      2.93255132e-03 5.86510263e-03 0. 8.79765395e-03 0. 0.
      5.86510263e-03 2.93255132e-03 0. 5.86510263e-03 0. 5.86510263e-03
      2.93255132e-03 0. 2.93255132e-03 0. 5.86510263e-03 0.
      1.17302053e-02 2.93255132e-03 2.93255132e-03 0. 2.93255132e-03
      2.93255132e-03 0. 2.93255132e-03 5.86510263e-03 2.93255132e-03
      2.93255132e-03 2.93255132e-03 2.93255132e-03 2.93255132e-03
      2.93255132e-03 2.93255132e-03 0. 5.86510263e-03 2.93255132e-03
      5.86510263e-03 8.79765395e-03 2.93255132e-03 2.93255132e-03 0.
      2.63929628e-02 2.93255132e-03 0. 1.75953079e-02 0. 0.
      1.17302053e-02 5.86510263e-03 0. 2.93255132e-03 8.79765395e-03
      8.79765395e-03 5.86510263e-03 1.46627566e-02 1.46627566e-02
      2.93255132e-03 8.79765395e-03 5.86510263e-03 2.05278583e-02
      1.17302053e-02 8.79765395e-03 0. 5.86510263e-03 5.86510263e-03
      2.93255132e-03 2.93255132e-03 8.79765395e-03 1.75953079e-02
      1.75953079e-02 5.86510263e-03 2.93255132e-03 1.17302053e-02
      2.93255132e-03 2.05278583e-02 1.17302053e-02 2.93255132e-03
      2.93255132e-03 5.86510263e-03 1.75953079e-02 0. 0. 2.93255132e-03
      2.93255132e-03 2.93255132e-03 0. 5.86510263e-03 5.86510263e-03
      5.86510263e-03 1.75953079e-02 2.93255132e-03 8.79765395e-03
      1.17302053e-02 2.93255132e-03 0. 2.05278583e-02 5.86510263e-03 0.
      2.93255132e-03 0. 0.</_>
    <_>
      1.20000001e-02 4.00000019e-03 0. 0. 8.00000038e-03 4.00000019e-03
      4.00000019e-03 0. 8.00000038e-03 2.00000014e-02 0. 0.
      4.00000019e-03 4.00000019e-03 0. 4.00000019e-03 8.00000038e-03
      4.00000019e-03 4.00000019e-03 4.00000019e-03 4.00000019e-03 0. 0.
      0. 4.00000019e-03 4.80000004e-02 0. 0. 4.00000019e-03
      2.00000014e-02 4.00000019e-03 0. 1.20000001e-02 4.00000019e-03
      8.00000038e-03 4.00000019e-03 0. 0. 0. 4.00000019e-03 0. 0.
      4.00000019e-03 1.20000001e-02 0. 4.00000019e-03 4.00000019e-03
      8.00000038e-03 8.00000038e-03 0. 2.80000009e-02 4.00000019e-03 0.
      1.60000008e-02 0. 1.60000008e-02 0. 1.60000008e-02 0.
      4.00000019e-03 4.00000019e-03 0. 8.00000038e-03 0. 0. 0. 0. 0.
      8.00000038e-03 4.00000019e-03 0. 0. 4.00000019e-03 4.00000019e-03
      4.00000019e-03 4.00000019e-03 4.00000019e-03 1.60000008e-02
      4.00000019e-03 4.00000019e-03 4.00000019e-03 0. 1.20000001e-02
      4.00000019e-03 4.00000019e-03 1.20000001e-02 0. 0. 0.
      8.00000038e-03 8.00000038e-03 0. 8.00000038e-03 0. 8.00000038e-03
      4.00000019e-03 0. 0. 8.00000038e-03 8.00000038e-03 4.00000019e-03
      4.00000019e-03 8.00000038e-03 0. 1.60000008e-02 4.00000019e-03 0.
      8.00000038e-03 1.60000008e-02 0. 4.00000019e-03 4.00000019e-03 0.
      0. 0. 0. 4.00000019e-03 0. 4.00000019e-03 0. 0. 0. 4.00000019e-03
      8.00000038e-03 8.00000038e-03 8.00000038e-03 4.00000019e-03
      4.00000019e-03 4.00000019e-03 1.60000008e-02 0. 0. 0.
      8.00000038e-03 4.00000019e-03 0. 4.00000019e-03 4.00000019e-03 0.
      4.00000019e-03 1.20000001e-02 0. 4.00000019e-03 4.00000019e-03 0.
      1.20000001e-02 4.00000019e-03 4.00000019e-03 8.00000038e-03
      4.00000019e-03 0. 0. 0. 4.00000019e-03 0. 4.00000019e-03
      8.00000038e-03 0. 2.40000002e-02 4.00000019e-03 4.00000019e-03 0.
      4.00000019e-03 0. 0. 4.00000019e-03 2.40000002e-02 3.20000015e-02
      1.60000008e-02 0. 0. 1.20000001e-02 4.00000019e-03 2.80000009e-02
      0. 0. 0. 0. 4.00000019e-03 1.20000001e-02 4.00000019e-03
      4.00000019e-03 0. 1.60000008e-02 4.00000019e-03 0. 0. 0.
      1.60000008e-02 0. 0. 1.60000008e-02 4.00000019e-03 1.20000001e-02
      1.20000001e-02 2.00000014e-02 0. 4.00000019e-03 4.00000019e-03 0.</_>
    <_>
      7.06713786e-03 0. 7.06713786e-03 3.53356893e-03 0. 3.53356893e-03
      1.06007066e-02 0. 1.76678449e-02 0. 3.53356893e-03 3.53356893e-03
      0. 3.53356893e-03 0. 7.06713786e-03 0. 1.41342757e-02 0. 0. 0.
      7.06713786e-03 0. 0. 1.06007066e-02 1.41342757e-02 1.06007066e-02
      3.53356893e-03 0. 7.06713786e-03 1.41342757e-02 0. 0.
      3.53356893e-03 1.06007066e-02 3.53356893e-03 7.06713786e-03
      3.53356893e-03 3.53356893e-03 3.53356893e-03 3.53356893e-03 0. 0.
      0. 3.53356893e-03 1.06007066e-02 1.06007066e-02 0. 0. 0.
      1.06007066e-02 0. 3.53356893e-03 3.53356893e-03 3.53356893e-03
      1.76678449e-02 0. 3.53356893e-03 7.06713786e-03 1.76678449e-02
      7.06713786e-03 0. 3.53356893e-03 3.53356893e-03 3.53356893e-03
      7.06713786e-03 0. 0. 3.53356893e-03 0. 1.41342757e-02
      1.41342757e-02 3.53356893e-03 3.53356893e-03 3.53356893e-03
      3.53356893e-03 7.06713786e-03 7.06713786e-03 7.06713786e-03
      3.53356893e-03 7.06713786e-03 3.53356893e-03 1.06007066e-02
      3.53356893e-03 3.53356893e-03 0. 7.06713786e-03 3.53356893e-03
      3.53356893e-03 1.41342757e-02 3.53356893e-03 0. 2.12014131e-02
      7.06713786e-03 2.12014131e-02 3.53356893e-03 3.53356893e-03 0.
      3.53356893e-03 7.06713786e-03 3.53356893e-03 1.06007066e-02
      7.06713786e-03 7.06713786e-03 3.53356893e-03 0. 3.53356893e-03 0.
      0. 7.06713786e-03 3.53356893e-03 3.53356893e-03 7.06713786e-03
      7.06713786e-03 0. 0. 7.06713786e-03 1.06007066e-02 7.06713786e-03
      7.06713786e-03 3.53356893e-03 1.06007066e-02 3.53356893e-03
      7.06713786e-03 1.06007066e-02 0. 3.53356893e-03 3.53356893e-03
      1.76678449e-02 7.06713786e-03 1.06007066e-02 7.06713786e-03
      3.53356893e-03 3.53356893e-03 7.06713786e-03 3.53356893e-03 0.
      3.53356893e-03 3.53356893e-03 0. 1.76678449e-02 0. 0. 0.
      3.53356893e-03 1.06007066e-02 7.06713786e-03 3.53356893e-03
      1.41342757e-02 0. 0. 3.53356893e-03 3.53356893e-03 3.53356893e-03
      0. 3.53356893e-03 3.53356893e-03 0. 1.41342757e-02 1.06007066e-02
      0. 0. 7.06713786e-03 0. 3.53356893e-03 0. 3.18021215e-02
      1.41342757e-02 3.53356893e-03 0. 0. 7.06713786e-03 0.
      1.41342757e-02 7.06713786e-03 1.06007066e-02 0. 3.53356893e-03
      3.53356893e-03 0. 7.06713786e-03 7.06713786e-03 0. 3.53356893e-03
      0. 3.53356893e-03 3.53356893e-03 7.06713786e-03 0. 3.53356893e-03
      7.06713786e-03 1.76678449e-02 3.53356893e-03 0. 3.53356893e-03
      3.53356893e-03 3.53356893e-03 3.53356893e-03 7.06713786e-03
      3.53356893e-03</_>
    <_>
      1.02301789e-02 7.67263398e-03 0. 0. 0. 5.11508947e-03 0. 0. 0. 0.
      5.11508947e-03 5.11508947e-03 2.55754474e-03 2.55754474e-03
      2.55754474e-03 0. 7.67263398e-03 0. 2.55754474e-03 2.55754474e-03
      0. 1.27877239e-02 7.67263398e-03 0. 7.67263398e-03 2.55754474e-03
      7.67263398e-03 5.11508947e-03 0. 5.11508947e-03 2.55754474e-03
      2.55754474e-03 2.55754474e-03 5.11508947e-03 2.55754474e-03
      5.11508947e-03 2.55754474e-03 2.55754474e-03 0. 2.55754474e-03
      2.55754474e-03 1.27877239e-02 0. 0. 7.67263398e-03 5.11508947e-03
      2.55754474e-03 5.11508947e-03 1.02301789e-02 2.55754474e-03
      2.55754474e-03 0. 0. 1.27877239e-02 2.55754474e-03 2.55754474e-03
      5.11508947e-03 1.02301789e-02 1.27877239e-02 5.11508947e-03
      2.55754474e-03 2.55754474e-03 7.67263398e-03 0. 5.11508947e-03
      7.67263398e-03 0. 5.11508947e-03 2.55754474e-03 5.11508947e-03
      1.27877239e-02 2.55754474e-03 1.53452680e-02 0. 0. 1.79028139e-02
      1.02301789e-02 7.67263398e-03 5.11508947e-03 1.27877239e-02
      5.11508947e-03 0. 0. 5.11508947e-03 2.55754474e-03 7.67263398e-03
      2.55754474e-03 7.67263398e-03 0. 1.02301789e-02 5.11508947e-03 0.
      2.55754474e-03 0. 1.53452680e-02 5.11508947e-03 5.11508947e-03
      1.02301789e-02 2.55754474e-03 0. 2.55754474e-03 5.11508947e-03
      1.02301789e-02 2.55754474e-03 0. 2.55754474e-03 2.55754474e-03
      5.11508947e-03 7.67263398e-03 2.55754474e-03 2.55754474e-03
      1.53452680e-02 0. 0. 1.27877239e-02 5.11508947e-03 7.67263398e-03
      2.55754474e-03 7.67263398e-03 2.55754474e-03 1.02301789e-02
      5.11508947e-03 1.02301789e-02 5.11508947e-03 2.04603579e-02
      5.11508947e-03 2.55754474e-03 0. 0. 5.11508947e-03 5.11508947e-03
      2.55754474e-03 1.02301789e-02 5.11508947e-03 5.11508947e-03
      5.11508947e-03 2.55754474e-03 2.55754474e-03 7.67263398e-03
      7.67263398e-03 1.53452680e-02 5.11508947e-03 2.55754474e-03
      2.55754474e-03 0. 1.53452680e-02 0. 7.67263398e-03 1.53452680e-02
      5.11508947e-03 7.67263398e-03 2.55754474e-03 7.67263398e-03
      7.67263398e-03 7.67263398e-03 2.55754474e-03 5.11508947e-03
      1.02301789e-02 7.67263398e-03 7.67263398e-03 1.27877239e-02 0.
      1.27877239e-02 2.55754474e-03 0. 7.67263398e-03 7.67263398e-03
      7.67263398e-03 0. 2.55754474e-03 0. 2.55754474e-03 7.67263398e-03
      7.67263398e-03 7.67263398e-03 5.11508947e-03 7.67263398e-03
      5.11508947e-03 5.11508947e-03 5.11508947e-03 1.27877239e-02
      1.27877239e-02 0. 2.55754474e-03 2.55754474e-03 5.11508947e-03
      2.55754474e-03 5.11508947e-03 5.11508947e-03 7.67263398e-03
      5.11508947e-03 2.55754474e-03 7.67263398e-03 0. 5.11508947e-03
      5.11508947e-03 0. 2.55754474e-03 5.11508947e-03 1.02301789e-02</_>
    <_>
      1.12676052e-02 0. 5.63380262e-03 0. 2.81690131e-03 2.81690131e-03
      8.45070370e-03 0. 2.25352105e-02 1.40845068e-02 2.81690131e-03
      2.81690131e-03 0. 2.81690131e-03 0. 5.63380262e-03 0.
      1.12676052e-02 2.81690131e-03 1.40845068e-02 2.81690131e-03
      2.81690131e-03 0. 2.81690131e-03 3.94366197e-02 2.25352105e-02
      2.81690131e-03 2.81690131e-03 0. 1.12676052e-02 5.63380262e-03 0.
      1.12676052e-02 5.63380262e-03 2.81690131e-03 0. 2.81690131e-03 0.
      5.63380262e-03 2.81690131e-03 0. 8.45070370e-03 0. 8.45070370e-03
      5.63380262e-03 2.81690131e-03 0. 2.81690131e-03 1.40845068e-02
      2.81690131e-03 1.69014074e-02 0. 5.63380262e-03 5.63380262e-03
      5.63380262e-03 8.45070370e-03 5.63380262e-03 0. 2.81690131e-03
      8.45070370e-03 2.81690131e-03 0. 1.40845068e-02 0. 5.63380262e-03
      2.81690131e-03 2.81690131e-03 0. 0. 5.63380262e-03 2.81690131e-03
      2.81690131e-03 2.81690131e-03 2.81690131e-03 5.63380262e-03
      8.45070370e-03 2.81690131e-03 2.81690131e-03 2.81690131e-03
      2.81690131e-03 0. 0. 2.81690131e-03 0. 0. 1.40845068e-02
      8.45070370e-03 0. 2.81690131e-03 2.81690131e-03 0. 5.63380262e-03
      5.63380262e-03 2.81690131e-03 1.69014074e-02 2.81690131e-03
      2.81690131e-03 8.45070370e-03 2.81690131e-03 2.81690131e-03 0. 0.
      2.81690131e-03 2.81690131e-03 8.45070370e-03 5.63380262e-03 0.
      2.81690131e-03 5.63380262e-03 0. 8.45070370e-03 8.45070370e-03
      5.63380262e-03 8.45070370e-03 2.81690131e-03 5.63380262e-03
      2.81690131e-03 5.63380262e-03 1.12676052e-02 5.63380262e-03
      8.45070370e-03 0. 2.81690131e-03 1.40845068e-02 8.45070370e-03
      1.12676052e-02 0. 0. 5.63380262e-03 8.45070370e-03 5.63380262e-03
      2.81690131e-03 0. 2.81690131e-03 2.81690131e-03 0. 5.63380262e-03
      5.63380262e-03 5.63380262e-03 0. 1.97183099e-02 0. 2.81690131e-03
      8.45070370e-03 0. 1.12676052e-02 2.81690131e-03 2.81690131e-03
      1.97183099e-02 0. 5.63380262e-03 0. 5.63380262e-03 8.45070370e-03
      2.81690131e-03 2.81690131e-03 5.63380262e-03 0. 5.63380262e-03
      2.81690131e-03 5.63380262e-03 0. 8.45070370e-03 1.12676052e-02
      8.45070370e-03 5.63380262e-03 1.69014074e-02 1.40845068e-02 0. 0.
      8.45070370e-03 2.81690131e-03 2.81690131e-03 8.45070370e-03
      5.63380262e-03 5.63380262e-03 0. 0. 8.45070370e-03 8.45070370e-03
      1.12676052e-02 0. 2.81690131e-03 5.63380262e-03 5.63380262e-03
      2.81690131e-03 0. 2.81690131e-03 1.69014074e-02 0. 2.81690131e-03
      1.40845068e-02 2.81690131e-03 2.81690131e-03 8.45070370e-03
      2.81690131e-03 2.81690131e-03 0. 1.12676052e-02 2.81690131e-03</_>
    <_>
      4.26439242e-03 4.26439242e-03 6.39658887e-03 2.13219621e-03
      6.39658887e-03 6.39658887e-03 0. 2.13219621e-03 2.34541576e-02
      1.27931777e-02 0. 2.13219621e-03 2.13219621e-03 2.13219621e-03 0.
      1.27931777e-02 2.13219621e-03 4.26439242e-03 4.26439242e-03
      1.49253737e-02 2.13219621e-03 2.13219621e-03 4.26439242e-03
      2.13219621e-03 1.70575697e-02 4.05117273e-02 6.39658887e-03 0.
      4.26439242e-03 2.34541576e-02 4.26439242e-03 2.13219621e-03
      2.13219621e-03 4.26439242e-03 6.39658887e-03 0. 4.26439242e-03
      2.13219621e-03 4.26439242e-03 2.13219621e-03 2.13219621e-03
      2.13219621e-03 0. 0. 2.13219621e-03 4.26439242e-03 2.13219621e-03
      0. 2.13219621e-03 2.13219621e-03 1.49253737e-02 6.39658887e-03
      2.13219621e-03 2.13219621e-03 2.13219621e-03 4.26439242e-03
      6.39658887e-03 6.39658887e-03 2.13219621e-03 2.13219621e-03
      6.39658887e-03 0. 6.39658887e-03 6.39658887e-03 0. 2.13219621e-03
      0. 2.13219621e-03 6.39658887e-03 4.26439242e-03 6.39658887e-03
      8.52878485e-03 4.26439242e-03 6.39658887e-03 4.26439242e-03
      4.26439242e-03 0. 2.13219621e-03 2.13219621e-03 4.26439242e-03
      6.39658887e-03 4.26439242e-03 2.13219621e-03 2.13219621e-03
      2.13219621e-03 0. 4.26439242e-03 4.26439242e-03 1.06609808e-02
      8.52878485e-03 8.52878485e-03 8.52878485e-03 2.13219621e-03
      2.13219621e-03 1.27931777e-02 8.52878485e-03 0. 2.13219621e-03
      2.13219621e-03 6.39658887e-03 0. 2.13219621e-03 0. 0.
      2.13219621e-03 8.52878485e-03 6.39658887e-03 4.26439242e-03
      2.13219621e-03 2.13219621e-03 0. 1.06609808e-02 4.26439242e-03 0.
      1.06609808e-02 2.13219621e-03 1.49253737e-02 0. 4.26439242e-03 0.
      4.26439242e-03 6.39658887e-03 4.26439242e-03 6.39658887e-03
      4.26439242e-03 6.39658887e-03 6.39658887e-03 2.13219621e-03
      6.39658887e-03 4.26439242e-03 1.06609808e-02 4.26439242e-03 0.
      8.52878485e-03 2.13219621e-03 8.52878485e-03 6.39658887e-03
      2.13219621e-03 2.13219621e-03 8.52878485e-03 1.27931777e-02
      4.26439242e-03 8.52878485e-03 1.27931777e-02 2.13219621e-03 0.
      4.26439242e-03 4.26439242e-03 2.13219621e-03 6.39658887e-03
      8.52878485e-03 2.13219621e-03 2.13219621e-03 4.26439242e-03
      2.13219621e-03 0. 0. 4.26439242e-03 2.98507474e-02 6.39658887e-03
      0. 4.26439242e-03 2.13219621e-03 6.39658887e-03 4.26439242e-03
      2.13219621e-03 8.52878485e-03 6.39658887e-03 2.13219621e-03
      1.06609808e-02 0. 1.27931777e-02 6.39658887e-03 3.19829434e-02
      4.26439242e-03 4.26439242e-03 8.52878485e-03 4.26439242e-03
      6.39658887e-03 2.13219621e-03 2.13219621e-03 2.13219621e-03
      2.13219621e-03 0. 4.26439242e-03 6.39658887e-03 4.26439242e-03
      2.13219621e-03 1.70575697e-02 2.13219621e-03 2.13219621e-03
      1.27931777e-02 4.26439242e-03 4.26439242e-03 2.13219621e-03
      4.26439242e-03 2.13219621e-03 6.39658887e-03 4.26439242e-03
      2.13219621e-03</_>
    <_>
      4.78468882e-03 9.56937764e-03 0. 2.39234441e-03 2.39234441e-03
      1.19617218e-02 0. 4.78468882e-03 1.19617218e-02 4.78468882e-03 0.
      7.17703346e-03 4.78468882e-03 4.78468882e-03 4.78468882e-03
      4.78468882e-03 7.17703346e-03 1.43540669e-02 2.39234441e-03
      2.39234441e-03 2.39234441e-03 0. 2.39234441e-03 2.39234441e-03 0.
      2.39234436e-02 9.56937764e-03 4.78468882e-03 2.39234441e-03
      1.43540669e-02 2.39234441e-03 4.78468882e-03 2.39234441e-03
      4.78468882e-03 7.17703346e-03 9.56937764e-03 0. 0. 2.39234441e-03
      4.78468882e-03 0. 0. 0. 2.39234441e-03 7.17703346e-03
      4.78468882e-03 4.78468882e-03 7.17703346e-03 7.17703346e-03
      2.39234441e-03 3.58851664e-02 2.39234441e-03 0. 1.19617218e-02
      4.78468882e-03 1.19617218e-02 2.39234441e-03 2.39234441e-03
      1.43540669e-02 0. 0. 0. 4.78468882e-03 7.17703346e-03 0. 0.
      2.39234441e-03 7.17703346e-03 4.78468882e-03 4.78468882e-03
      4.78468882e-03 1.19617218e-02 0. 4.78468882e-03 2.39234441e-03
      2.39234441e-03 2.39234441e-03 0. 9.56937764e-03 7.17703346e-03 0.
      0. 2.39234441e-03 2.39234441e-03 2.39234441e-03 7.17703346e-03
      2.39234441e-03 0. 4.78468882e-03 4.78468882e-03 2.39234441e-03 0.
      9.56937764e-03 4.78468882e-03 2.15310995e-02 7.17703346e-03
      2.39234441e-03 0. 7.17703346e-03 0. 4.78468882e-03 0.
      4.78468882e-03 2.39234441e-03 2.39234441e-03 0. 7.17703346e-03
      2.39234441e-03 0. 0. 9.56937764e-03 2.39234441e-03 7.17703346e-03
      9.56937764e-03 1.19617218e-02 4.78468882e-03 4.78468882e-03
      2.39234441e-03 4.78468882e-03 4.78468882e-03 7.17703346e-03 0.
      7.17703346e-03 1.43540669e-02 4.78468882e-03 2.39234441e-03
      7.17703346e-03 2.39234441e-03 0. 2.39234441e-03 2.39234441e-03 0.
      9.56937764e-03 4.78468882e-03 2.39234441e-03 2.39234441e-03 0.
      2.39234441e-03 4.78468882e-03 7.17703346e-03 2.15310995e-02
      4.78468882e-03 7.17703346e-03 0. 0. 2.39234441e-03 4.78468882e-03
      1.19617218e-02 2.39234441e-03 2.39234441e-03 7.17703346e-03 0.
      4.78468882e-03 7.17703346e-03 9.56937764e-03 1.19617218e-02
      7.17703346e-03 0. 2.87081338e-02 2.39234441e-03 2.39234441e-03 0.
      2.39234441e-03 2.39234441e-03 1.19617218e-02 4.78468882e-03
      1.43540669e-02 4.78468882e-03 0. 7.17703346e-03 7.17703346e-03
      9.56937764e-03 2.39234441e-03 2.15310995e-02 7.17703346e-03 0.
      2.39234441e-03 2.39234441e-03 2.39234441e-03 0. 9.56937764e-03
      2.39234441e-03 0. 4.78468882e-03 0. 7.17703346e-03 0.
      9.56937764e-03 1.19617218e-02 0. 2.39234441e-03 1.91387553e-02
      9.56937764e-03 2.39234441e-03 7.17703346e-03 7.17703346e-03 0.
      4.78468882e-03 0. 4.78468882e-03</_>
    <_>
      2.57731951e-03 5.15463902e-03 5.15463902e-03 2.57731951e-03
      2.57731951e-03 0. 5.15463902e-03 0. 1.80412363e-02 7.73195829e-03
      5.15463902e-03 2.57731951e-03 5.15463902e-03 2.57731951e-03
      2.57731951e-03 0. 0. 1.03092780e-02 1.03092780e-02 7.73195829e-03
      0. 5.15463902e-03 1.28865978e-02 2.57731951e-03 7.73195829e-03
      2.57731955e-02 1.03092780e-02 2.57731951e-03 5.15463902e-03
      1.28865978e-02 0. 0. 1.28865978e-02 0. 2.57731951e-03 0.
      7.73195829e-03 2.57731951e-03 5.15463902e-03 7.73195829e-03
      5.15463902e-03 2.57731951e-03 5.15463902e-03 0. 5.15463902e-03
      2.57731951e-03 5.15463902e-03 2.57731951e-03 1.03092780e-02
      2.57731951e-03 2.06185561e-02 5.15463902e-03 0. 2.57731951e-03 0.
      7.73195829e-03 1.03092780e-02 2.57731951e-03 1.28865978e-02
      1.54639166e-02 1.80412363e-02 0. 2.57731951e-03 5.15463902e-03
      2.57731951e-03 2.57731951e-03 0. 2.57731951e-03 2.57731951e-03 0.
      2.57731951e-03 0. 5.15463902e-03 2.57731951e-03 2.57731951e-03
      5.15463902e-03 1.54639166e-02 2.57731951e-03 2.57731951e-03
      7.73195829e-03 2.57731951e-03 5.15463902e-03 0. 5.15463902e-03 0.
      0. 0. 2.57731951e-03 2.57731951e-03 7.73195829e-03 5.15463902e-03
      7.73195829e-03 7.73195829e-03 2.57731951e-03 1.03092780e-02
      2.57731951e-03 0. 0. 5.15463902e-03 1.03092780e-02 2.57731951e-03
      5.15463902e-03 5.15463902e-03 5.15463902e-03 2.57731951e-03
      2.57731951e-03 0. 2.57731951e-03 5.15463902e-03 0. 5.15463902e-03
      1.03092780e-02 7.73195829e-03 5.15463902e-03 1.28865978e-02 0.
      1.54639166e-02 7.73195829e-03 1.03092780e-02 0. 7.73195829e-03
      1.28865978e-02 0. 1.54639166e-02 1.28865978e-02 1.03092780e-02
      2.57731951e-03 1.28865978e-02 5.15463902e-03 7.73195829e-03
      2.57731951e-03 2.57731951e-03 2.57731951e-03 7.73195829e-03
      2.57731951e-03 2.57731951e-03 0. 0. 2.57731951e-03 2.57731951e-03
      1.80412363e-02 5.15463902e-03 2.57731951e-03 7.73195829e-03 0.
      2.57731951e-03 1.03092780e-02 0. 1.03092780e-02 0. 0.
      2.57731951e-03 5.15463902e-03 1.03092780e-02 0. 0. 2.57731951e-03
      5.15463902e-03 2.06185561e-02 2.57731951e-03 2.57731951e-03
      2.57731951e-03 5.15463902e-03 2.57731951e-03 2.57731951e-03
      1.03092780e-02 1.28865978e-02 0. 2.57731951e-03 5.15463902e-03 0.
      5.15463902e-03 7.73195829e-03 1.80412363e-02 5.15463902e-03 0. 0.
      0. 2.57731951e-03 1.03092780e-02 5.15463902e-03 5.15463902e-03 0.
      2.57731951e-03 0. 2.57731951e-03 7.73195829e-03 2.57731951e-03
      2.06185561e-02 0. 2.57731951e-03 2.57731951e-03 0. 0.
      1.54639166e-02 5.15463902e-03 0. 5.15463902e-03 0. 5.15463902e-03</_>
    <_>
      5.43478271e-03 0. 8.15217383e-03 0. 0. 5.43478271e-03 0.
      2.71739135e-03 8.15217383e-03 8.15217383e-03 2.71739135e-03 0.
      2.71739135e-03 5.43478271e-03 5.43478271e-03 2.71739135e-03 0.
      1.08695654e-02 2.71739135e-03 1.35869570e-02 5.43478271e-03
      5.43478271e-03 8.15217383e-03 0. 1.35869570e-02 1.90217402e-02
      1.08695654e-02 0. 2.71739135e-03 8.15217383e-03 5.43478271e-03
      2.71739135e-03 0. 2.71739135e-03 0. 2.71739135e-03 0. 0.
      5.43478271e-03 2.71739135e-03 5.43478271e-03 5.43478271e-03
      8.15217383e-03 5.43478271e-03 5.43478271e-03 2.71739135e-03
      8.15217383e-03 2.71739135e-03 5.43478271e-03 2.71739135e-03
      2.17391308e-02 0. 8.15217383e-03 5.43478271e-03 0. 4.07608710e-02
      0. 8.15217383e-03 5.43478271e-03 2.71739135e-03 2.71739135e-03 0.
      5.43478271e-03 0. 8.15217383e-03 5.43478271e-03 0. 2.71739135e-03
      2.71739135e-03 2.71739135e-03 2.71739135e-03 2.71739135e-03
      5.43478271e-03 5.43478271e-03 0. 1.08695654e-02 2.71739135e-03
      5.43478271e-03 2.71739135e-03 5.43478271e-03 2.71739135e-03 0.
      5.43478271e-03 8.15217383e-03 5.43478271e-03 0. 2.71739135e-03
      8.15217383e-03 1.08695654e-02 1.08695654e-02 5.43478271e-03
      2.71739135e-03 5.43478271e-03 0. 8.15217383e-03 2.71739135e-03 0.
      2.71739135e-03 5.43478271e-03 5.43478271e-03 2.71739135e-03 0.
      5.43478271e-03 2.71739135e-03 5.43478271e-03 5.43478271e-03 0.
      5.43478271e-03 2.71739135e-03 0. 0. 0. 0. 2.71739135e-03
      1.08695654e-02 1.08695654e-02 5.43478271e-03 5.43478271e-03
      8.15217383e-03 0. 8.15217383e-03 0. 5.43478271e-03 5.43478271e-03
      1.63043477e-02 5.43478271e-03 0. 1.63043477e-02 1.35869570e-02 0.
      5.43478271e-03 5.43478271e-03 8.15217383e-03 5.43478271e-03
      2.71739135e-03 0. 5.43478271e-03 5.43478271e-03 5.43478271e-03
      5.43478271e-03 1.35869570e-02 2.71739135e-03 5.43478271e-03
      8.15217383e-03 2.71739135e-03 2.71739135e-03 0. 5.43478271e-03
      8.15217383e-03 2.71739135e-03 5.43478271e-03 0. 2.71739135e-03 0.
      0. 2.71739135e-03 2.71739135e-03 5.43478271e-03 8.15217383e-03 0.
      0. 5.43478271e-03 5.43478271e-03 0. 2.71739135e-03 5.43478271e-03
      1.63043477e-02 2.44565215e-02 5.43478271e-03 2.71739135e-03
      2.71739135e-03 1.63043477e-02 2.71739135e-03 1.35869570e-02
      8.15217383e-03 0. 0. 0. 2.71739135e-03 2.17391308e-02
      5.43478271e-03 5.43478271e-03 2.71739135e-03 1.35869570e-02
      1.08695654e-02 5.43478271e-03 8.15217383e-03 5.43478271e-03
      8.15217383e-03 2.71739135e-03 0. 1.90217402e-02 0. 5.43478271e-03
      8.15217383e-03 0. 0. 0. 0. 2.71739135e-03</_>
    <_>
      2.58397940e-03 0. 0. 2.58397940e-03 2.58397940e-03 1.29198972e-02
      1.03359176e-02 2.58397940e-03 2.58397940e-03 2.58397940e-03
      2.58397940e-03 5.16795879e-03 5.16795879e-03 0. 5.16795879e-03
      1.03359176e-02 2.58397940e-03 2.58397940e-03 7.75193796e-03
      2.58397940e-03 1.03359176e-02 5.16795879e-03 0. 5.16795879e-03
      3.35917324e-02 0. 2.58397940e-03 1.29198972e-02 2.58397940e-03
      5.16795879e-03 5.16795879e-03 0. 1.03359176e-02 2.58397940e-03
      7.75193796e-03 7.75193796e-03 5.16795879e-03 7.75193796e-03
      1.03359176e-02 5.16795879e-03 2.58397940e-03 5.16795879e-03
      5.16795879e-03 2.58397940e-03 2.58397940e-03 0. 2.58397940e-03
      5.16795879e-03 1.03359176e-02 2.58397940e-03 2.58397940e-03
      5.16795879e-03 7.75193796e-03 5.16795879e-03 1.03359176e-02
      7.75193796e-03 7.75193796e-03 7.75193796e-03 5.16795879e-03
      2.58397940e-03 2.58397944e-02 0. 5.16795879e-03 0. 2.58397940e-03
      1.29198972e-02 0. 2.58397940e-03 1.03359176e-02 5.16795879e-03
      5.16795879e-03 2.58397940e-03 7.75193796e-03 1.03359176e-02 0.
      1.29198972e-02 5.16795879e-03 5.16795879e-03 5.16795879e-03
      5.16795879e-03 5.16795879e-03 2.58397940e-03 7.75193796e-03
      5.16795879e-03 0. 0. 1.29198972e-02 2.58397940e-03 2.58397940e-03
      0. 2.58397940e-03 0. 7.75193796e-03 0. 7.75193796e-03
      5.16795879e-03 5.16795879e-03 1.29198972e-02 0. 0. 2.58397940e-03
      1.29198972e-02 5.16795879e-03 0. 2.58397940e-03 1.29198972e-02 0.
      2.58397940e-03 7.75193796e-03 5.16795879e-03 2.58397940e-03
      2.58397940e-03 7.75193796e-03 7.75193796e-03 2.58397940e-03
      7.75193796e-03 2.58397940e-03 7.75193796e-03 0. 0. 2.58397940e-03
      0. 2.58397940e-03 0. 2.58397940e-03 2.58397940e-03 1.03359176e-02
      2.58397940e-03 7.75193796e-03 5.16795879e-03 2.58397940e-03
      5.16795879e-03 0. 5.16795879e-03 2.58397940e-03 1.03359176e-02
      5.16795879e-03 7.75193796e-03 0. 2.84237731e-02 5.16795879e-03 0.
      2.58397940e-03 0. 2.58397940e-03 1.03359176e-02 2.58397940e-03
      5.16795879e-03 1.80878565e-02 0. 1.29198972e-02 2.58397940e-03
      1.03359176e-02 7.75193796e-03 5.16795879e-03 2.58397940e-03
      7.75193796e-03 2.58397940e-03 7.75193796e-03 2.58397940e-03
      1.03359176e-02 0. 2.58397940e-03 2.58397940e-03 5.16795879e-03
      2.58397940e-03 2.58397940e-03 2.58397940e-03 5.16795879e-03 0. 0.
      0. 1.55038759e-02 2.58397940e-03 5.16795879e-03 5.16795879e-03 0.
      1.03359176e-02 2.58397940e-03 0. 7.75193796e-03 1.03359176e-02 0.
      2.58397940e-03 5.16795879e-03 5.16795879e-03 1.03359176e-02
      2.58397940e-03 2.58397940e-03 2.58397940e-03 2.58397940e-03
      2.58397940e-03 5.16795879e-03 0. 2.58397940e-03 7.75193796e-03
      2.58397940e-03 5.16795879e-03 7.75193796e-03 7.75193796e-03</_>
    <_>
      6.57894742e-03 0. 3.28947371e-03 0. 0. 6.57894742e-03
      3.28947371e-03 0. 3.28947371e-03 1.31578948e-02 3.28947371e-03
      6.57894742e-03 3.28947371e-03 9.86842066e-03 0. 0. 9.86842066e-03
      1.64473690e-02 0. 9.86842066e-03 3.28947371e-03 3.28947371e-03 0.
      0. 6.57894742e-03 1.64473690e-02 9.86842066e-03 3.28947371e-03
      9.86842066e-03 1.97368413e-02 9.86842066e-03 3.28947371e-03 0. 0.
      6.57894742e-03 1.31578948e-02 3.28947371e-03 0. 6.57894742e-03
      6.57894742e-03 0. 0. 3.28947371e-03 6.57894742e-03 6.57894742e-03
      3.28947371e-03 6.57894742e-03 0. 0. 0. 9.86842066e-03
      1.31578948e-02 6.57894742e-03 2.96052638e-02 6.57894742e-03
      1.97368413e-02 6.57894742e-03 3.28947371e-03 6.57894742e-03
      3.28947371e-03 0. 3.28947371e-03 3.28947371e-03 9.86842066e-03
      3.28947371e-03 3.28947371e-03 0. 0. 0. 6.57894742e-03
      3.28947371e-03 3.28947371e-03 1.31578948e-02 6.57894742e-03 0.
      9.86842066e-03 0. 3.28947371e-03 0. 3.28947371e-03 0. 0.
      6.57894742e-03 3.28947371e-03 3.28947371e-03 6.57894742e-03
      3.28947371e-03 0. 6.57894742e-03 6.57894742e-03 0. 3.28947371e-03
      9.86842066e-03 9.86842066e-03 1.31578948e-02 3.28947371e-03 0.
      6.57894742e-03 9.86842066e-03 0. 3.28947371e-03 6.57894742e-03
      9.86842066e-03 3.28947371e-03 9.86842066e-03 6.57894742e-03 0. 0.
      3.28947371e-03 9.86842066e-03 0. 0. 0. 3.28947371e-03
      6.57894742e-03 6.57894742e-03 3.28947371e-03 9.86842066e-03
      9.86842066e-03 9.86842066e-03 0. 0. 3.28947371e-03 6.57894742e-03
      9.86842066e-03 1.31578948e-02 3.28947371e-03 6.57894742e-03
      9.86842066e-03 0. 0. 0. 0. 3.28947371e-03 3.28947371e-03
      9.86842066e-03 3.28947371e-03 6.57894742e-03 0. 0. 6.57894742e-03
      6.57894742e-03 3.28947371e-03 0. 6.57894742e-03 0. 3.28947371e-03
      0. 3.28947371e-03 3.28947371e-03 0. 6.57894742e-03 1.31578948e-02
      6.57894742e-03 2.30263155e-02 6.57894742e-03 9.86842066e-03
      6.57894742e-03 1.97368413e-02 3.28947371e-03 3.28947371e-03 0.
      6.57894742e-03 0. 6.57894742e-03 3.28947371e-03 9.86842066e-03
      9.86842066e-03 0. 3.28947371e-03 0. 3.28947371e-03 0.
      1.31578948e-02 3.28947371e-03 3.28947371e-03 6.57894742e-03
      9.86842066e-03 0. 3.28947371e-03 3.28947371e-03 6.57894742e-03
      3.28947371e-03 3.28947371e-03 6.57894742e-03 3.28947371e-03 0.
      3.28947371e-03 9.86842066e-03 3.28947371e-03 3.28947371e-03
      1.64473690e-02 0. 6.57894742e-03 3.28947371e-03 6.57894742e-03 0.
      0. 0. 1.31578948e-02</_>
    <_>
      0. 7.55667500e-03 2.51889159e-03 2.51889159e-03 0. 7.55667500e-03
      7.55667500e-03 2.51889159e-03 7.55667500e-03 2.51889159e-03
      2.51889159e-03 7.55667500e-03 5.03778318e-03 0. 0. 1.00755664e-02
      1.00755664e-02 2.51889159e-03 1.51133500e-02 0. 5.03778318e-03
      5.03778318e-03 6.54911846e-02 0. 5.03778318e-03 1.25944577e-02
      2.51889159e-03 5.03778318e-03 2.51889159e-03 7.55667500e-03
      2.51889159e-03 5.03778318e-03 1.00755664e-02 0. 7.55667500e-03
      5.03778318e-03 2.51889159e-03 0. 7.55667500e-03 2.51889159e-03 0.
      0. 1.00755664e-02 0. 5.03778318e-03 2.51889159e-03 5.03778318e-03
      7.55667500e-03 7.55667500e-03 5.03778318e-03 5.03778318e-03 0. 0.
      2.51889159e-03 5.03778318e-03 5.03778318e-03 5.03778318e-03
      1.25944577e-02 1.00755664e-02 2.51889159e-03 7.55667500e-03
      5.03778318e-03 7.55667500e-03 2.51889159e-03 7.55667500e-03 0.
      2.51889159e-03 5.03778318e-03 7.55667500e-03 5.03778318e-03 0.
      5.03778318e-03 7.55667500e-03 2.51889159e-03 7.55667500e-03
      5.03778318e-03 2.51889159e-03 1.00755664e-02 2.51889159e-03
      7.55667500e-03 0. 5.03778318e-03 7.55667500e-03 5.03778318e-03
      7.55667500e-03 2.51889159e-03 5.03778318e-03 5.03778318e-03
      5.03778318e-03 5.03778318e-03 2.51889159e-03 5.03778318e-03
      7.55667500e-03 5.03778318e-03 1.25944577e-02 1.00755664e-02
      7.55667500e-03 0. 2.51889159e-03 5.03778318e-03 1.00755664e-02
      2.51889159e-03 0. 0. 5.03778318e-03 7.55667500e-03 5.03778318e-03
      2.51889159e-03 0. 5.03778318e-03 2.51889159e-03 5.03778318e-03
      5.03778318e-03 2.51889159e-03 5.03778318e-03 7.55667500e-03
      7.55667500e-03 0. 0. 0. 0. 1.25944577e-02 0. 1.25944577e-02
      2.51889159e-03 1.25944577e-02 7.55667500e-03 7.55667500e-03
      7.55667500e-03 1.00755664e-02 2.51889159e-03 2.51889159e-03 0.
      7.55667500e-03 7.55667500e-03 5.03778318e-03 7.55667500e-03
      2.51889159e-03 0. 7.55667500e-03 5.03778318e-03 2.51889159e-03
      5.03778318e-03 2.51889159e-03 2.51889159e-03 2.51889159e-03
      1.00755664e-02 2.51889159e-03 1.25944577e-02 5.03778318e-03
      5.03778318e-03 2.51889159e-03 0. 5.03778318e-03 1.25944577e-02
      5.03778318e-03 0. 2.51889159e-03 0. 5.03778318e-03 1.51133500e-02
      1.51133500e-02 0. 2.51889159e-03 2.51889159e-03 5.03778318e-03
      2.51889159e-03 2.51889159e-03 0. 2.51889159e-03 0. 1.76322404e-02
      0. 2.51889159e-03 2.51889159e-03 2.51889159e-03 2.51889159e-03
      7.55667500e-03 5.03778318e-03 5.03778318e-03 5.03778318e-03 0.
      7.55667500e-03 2.51889159e-03 0. 1.00755664e-02 1.00755664e-02 0.
      0. 7.55667500e-03 1.25944577e-02 7.55667500e-03 5.03778318e-03
      2.51889159e-03 5.03778318e-03 2.51889159e-03 2.51889159e-03
      2.51889159e-03 2.51889159e-03 0.</_>
    <_>
      3.80228134e-03 0. 0. 1.14068445e-02 3.80228134e-03 3.80228134e-03
      3.80228134e-03 3.80228134e-03 7.60456268e-03 0. 7.60456268e-03 0.
      3.80228134e-03 3.80228134e-03 0. 0. 3.80228134e-03 1.52091254e-02
      0. 1.52091254e-02 0. 3.80228134e-03 0. 0. 0. 1.90114062e-02
      3.80228134e-03 0. 3.80228134e-03 1.52091254e-02 1.90114062e-02
      3.80228134e-03 3.80228134e-03 3.80228134e-03 1.14068445e-02
      1.14068445e-02 0. 0. 1.14068445e-02 1.14068445e-02 3.80228134e-03
      3.80228134e-03 0. 0. 3.80228134e-03 0. 0. 0. 0. 3.80228134e-03
      1.14068445e-02 0. 0. 3.80228134e-03 3.80228134e-03 3.04182507e-02
      3.80228134e-03 0. 0. 1.52091254e-02 3.80228134e-03 0.
      3.80228134e-03 0. 7.60456268e-03 0. 7.60456268e-03 0.
      1.14068445e-02 7.60456268e-03 7.60456268e-03 0. 1.52091254e-02
      7.60456268e-03 0. 0. 0. 0. 0. 0. 0. 7.60456268e-03 1.52091254e-02
      0. 0. 7.60456268e-03 0. 3.80228134e-03 0. 1.90114062e-02 0. 0.
      1.14068445e-02 0. 1.52091254e-02 3.80228134e-03 0. 0.
      1.14068445e-02 3.80228134e-03 0. 3.80228134e-03 7.60456268e-03 0.
      3.80228134e-03 0. 0. 7.60456268e-03 0. 3.80228134e-03 0. 0.
      1.52091254e-02 3.80228134e-03 1.90114062e-02 0. 7.60456268e-03
      3.80228134e-03 3.80228134e-03 0. 0. 0. 7.60456268e-03
      1.14068445e-02 7.60456268e-03 7.60456268e-03 3.80228134e-03
      7.60456268e-03 2.28136890e-02 3.80228134e-03 3.80228134e-03
      3.80228134e-03 0. 7.60456268e-03 0. 3.80228134e-03 0.
      3.80228134e-03 3.80228134e-03 0. 2.28136890e-02 3.80228134e-03 0.
      2.28136890e-02 3.80228134e-03 3.80228134e-03 0. 7.60456268e-03
      7.60456268e-03 1.14068445e-02 1.52091254e-02 0. 3.80228134e-03
      1.52091254e-02 3.80228134e-03 7.60456268e-03 0. 3.80228134e-03
      1.52091254e-02 7.60456268e-03 0. 0. 3.80228134e-03 3.80228134e-03
      0. 0. 1.14068445e-02 1.90114062e-02 0. 3.80228134e-03 0.
      1.90114062e-02 0. 1.52091254e-02 3.80228134e-03 7.60456268e-03 0.
      0. 7.60456268e-03 0. 0. 3.80228134e-03 1.14068445e-02
      3.80228134e-03 0. 3.80228134e-03 3.80228134e-03 0. 7.60456268e-03
      3.80228134e-03 0. 1.90114062e-02 7.60456268e-03 7.60456268e-03
      1.14068445e-02 7.60456268e-03 0. 7.60456268e-03 3.80228134e-03
      3.80228134e-03</_>
    <_>
      0. 2.34741787e-03 2.34741787e-03 2.34741787e-03 2.34741787e-03
      4.69483575e-03 4.69483575e-03 4.69483575e-03 1.17370896e-02
      2.34741787e-03 2.34741787e-03 4.69483575e-03 4.69483575e-03
      4.69483575e-03 2.34741787e-03 0. 4.69483575e-03 1.64319258e-02
      2.34741787e-03 7.04225339e-03 4.69483575e-03 0. 2.34741787e-03 0.
      0. 9.38967150e-03 2.34741787e-03 4.69483575e-03 2.34741787e-03
      1.17370896e-02 2.34741787e-03 1.40845068e-02 2.34741787e-03
      2.34741787e-03 0. 4.69483575e-03 0. 0. 7.04225339e-03
      2.34741787e-03 2.34741787e-03 2.34741787e-03 2.34741787e-03 0.
      7.04225339e-03 4.69483575e-03 1.17370896e-02 2.34741787e-03
      4.69483575e-03 7.04225339e-03 1.17370896e-02 1.17370896e-02
      2.34741787e-03 1.40845068e-02 2.34741787e-03 9.38967150e-03
      4.69483575e-03 1.17370896e-02 4.69483575e-03 2.34741787e-03 0.
      1.17370896e-02 7.04225339e-03 2.34741787e-03 4.69483575e-03
      2.34741787e-03 9.38967150e-03 2.34741787e-03 7.04225339e-03
      4.69483575e-03 0. 2.34741787e-03 7.04225339e-03 1.17370896e-02
      7.04225339e-03 9.38967150e-03 4.69483575e-03 2.34741787e-03
      7.04225339e-03 7.04225339e-03 0. 4.69483575e-03 4.69483575e-03 0.
      7.04225339e-03 0. 7.04225339e-03 2.34741787e-03 2.34741787e-03
      9.38967150e-03 4.69483575e-03 0. 4.69483575e-03 4.69483575e-03
      4.69483575e-03 7.04225339e-03 0. 0. 2.34741787e-03 2.34741787e-03
      7.04225339e-03 2.34741787e-03 0. 0. 1.40845068e-02 4.69483575e-03
      1.17370896e-02 2.34741787e-03 1.40845068e-02 7.04225339e-03 0.
      2.34741787e-03 0. 2.34741787e-03 1.17370896e-02 7.04225339e-03
      7.04225339e-03 2.34741787e-03 4.69483575e-03 0. 2.34741787e-03
      2.34741787e-03 9.38967150e-03 1.40845068e-02 1.17370896e-02
      9.38967150e-03 2.34741787e-03 2.34741787e-03 4.69483575e-03
      2.34741787e-03 2.34741787e-03 2.34741787e-03 2.34741787e-03 0.
      7.04225339e-03 1.17370896e-02 4.69483575e-03 2.34741787e-03
      2.34741787e-03 0. 9.38967150e-03 9.38967150e-03 1.17370896e-02
      9.38967150e-03 0. 7.04225339e-03 4.69483575e-03 0. 0. 0.
      9.38967150e-03 0. 7.04225339e-03 1.40845068e-02 2.34741787e-03
      1.17370896e-02 9.38967150e-03 7.04225339e-03 9.38967150e-03
      7.04225339e-03 2.34741787e-03 9.38967150e-03 4.69483575e-03
      4.69483575e-03 4.69483575e-03 0. 4.69483575e-03 1.40845068e-02
      2.34741787e-03 7.04225339e-03 2.34741787e-03 1.64319258e-02
      4.69483575e-03 1.17370896e-02 0. 4.69483575e-03 7.04225339e-03
      1.40845068e-02 0. 2.34741787e-03 2.34741787e-03 4.69483575e-03
      4.69483575e-03 9.38967150e-03 0. 7.04225339e-03 1.17370896e-02
      2.34741787e-03 7.04225339e-03 4.69483575e-03 7.04225339e-03
      9.38967150e-03 0. 0. 1.40845068e-02 4.69483575e-03 4.69483575e-03
      0. 0. 4.69483575e-03</_>
    <_>
      1.12994350e-02 3.76647827e-03 5.64971752e-03 3.76647827e-03
      1.88323914e-03 2.07156297e-02 1.88323914e-03 5.64971752e-03
      3.76647827e-03 1.50659131e-02 3.76647827e-03 1.88323914e-03
      3.76647827e-03 7.53295654e-03 1.12994350e-02 1.88323914e-03
      7.53295654e-03 1.12994350e-02 1.88323914e-03 7.53295654e-03
      3.76647827e-03 7.53295654e-03 0. 3.76647827e-03 0. 1.88323914e-03
      7.53295654e-03 3.76647827e-03 3.76647827e-03 9.41619556e-03
      9.41619556e-03 0. 5.64971752e-03 1.88323914e-03 1.88323914e-03
      1.88323914e-03 0. 5.64971752e-03 7.53295654e-03 5.64971752e-03 0.
      3.76647827e-03 7.53295654e-03 7.53295654e-03 1.88323914e-03
      1.88323914e-03 7.53295654e-03 1.31826736e-02 7.53295654e-03
      7.53295654e-03 5.64971752e-03 1.88323914e-03 1.12994350e-02
      5.64971752e-03 7.53295654e-03 9.41619556e-03 3.76647827e-03
      3.76647827e-03 5.64971752e-03 3.76647827e-03 1.88323914e-03
      1.88323914e-03 1.88323914e-03 7.53295654e-03 5.64971752e-03
      5.64971752e-03 3.76647827e-03 3.76647827e-03 1.88323914e-03
      9.41619556e-03 1.88323914e-03 1.12994350e-02 7.53295654e-03
      5.64971752e-03 1.88323914e-03 7.53295654e-03 5.64971752e-03 0.
      3.76647827e-03 1.88323914e-03 0. 3.76647827e-03 9.41619556e-03 0.
      5.64971752e-03 5.64971752e-03 7.53295654e-03 5.64971752e-03
      1.88323914e-03 0. 5.64971752e-03 1.88323914e-03 3.76647827e-03 0.
      1.12994350e-02 0. 1.31826736e-02 1.88323914e-03 9.41619556e-03
      3.76647827e-03 5.64971752e-03 1.88323914e-03 9.41619556e-03
      3.76647827e-03 1.31826736e-02 1.88323914e-03 7.53295654e-03 0.
      7.53295654e-03 3.76647827e-03 5.64971752e-03 1.88323914e-03
      7.53295654e-03 3.76647827e-03 7.53295654e-03 1.31826736e-02
      7.53295654e-03 9.41619556e-03 1.31826736e-02 3.76647827e-03
      5.64971752e-03 1.88323914e-03 5.64971752e-03 5.64971752e-03
      5.64971752e-03 1.88323914e-03 1.88323914e-03 1.69491526e-02
      5.64971752e-03 3.76647827e-03 3.76647827e-03 1.12994350e-02 0. 0.
      1.88323914e-03 9.41619556e-03 5.64971752e-03 1.12994350e-02
      1.88323914e-03 3.76647827e-03 1.12994350e-02 5.64971752e-03
      1.88323914e-03 1.88323914e-03 0. 5.64971752e-03 5.64971752e-03 0.
      3.76647827e-03 9.41619556e-03 1.88323914e-03 3.76647827e-03
      5.64971752e-03 1.88323914e-03 0. 1.31826736e-02 1.31826736e-02
      3.76647827e-03 1.88323914e-03 3.76647827e-03 3.76647827e-03
      7.53295654e-03 1.88323914e-03 3.76647827e-03 1.12994350e-02
      5.64971752e-03 5.64971752e-03 7.53295654e-03 7.53295654e-03
      3.76647827e-03 1.88323914e-03 5.64971752e-03 1.88323914e-03
      1.88323914e-03 0. 1.88323914e-03 0. 0. 0. 9.41619556e-03
      5.64971752e-03 1.88323914e-03 1.88323914e-03 1.88323914e-03
      1.88323914e-03 5.64971752e-03 3.76647827e-03 0. 5.64971752e-03
      1.88323914e-03 0. 5.64971752e-03 5.64971752e-03 1.12994350e-02
      5.64971752e-03 1.88323914e-03 3.76647827e-03 3.76647827e-03
      3.76647827e-03 1.12994350e-02</_>
    <_>
      7.07547180e-03 2.35849060e-03 0. 7.07547180e-03 2.35849060e-03
      4.71698120e-03 2.35849060e-03 0. 2.12264154e-02 4.71698120e-03
      2.35849060e-03 0. 2.35849060e-03 0. 2.35849060e-03 2.35849060e-03
      0. 7.07547180e-03 4.71698120e-03 1.65094342e-02 7.07547180e-03
      2.35849060e-03 7.07547180e-03 2.35849060e-03 1.88679248e-02
      3.30188684e-02 9.43396240e-03 2.35849060e-03 0. 2.59433966e-02
      7.07547180e-03 0. 2.35849060e-03 2.35849060e-03 7.07547180e-03
      4.71698120e-03 7.07547180e-03 4.71698120e-03 4.71698120e-03
      2.35849060e-03 2.35849060e-03 2.35849060e-03 0. 0. 7.07547180e-03
      1.17924530e-02 2.35849060e-03 0. 2.35849060e-03 4.71698120e-03
      1.41509436e-02 4.71698120e-03 0. 2.35849060e-03 4.71698120e-03
      4.71698120e-03 2.35849060e-03 7.07547180e-03 2.35849060e-03
      2.35849060e-03 1.17924530e-02 0. 7.07547180e-03 0. 2.35849060e-03
      4.71698120e-03 2.35849060e-03 2.35849060e-03 4.71698120e-03
      2.35849060e-03 2.35849060e-03 1.17924530e-02 7.07547180e-03 0. 0.
      2.35849060e-03 0. 0. 2.35849060e-03 2.35849060e-03 0.
      7.07547180e-03 0. 2.35849060e-03 0. 7.07547180e-03 4.71698120e-03
      0. 1.17924530e-02 1.88679248e-02 1.65094342e-02 4.71698120e-03
      2.35849060e-03 2.35849060e-03 1.17924530e-02 2.35849060e-03 0. 0.
      2.35849060e-03 4.71698120e-03 0. 0. 0. 4.71698120e-03 0.
      4.71698120e-03 4.71698120e-03 4.71698120e-03 2.35849060e-03
      2.35849060e-03 7.07547180e-03 4.71698120e-03 2.35849060e-03
      2.35849060e-03 4.71698120e-03 2.35849060e-03 7.07547180e-03 0.
      4.71698120e-03 0. 0. 4.71698120e-03 7.07547180e-03 1.17924530e-02
      4.71698120e-03 9.43396240e-03 7.07547180e-03 2.35849060e-03
      4.71698120e-03 7.07547180e-03 4.71698120e-03 4.71698120e-03
      2.35849060e-03 7.07547180e-03 0. 7.07547180e-03 7.07547180e-03
      4.71698120e-03 4.71698120e-03 7.07547180e-03 7.07547180e-03
      9.43396240e-03 4.71698120e-03 9.43396240e-03 9.43396240e-03 0.
      2.35849060e-03 2.35849060e-03 0. 1.17924530e-02 4.71698120e-03
      4.71698120e-03 2.35849060e-03 9.43396240e-03 7.07547180e-03
      2.35849060e-03 0. 4.71698120e-03 3.06603778e-02 4.71698120e-03 0.
      9.43396240e-03 2.35849060e-03 4.71698120e-03 2.35849060e-03 0.
      2.35849060e-03 4.71698120e-03 0. 7.07547180e-03 0. 1.88679248e-02
      2.35849060e-03 3.53773609e-02 7.07547180e-03 4.71698120e-03
      4.71698120e-03 7.07547180e-03 7.07547180e-03 0. 4.71698120e-03 0.
      0. 0. 4.71698120e-03 2.35849060e-03 4.71698120e-03 1.17924530e-02
      2.12264154e-02 4.71698120e-03 2.35849060e-03 1.65094342e-02 0.
      2.35849060e-03 0. 7.07547180e-03 0. 4.71698120e-03 4.71698120e-03
      9.43396240e-03</_>
    <_>
      5.86510263e-03 2.93255132e-03 5.86510263e-03 0. 8.79765395e-03
      5.86510263e-03 5.86510263e-03 5.86510263e-03 5.86510263e-03
      2.93255132e-03 0. 2.93255132e-03 5.86510263e-03 2.93255132e-03
      8.79765395e-03 0. 0. 1.46627566e-02 2.93255132e-03 1.75953079e-02
      2.93255132e-03 5.86510263e-03 0. 2.93255132e-03 0. 5.86510263e-03
      5.86510263e-03 5.86510263e-03 0. 1.75953079e-02 2.93255132e-03
      2.93255132e-03 1.17302053e-02 2.93255132e-03 8.79765395e-03
      1.17302053e-02 8.79765395e-03 0. 2.93255132e-03 0. 8.79765395e-03
      0. 0. 0. 0. 0. 2.93255132e-03 8.79765395e-03 2.93255132e-03
      5.86510263e-03 1.75953079e-02 2.93255132e-03 8.79765395e-03
      1.17302053e-02 0. 2.05278583e-02 0. 1.17302053e-02 2.05278583e-02
      0. 0. 0. 2.93255132e-03 5.86510263e-03 2.93255132e-03 0.
      5.86510263e-03 5.86510263e-03 2.93255132e-03 2.93255132e-03
      2.93255132e-03 0. 1.17302053e-02 0. 2.93255132e-03 5.86510263e-03
      5.86510263e-03 2.93255132e-03 2.93255132e-03 2.93255132e-03 0. 0.
      8.79765395e-03 5.86510263e-03 2.93255132e-03 2.93255132e-03
      2.93255132e-03 0. 0. 2.93255132e-03 5.86510263e-03 5.86510263e-03
      5.86510263e-03 0. 8.79765395e-03 0. 0. 0. 1.17302053e-02
      5.86510263e-03 0. 0. 1.75953079e-02 2.93255132e-03 5.86510263e-03
      0. 0. 0. 5.86510263e-03 0. 0. 2.93255132e-03 0. 5.86510263e-03
      8.79765395e-03 2.93255132e-03 1.17302053e-02 1.75953079e-02
      2.93255132e-03 2.93255132e-03 8.79765395e-03 0. 2.93255132e-03
      1.17302053e-02 1.17302053e-02 8.79765395e-03 2.93255132e-03
      5.86510263e-03 1.17302053e-02 2.93255132e-03 0. 0. 0. 0.
      5.86510263e-03 2.93255132e-03 5.86510263e-03 1.46627566e-02
      8.79765395e-03 5.86510263e-03 2.05278583e-02 5.86510263e-03
      5.86510263e-03 0. 2.93255132e-03 2.93255132e-03 0. 2.93255132e-03
      1.17302053e-02 5.86510263e-03 5.86510263e-03 2.93255132e-03
      1.17302053e-02 5.86510263e-03 5.86510263e-03 2.93255132e-03
      5.86510263e-03 5.86510263e-03 1.17302053e-02 0. 2.93255132e-03
      2.93255132e-03 2.93255132e-03 0. 1.17302053e-02 0. 1.75953079e-02
      2.93255132e-02 0. 2.93255132e-03 0. 8.79765395e-03 0.
      8.79765395e-03 1.75953079e-02 5.86510263e-03 2.93255132e-03
      5.86510263e-03 0. 0. 5.86510263e-03 0. 5.86510263e-03
      2.93255132e-03 1.17302053e-02 0. 2.93255132e-03 1.17302053e-02
      1.17302053e-02 5.86510263e-03 0. 8.79765395e-03 2.93255132e-03
      8.79765395e-03 1.46627566e-02 0. 0. 0. 0. 2.93255132e-03</_>
    <_>
      9.45626479e-03 7.09219836e-03 2.36406620e-03 0. 0. 9.45626479e-03
      1.65484641e-02 0. 7.09219836e-03 7.09219836e-03 2.36406620e-03
      4.72813239e-03 4.72813239e-03 4.72813239e-03 0. 0. 9.45626479e-03
      7.09219836e-03 0. 2.36406620e-03 7.09219836e-03 2.12765951e-02
      4.72813239e-03 4.72813239e-03 1.18203312e-02 2.36406620e-03
      4.72813239e-03 1.18203312e-02 0. 7.09219836e-03 4.72813239e-03
      4.72813239e-03 1.41843967e-02 0. 2.36406620e-03 7.09219836e-03 0.
      2.36406620e-03 1.18203312e-02 0. 7.09219836e-03 2.36406620e-03
      1.41843967e-02 7.09219836e-03 4.72813239e-03 2.36406620e-03
      4.72813239e-03 7.09219836e-03 1.18203312e-02 2.36406620e-03
      7.09219836e-03 1.18203312e-02 9.45626479e-03 9.45626479e-03
      4.72813239e-03 2.36406620e-03 1.89125296e-02 4.72813239e-03 0. 0.
      4.72813239e-03 0. 4.72813239e-03 2.36406620e-03 1.18203312e-02
      9.45626479e-03 7.09219836e-03 2.36406620e-03 7.09219836e-03
      7.09219836e-03 0. 2.36406620e-03 7.09219836e-03 2.36406620e-03
      2.36406620e-03 2.36406620e-03 4.72813239e-03 9.45626479e-03
      4.72813239e-03 7.09219836e-03 2.36406620e-03 4.72813239e-03
      2.36406620e-03 2.36406620e-03 2.36406620e-03 2.36406620e-03
      7.09219836e-03 2.36406620e-03 7.09219836e-03 1.41843967e-02 0.
      4.72813239e-03 2.36406620e-03 4.72813239e-03 1.18203312e-02 0. 0.
      2.36406620e-03 2.36406620e-03 7.09219836e-03 4.72813239e-03 0.
      9.45626479e-03 2.36406620e-03 9.45626479e-03 7.09219836e-03 0. 0.
      2.36406620e-03 0. 2.36406620e-03 2.36406620e-03 4.72813239e-03
      4.72813239e-03 7.09219836e-03 4.72813239e-03 0. 7.09219836e-03
      2.36406620e-03 2.36406620e-03 2.36406620e-03 2.36406620e-03 0.
      2.36406620e-03 1.18203312e-02 1.18203312e-02 2.36406620e-03
      4.72813239e-03 1.18203312e-02 2.36406620e-03 2.36406620e-03
      2.36406620e-03 0. 2.36406620e-03 4.72813239e-03 4.72813239e-03
      2.36406620e-03 7.09219836e-03 7.09219836e-03 1.65484641e-02
      7.09219836e-03 9.45626479e-03 0. 2.36406620e-03 2.36406620e-03
      1.41843967e-02 2.36406620e-03 2.36406620e-03 1.89125296e-02
      4.72813239e-03 7.09219836e-03 0. 1.41843967e-02 2.36406620e-03
      2.36406620e-03 9.45626479e-03 2.12765951e-02 2.36406620e-03
      2.36406620e-03 2.36406620e-03 9.45626479e-03 2.36406620e-03
      1.18203312e-02 9.45626479e-03 4.72813239e-03 7.09219836e-03
      2.36406620e-03 1.41843967e-02 9.45626479e-03 4.72813239e-03
      2.36406620e-03 4.72813239e-03 0. 7.09219836e-03 2.36406620e-03
      2.36406620e-03 4.72813239e-03 0. 2.36406620e-03 4.72813239e-03 0.
      0. 0. 2.36406620e-03 0. 2.36406620e-03 7.09219836e-03
      2.36406620e-03 4.72813239e-03 2.36406620e-03 2.36406620e-03
      7.09219836e-03 4.72813239e-03 0. 4.72813239e-03 9.45626479e-03 0.
      4.72813239e-03 2.36406620e-03 2.36406620e-03</_>
    <_>
      1.32743362e-02 0. 0. 0. 4.42477874e-03 0. 1.32743362e-02
      4.42477874e-03 8.84955749e-03 2.65486725e-02 4.42477874e-03
      4.42477874e-03 0. 8.84955749e-03 0. 0. 0. 8.84955749e-03
      8.84955749e-03 0. 0. 4.42477874e-03 4.42477874e-03 4.42477874e-03
      1.32743362e-02 1.76991150e-02 0. 0. 0. 2.21238937e-02
      1.32743362e-02 0. 8.84955749e-03 0. 0. 0. 0. 0. 4.42477874e-03
      4.42477874e-03 0. 4.42477874e-03 0. 4.42477874e-03 4.42477874e-03
      0. 0. 0. 0. 1.32743362e-02 2.65486725e-02 0. 4.42477874e-03
      1.32743362e-02 0. 2.21238937e-02 1.76991150e-02 0. 4.42477874e-03
      0. 0. 4.42477874e-03 4.42477874e-03 4.42477874e-03 8.84955749e-03
      0. 0. 4.42477874e-03 8.84955749e-03 4.42477874e-03 4.42477874e-03
      4.42477874e-03 4.42477874e-03 0. 0. 4.42477874e-03 0.
      8.84955749e-03 0. 0. 0. 0. 0. 0. 0. 0. 4.42477874e-03 0.
      4.42477874e-03 1.32743362e-02 8.84955749e-03 4.42477874e-03
      1.32743362e-02 4.42477874e-03 2.21238937e-02 0. 0. 0.
      8.84955749e-03 4.42477874e-03 1.32743362e-02 0. 1.76991150e-02 0.
      0. 0. 0. 4.42477874e-03 0. 0. 0. 0. 4.42477874e-03 0.
      2.21238937e-02 0. 4.42477874e-03 1.76991150e-02 1.32743362e-02
      4.42477874e-03 0. 0. 4.42477874e-03 0. 8.84955749e-03
      8.84955749e-03 0. 4.42477874e-03 0. 0. 0. 0. 0. 4.42477874e-03
      4.42477874e-03 0. 4.42477874e-03 0. 4.42477874e-03 0.
      3.53982300e-02 0. 4.42477874e-03 1.76991150e-02 0. 2.65486725e-02
      0. 0. 2.65486725e-02 4.42477874e-03 4.42477874e-03 0. 0.
      8.84955749e-03 0. 0. 4.42477874e-03 0. 2.21238937e-02 0. 0. 0. 0.
      8.84955749e-03 0. 0. 2.21238937e-02 2.65486725e-02 4.42477874e-03
      4.42477874e-03 0. 4.42477874e-03 0. 2.65486725e-02 0. 0. 0. 0.
      4.42477874e-03 1.32743362e-02 1.32743362e-02 0. 4.42477874e-03
      8.84955749e-03 1.32743362e-02 8.84955749e-03 4.42477874e-03 0.
      1.32743362e-02 0. 0. 1.32743362e-02 0. 4.42477874e-03
      8.84955749e-03 1.76991150e-02 0. 0. 0. 0.</_>
    <_>
      2.59067351e-03 0. 0. 0. 2.59067351e-03 0. 2.59067351e-03
      7.77202053e-03 1.29533671e-02 5.18134702e-03 7.77202053e-03
      5.18134702e-03 5.18134702e-03 5.18134702e-03 5.18134702e-03
      2.59067351e-03 0. 2.59067351e-03 1.03626940e-02 2.59067351e-03
      5.18134702e-03 2.59067351e-03 5.18134702e-03 2.59067351e-03
      3.62694301e-02 1.81347150e-02 2.59067351e-03 5.18134702e-03
      5.18134702e-03 7.77202053e-03 2.59067351e-03 2.59067351e-03
      5.18134702e-03 2.59067351e-03 0. 0. 0. 0. 7.77202053e-03
      1.03626940e-02 0. 5.18134702e-03 2.59067351e-03 0. 0. 0. 0.
      2.59067351e-03 2.59067351e-03 0. 2.33160611e-02 7.77202053e-03
      1.03626940e-02 2.59067351e-03 0. 3.10880821e-02 2.59067351e-03
      2.59067351e-03 5.18134702e-03 0. 1.55440411e-02 0. 7.77202053e-03
      1.55440411e-02 2.59067351e-03 2.59067351e-03 2.59067351e-03
      1.03626940e-02 5.18134702e-03 5.18134702e-03 0. 0. 7.77202053e-03
      2.59067351e-03 2.59067351e-03 2.59067351e-03 7.77202053e-03
      5.18134702e-03 5.18134702e-03 7.77202053e-03 2.59067351e-03
      5.18134702e-03 5.18134702e-03 2.59067351e-03 0. 7.77202053e-03
      1.03626940e-02 0. 0. 1.55440411e-02 0. 7.77202053e-03
      2.59067351e-03 7.77202053e-03 7.77202053e-03 5.18134702e-03
      5.18134702e-03 1.03626940e-02 0. 7.77202053e-03 2.59067351e-03 0.
      0. 0. 7.77202053e-03 1.29533671e-02 2.59067351e-03 0. 0.
      5.18134702e-03 0. 2.59067351e-03 7.77202053e-03 0. 2.59067351e-03
      2.59067351e-03 1.55440411e-02 2.59067351e-03 1.03626940e-02
      5.18134702e-03 5.18134702e-03 5.18134702e-03 2.59067351e-03
      1.55440411e-02 0. 2.59067351e-03 2.59067351e-03 5.18134702e-03
      2.59067351e-03 0. 0. 0. 2.59067351e-03 7.77202053e-03
      2.59067351e-03 7.77202053e-03 5.18134702e-03 2.59067351e-03 0.
      1.03626940e-02 1.55440411e-02 0. 0. 2.33160611e-02 0.
      2.59067351e-03 0. 0. 1.81347150e-02 0. 5.18134702e-03 0.
      2.59067351e-03 5.18134702e-03 0. 0. 2.59067351e-03 2.59067351e-03
      7.77202053e-03 1.03626940e-02 1.03626940e-02 0. 5.18134702e-03
      2.59067351e-03 5.18134702e-03 7.77202053e-03 5.18134702e-03
      1.81347150e-02 1.29533671e-02 0. 5.18134702e-03 1.03626940e-02
      2.59067351e-03 2.07253881e-02 5.18134702e-03 5.18134702e-03
      1.81347150e-02 2.59067351e-03 0. 2.59067351e-03 2.59067351e-03
      2.59067351e-03 2.59067351e-03 0. 5.18134702e-03 2.59067351e-03 0.
      5.18134702e-03 2.59067351e-03 2.59067351e-03 5.18134702e-03
      7.77202053e-03 0. 2.59067351e-03 1.29533671e-02 0. 0. 0.
      3.10880821e-02 5.18134702e-03</_>
    <_>
      9.20245424e-03 3.06748459e-03 6.13496918e-03 0. 3.06748459e-03
      1.84049085e-02 3.06748459e-03 0. 1.84049085e-02 1.22699384e-02
      3.06748459e-03 3.06748459e-03 6.13496918e-03 3.06748459e-03
      3.06748459e-03 0. 3.06748459e-03 1.22699384e-02 9.20245424e-03
      9.20245424e-03 6.13496918e-03 3.06748459e-03 0. 0. 6.13496918e-03
      1.22699384e-02 1.22699384e-02 3.06748459e-03 3.06748459e-03
      2.14723926e-02 9.20245424e-03 6.13496918e-03 9.20245424e-03 0. 0.
      9.20245424e-03 3.06748459e-03 0. 9.20245424e-03 3.06748459e-03
      3.06748459e-03 3.06748459e-03 0. 9.20245424e-03 1.22699384e-02
      6.13496918e-03 6.13496918e-03 3.06748459e-03 6.13496918e-03
      3.06748459e-03 2.14723926e-02 3.06748459e-03 6.13496918e-03
      9.20245424e-03 6.13496918e-03 1.84049085e-02 6.13496918e-03
      6.13496918e-03 0. 0. 3.06748459e-03 0. 6.13496918e-03
      3.06748459e-03 6.13496918e-03 3.06748459e-03 0. 0. 3.06748459e-03
      3.06748459e-03 3.06748459e-03 3.06748459e-03 9.20245424e-03
      6.13496918e-03 0. 3.06748459e-03 3.06748459e-03 3.06748459e-03 0.
      9.20245424e-03 6.13496918e-03 3.06748459e-03 0. 3.06748459e-03
      3.06748459e-03 0. 3.06748459e-03 0. 0. 1.53374225e-02 0.
      3.06748459e-03 6.13496918e-03 0. 0. 0. 6.13496918e-03 0.
      9.20245424e-03 0. 3.06748459e-03 0. 1.84049085e-02 0.
      1.53374225e-02 0. 6.13496918e-03 0. 3.06748459e-03 6.13496918e-03
      0. 0. 0. 6.13496918e-03 9.20245424e-03 0. 1.53374225e-02
      3.06748459e-03 9.20245424e-03 6.13496918e-03 3.06748459e-03
      9.20245424e-03 6.13496918e-03 3.06748459e-03 2.14723926e-02
      2.45398767e-02 0. 0. 9.20245424e-03 0. 3.06748459e-03 0.
      3.06748459e-03 0. 0. 6.13496918e-03 0. 1.22699384e-02
      3.06748459e-03 9.20245424e-03 6.13496918e-03 0. 0. 9.20245424e-03
      0. 0. 3.06748459e-03 0. 6.13496918e-03 3.06748459e-03
      3.06748459e-03 9.20245424e-03 3.06748459e-03 9.20245424e-03 0.
      6.13496918e-03 3.06748459e-03 0. 1.84049085e-02 3.06748459e-03
      6.13496918e-03 3.06748459e-03 6.13496918e-03 3.06748459e-03
      6.13496918e-03 3.06748459e-03 1.53374225e-02 1.22699384e-02 0. 0.
      6.13496918e-03 6.13496918e-03 6.13496918e-03 1.84049085e-02
      6.13496918e-03 0. 6.13496918e-03 6.13496918e-03 3.06748459e-03 0.
      1.22699384e-02 0. 3.06748459e-03 3.06748459e-03 3.06748459e-03 0.
      0. 6.13496918e-03 1.53374225e-02 9.20245424e-03 3.06748459e-03
      6.13496918e-03 3.06748459e-03 3.06748459e-03 6.13496918e-03
      6.13496918e-03 9.20245424e-03 3.06748459e-03 0. 0.</_>
    <_>
      1.21212117e-02 0. 9.09090880e-03 3.03030293e-03 3.03030293e-03
      3.03030293e-03 3.03030293e-03 3.03030293e-03 1.51515147e-02
      3.03030293e-03 6.06060587e-03 1.21212117e-02 3.03030293e-03
      1.21212117e-02 3.03030293e-03 9.09090880e-03 0. 9.09090880e-03
      3.03030293e-03 1.51515147e-02 3.03030293e-03 0. 3.03030293e-03
      6.06060587e-03 0. 2.72727273e-02 6.06060587e-03 3.03030293e-03 0.
      1.51515147e-02 0. 9.09090880e-03 6.06060587e-03 0. 0. 0.
      6.06060587e-03 3.03030293e-03 3.03030293e-03 0. 0. 0. 0. 0.
      6.06060587e-03 6.06060587e-03 3.03030293e-03 6.06060587e-03
      1.21212117e-02 3.03030293e-03 2.12121196e-02 6.06060587e-03
      3.03030293e-03 6.06060587e-03 3.03030293e-03 3.03030293e-03
      3.03030293e-03 3.03030293e-03 1.21212117e-02 3.03030293e-03
      3.03030293e-03 0. 0. 0. 0. 0. 0. 0. 3.03030293e-03 1.21212117e-02
      0. 9.09090880e-03 6.06060587e-03 1.21212117e-02 0. 0.
      3.03030293e-03 6.06060587e-03 3.03030293e-03 6.06060587e-03
      3.03030293e-03 3.03030293e-03 6.06060587e-03 9.09090880e-03 0.
      9.09090880e-03 0. 3.03030293e-03 1.51515147e-02 3.03030293e-03
      6.06060587e-03 0. 1.21212117e-02 3.03030293e-03 1.81818176e-02 0.
      0. 0. 1.81818176e-02 3.03030293e-03 0. 6.06060587e-03
      1.81818176e-02 3.03030293e-03 6.06060587e-03 3.03030293e-03 0. 0.
      3.03030293e-03 3.03030293e-03 0. 6.06060587e-03 6.06060587e-03
      3.03030293e-03 6.06060587e-03 9.09090880e-03 0. 6.06060587e-03 0.
      3.03030293e-03 6.06060587e-03 6.06060587e-03 6.06060587e-03 0.
      9.09090880e-03 1.51515147e-02 0. 3.03030293e-03 6.06060587e-03
      6.06060587e-03 9.09090880e-03 6.06060587e-03 6.06060587e-03 0. 0.
      3.03030293e-03 6.06060587e-03 0. 6.06060587e-03 9.09090880e-03
      2.12121196e-02 0. 6.06060587e-03 0. 3.03030293e-03 0. 0.
      3.03030293e-03 0. 9.09090880e-03 3.03030293e-03 0. 6.06060587e-03
      6.06060587e-03 3.03030293e-03 3.03030293e-03 3.03030293e-03
      3.03030293e-03 2.42424235e-02 0. 0. 0. 9.09090880e-03 0.
      3.03030293e-03 3.03030293e-03 1.21212117e-02 9.09090880e-03
      3.03030293e-03 6.06060587e-03 3.03030293e-03 1.51515147e-02 0.
      2.72727273e-02 3.03030293e-03 3.03030293e-03 0. 6.06060587e-03 0.
      0. 1.21212117e-02 0. 3.03030293e-03 0. 0. 3.03030293e-03
      1.51515147e-02 3.03030293e-03 1.81818176e-02 0. 3.03030293e-03
      1.81818176e-02 3.03030293e-03 1.21212117e-02 1.21212117e-02
      6.06060587e-03 0. 6.06060587e-03 3.03030293e-03 6.06060587e-03</_>
    <_>
      1.18694361e-02 2.96735903e-03 0. 0. 0. 5.93471806e-03
      5.93471806e-03 0. 1.48367956e-02 1.18694361e-02 2.96735903e-03 0.
      0. 2.96735903e-03 5.93471806e-03 0. 2.96735903e-03 0.
      2.96735903e-03 1.18694361e-02 5.93471806e-03 2.96735903e-03 0. 0.
      0. 1.78041533e-02 8.90207663e-03 2.96735903e-03 0. 2.07715128e-02
      2.07715128e-02 2.96735903e-03 8.90207663e-03 0. 5.93471806e-03
      8.90207663e-03 2.96735903e-03 0. 8.90207663e-03 2.96735903e-03
      2.96735903e-03 2.96735903e-03 2.96735903e-03 5.93471806e-03
      8.90207663e-03 0. 1.18694361e-02 2.96735903e-03 2.96735903e-03 0.
      1.18694361e-02 2.96735903e-03 5.93471806e-03 1.48367956e-02 0.
      8.90207663e-03 0. 5.93471806e-03 0. 2.96735903e-03 5.93471806e-03
      2.96735903e-03 8.90207663e-03 0. 2.96735903e-03 2.96735903e-03 0.
      0. 2.96735903e-03 8.90207663e-03 0. 0. 5.93471806e-03
      2.96735903e-03 2.96735903e-03 8.90207663e-03 2.96735903e-03
      1.18694361e-02 2.96735903e-03 0. 0. 8.90207663e-03 2.96735903e-03
      0. 0. 0. 2.96735903e-03 1.18694361e-02 2.96735903e-03
      2.07715128e-02 5.93471806e-03 5.93471806e-03 1.48367956e-02
      2.96735903e-03 5.93471806e-03 5.93471806e-03 5.93471806e-03 0.
      2.96735903e-03 0. 2.96735903e-03 2.96735903e-03 1.18694361e-02 0.
      8.90207663e-03 0. 0. 2.96735903e-03 5.93471806e-03 2.96735903e-03
      2.96735903e-03 5.93471806e-03 2.96735903e-03 2.96735903e-03
      2.96735903e-03 2.96735903e-03 2.96735903e-03 8.90207663e-03
      5.93471806e-03 5.93471806e-03 0. 0. 8.90207663e-03 8.90207663e-03
      2.96735903e-03 1.18694361e-02 2.96735903e-03 2.96735903e-03
      2.96735903e-03 0. 5.93471806e-03 2.96735903e-03 0. 8.90207663e-03
      2.96735903e-03 0. 5.93471806e-03 0. 1.48367956e-02 5.93471806e-03
      3.56083065e-02 0. 5.93471806e-03 1.18694361e-02 2.96735903e-03
      2.07715128e-02 0. 0. 2.96735903e-03 2.96735903e-03 0.
      2.96735903e-03 5.93471806e-03 2.96735903e-03 0. 8.90207663e-03
      8.90207663e-03 0. 1.78041533e-02 2.96735903e-03 2.96735903e-03 0.
      0. 0. 0. 5.93471806e-03 1.78041533e-02 2.67062318e-02
      8.90207663e-03 1.18694361e-02 2.96735903e-03 2.96735903e-03
      5.93471806e-03 3.85756679e-02 0. 2.96735903e-03 2.96735903e-03
      2.96735903e-03 2.96735903e-03 1.18694361e-02 8.90207663e-03 0.
      5.93471806e-03 0. 2.96735903e-03 0. 5.93471806e-03 0.
      2.96735903e-03 0. 5.93471806e-03 1.18694361e-02 5.93471806e-03 0.
      5.93471806e-03 2.96735903e-03 0. 2.96735903e-03 5.93471806e-03
      2.96735903e-03</_>
    <_>
      6.13999146e-04 0. 8.18665547e-04 2.45599658e-03 0. 0.
      6.13999146e-04 1.63733109e-03 6.13999146e-04 0. 9.41465423e-03
      2.04666387e-04 2.04666387e-04 0. 2.04666387e-04 2.68112961e-02
      2.04666387e-04 1.02333189e-03 2.04666387e-04 4.09332773e-04
      1.43266469e-03 2.04666378e-03 4.09332773e-04 2.04666387e-04
      8.18665547e-04 4.09332773e-04 6.13999146e-04 1.22799829e-03
      1.43266469e-03 4.09332773e-04 2.04666387e-04 4.09332773e-04 0.
      5.11665968e-03 2.04666387e-04 6.13999146e-04 6.13999146e-04
      5.93532529e-03 0. 5.52599225e-03 7.98198953e-03 6.13999146e-04
      6.13999146e-04 6.13999146e-04 2.04666387e-04 9.00532119e-03
      2.04666387e-04 1.43266469e-03 2.66066310e-03 4.09332773e-04
      2.04666387e-04 6.13999146e-04 8.18665547e-04 2.04666387e-04
      6.13999146e-04 3.27466219e-03 1.02333189e-03 6.13999146e-04
      2.04666387e-04 1.43266469e-03 1.02333189e-03 4.09332773e-04
      4.09332773e-04 6.13999146e-04 4.09332773e-04 4.09332773e-04
      2.04666387e-04 2.04666387e-04 1.43266469e-03 0. 3.27466219e-03
      6.13999146e-04 1.63733109e-03 0. 4.09332773e-04 6.13999146e-04
      1.02333189e-03 5.93532529e-03 1.63733109e-03 0. 6.13999146e-04
      2.04666387e-04 2.04666387e-04 2.25133030e-03 0. 1.61686447e-02
      8.18665547e-04 3.47932847e-03 0. 6.13999146e-04 8.18665549e-02
      4.09332773e-04 2.04666387e-04 4.09332773e-04 6.13999146e-04
      2.25133030e-03 1.02333189e-03 2.04666387e-04 6.13999146e-04
      1.02333189e-03 2.04666387e-04 2.47646328e-02 6.13999146e-04
      4.09332773e-04 0. 7.57265650e-03 2.04666387e-04 2.74252966e-02
      4.09332773e-04 2.04666378e-03 4.09332773e-04 1.43266469e-03
      2.66066310e-03 6.13999146e-04 1.22799829e-03 2.04666387e-04
      4.09332773e-04 6.13999146e-04 4.09332773e-04 4.09332773e-04
      1.22799829e-03 1.22799829e-03 6.13999146e-04 1.02333189e-03
      2.04666387e-04 0. 6.34465786e-03 4.09332773e-04 6.13999146e-04
      2.04666378e-03 2.23291025e-01 4.09332773e-04 4.09332773e-04
      2.86532938e-03 6.13999146e-04 0. 2.04666387e-04 2.04666387e-04
      4.09332773e-04 4.09332773e-04 8.18665547e-04 2.66066310e-03
      3.06999590e-03 8.18665547e-04 1.26893157e-02 8.18665547e-04
      4.09332773e-04 2.76504278e-01 3.47932847e-03 1.02333189e-03
      4.09332773e-04 4.09332773e-04 6.13999146e-04 4.09332773e-04
      2.45599658e-03 0. 0. 3.06999590e-03 2.04666387e-04 6.13999146e-04
      1.02333189e-03 2.86532938e-03 6.13999146e-04 4.09332773e-04 0.
      3.27466219e-03 4.09332773e-04 6.13999146e-04 8.18665547e-04
      6.13999146e-04 4.09332773e-04 2.04666387e-04 2.04666387e-04 0.
      8.18665547e-04 8.18665547e-04 6.13999180e-03 1.02333189e-03 0.
      8.18665547e-04 6.13999146e-04 4.09332773e-04 5.93532529e-03 0.
      1.22799829e-03 1.02333189e-03 4.09332773e-04 5.89439198e-02
      8.18665547e-04 4.09332756e-03 6.13999146e-04 6.13999146e-04
      3.58166173e-02 6.13999146e-04 6.13999146e-04 6.13999146e-04
      8.18665547e-04 2.04666387e-04 6.13999146e-04 8.18665547e-04</_>
    <_>
      0. 3.73134320e-03 3.73134320e-03 0. 0. 0. 1.11940298e-02 0.
      3.73134320e-03 0. 0. 3.73134320e-03 0. 0. 0. 0. 7.46268639e-03
      7.46268639e-03 0. 3.73134320e-03 1.49253728e-02 1.11940298e-02 0.
      0. 1.11940298e-02 7.46268639e-03 1.49253728e-02 1.11940298e-02
      1.11940298e-02 3.73134320e-03 3.73134320e-03 0. 0. 1.11940298e-02
      3.73134320e-03 7.46268639e-03 7.46268639e-03 0. 0. 3.73134320e-03
      3.73134320e-03 3.73134320e-03 7.46268639e-03 0. 3.73134320e-03
      1.11940298e-02 3.73134320e-03 0. 7.46268639e-03 7.46268639e-03
      1.49253728e-02 0. 3.73134320e-03 1.49253728e-02 3.73134320e-03
      1.11940298e-02 7.46268639e-03 1.49253728e-02 3.73134320e-03
      7.46268639e-03 1.86567158e-02 7.46268639e-03 0. 3.73134320e-03
      3.73134320e-03 7.46268639e-03 0. 3.73134320e-03 1.11940298e-02 0.
      0. 3.73134320e-03 3.73134320e-03 0. 0. 1.11940298e-02
      3.73134320e-03 3.73134320e-03 7.46268639e-03 0. 1.11940298e-02 0.
      7.46268639e-03 3.73134320e-03 3.73134320e-03 0. 0. 0.
      1.11940298e-02 0. 0. 0. 0. 3.73134320e-03 3.73134320e-03
      7.46268639e-03 3.73134320e-03 1.11940298e-02 1.11940298e-02
      3.73134320e-03 1.11940298e-02 3.73134320e-03 3.73134320e-03
      3.73134320e-03 1.49253728e-02 1.49253728e-02 3.73134320e-03 0.
      7.46268639e-03 3.73134320e-03 0. 0. 0. 1.86567158e-02
      7.46268639e-03 3.73134320e-03 3.73134320e-03 0. 0. 7.46268639e-03
      3.73134320e-03 3.73134320e-03 1.11940298e-02 3.73134320e-03
      3.73134320e-03 0. 3.73134320e-03 0. 7.46268639e-03 3.73134320e-03
      7.46268639e-03 0. 7.46268639e-03 0. 7.46268639e-03 3.73134320e-03
      3.73134320e-03 3.73134320e-03 0. 3.73134320e-03 1.86567158e-02
      3.73134320e-03 1.49253728e-02 3.73134320e-03 0. 7.46268639e-03
      3.73134320e-03 3.73134320e-03 1.86567158e-02 1.11940298e-02
      3.73134320e-03 0. 7.46268639e-03 7.46268639e-03 7.46268639e-03 0.
      0. 1.11940298e-02 7.46268639e-03 3.73134320e-03 1.11940298e-02
      7.46268639e-03 0. 1.11940298e-02 3.73134320e-03 1.11940298e-02 0.
      1.11940298e-02 7.46268639e-03 0. 0. 3.73134320e-03 0.
      1.49253728e-02 3.73134320e-03 0. 3.73134320e-03 3.73134320e-03
      3.73134320e-03 3.73134320e-03 7.46268639e-03 0. 3.73134320e-03 0.
      1.11940298e-02 3.73134320e-03 7.46268639e-03 7.46268639e-03
      7.46268639e-03 0. 1.11940298e-02 0. 3.73134320e-03 3.73134320e-03
      7.46268639e-03 0. 1.49253728e-02 7.46268639e-03 1.11940298e-02 0.</_>
    <_>
      4.69483575e-03 0. 9.38967150e-03 0. 0. 0. 0. 0. 1.40845068e-02
      4.69483575e-03 0. 0. 4.69483575e-03 4.69483575e-03 4.69483575e-03
      9.38967150e-03 4.69483575e-03 4.69483575e-03 0. 9.38967150e-03
      2.34741792e-02 9.38967150e-03 0. 4.69483575e-03 0. 2.34741792e-02
      0. 1.40845068e-02 0. 1.87793430e-02 9.38967150e-03 4.69483575e-03
      1.40845068e-02 4.69483575e-03 0. 9.38967150e-03 4.69483575e-03 0.
      0. 9.38967150e-03 0. 0. 4.69483575e-03 4.69483575e-03 0. 0.
      1.40845068e-02 0. 0. 0. 3.28638516e-02 4.69483575e-03
      4.69483575e-03 4.69483575e-03 9.38967150e-03 9.38967150e-03 0.
      1.40845068e-02 9.38967150e-03 0. 0. 4.69483575e-03 0. 0. 0. 0.
