<?xml version="1.0"?>
<opencv_storage>
<opencv_ml_svm>
  <format>3</format>
  <svmType>ONE_CLASS</svmType>
  <kernel>
    <type>RBF</type>
    <gamma>1.</gamma></kernel>
  <nu>5.0000000000000000e-01</nu>
  <term_criteria><epsilon>1.1920928955078125e-07</epsilon>
    <iterations>1000</iterations></term_criteria>
  <var_count>200</var_count>
  <class_count>1</class_count>
  <sv_total>171</sv_total>
  <support_vectors>
    <_>
      1.90476188e-03 3.80952377e-03 3.80952377e-03 5.71428565e-03
      3.80952377e-03 3.80952377e-03 1.90476188e-03 1.14285713e-02
      3.80952377e-03 3.80952377e-03 3.80952377e-03 9.52380896e-03 0.
      5.71428565e-03 0. 1.90476188e-03 9.52380896e-03 0. 1.90476188e-03
      5.71428565e-03 0. 3.80952377e-03 3.80952377e-03 3.80952377e-03
      7.61904754e-03 0. 1.90476188e-03 3.80952377e-03 5.71428565e-03
      5.71428565e-03 0. 3.80952377e-03 7.61904754e-03 1.90476188e-03
      1.90476188e-03 3.80952377e-03 0. 1.90476188e-03 9.52380896e-03
      5.71428565e-03 1.90476188e-03 7.61904754e-03 3.80952377e-03 0.
      1.90476179e-02 3.80952377e-03 1.90476188e-03 1.33333337e-02
      1.90476188e-03 5.71428565e-03 5.71428565e-03 1.90476188e-03
      7.61904754e-03 9.52380896e-03 7.61904754e-03 1.90476188e-03
      9.52380896e-03 1.90476188e-03 3.80952377e-03 5.71428565e-03
      1.14285713e-02 1.14285713e-02 7.61904754e-03 1.90476188e-03
      9.52380896e-03 0. 3.80952377e-03 5.71428565e-03 3.99999991e-02 0.
      5.71428565e-03 1.90476188e-03 1.90476188e-03 3.80952377e-03
      1.90476188e-03 3.80952377e-03 3.80952377e-03 3.80952377e-03 0.
      3.80952377e-03 3.80952377e-03 0. 3.80952377e-03 1.90476188e-03
      1.90476188e-03 3.99999991e-02 9.52380896e-03 9.52380896e-03
      7.61904754e-03 1.90476188e-03 3.80952377e-03 3.80952377e-03
      5.71428565e-03 3.80952377e-03 9.52380896e-03 3.80952377e-03
      1.90476188e-03 3.80952377e-03 3.80952377e-03 1.90476188e-03
      3.80952377e-03 7.61904754e-03 1.33333337e-02 5.71428565e-03
      7.61904754e-03 7.61904754e-03 5.71428565e-03 3.80952377e-03
      1.52380951e-02 1.14285713e-02 1.90476188e-03 1.90476188e-03
      1.90476188e-03 3.80952377e-03 7.61904754e-03 3.80952377e-03
      1.90476188e-03 5.71428565e-03 5.71428565e-03 5.71428565e-03
      7.61904754e-03 1.90476188e-03 3.80952377e-03 3.80952377e-03 0. 0.
      1.90476188e-03 7.61904754e-03 3.80952377e-03 5.71428565e-03
      3.80952377e-03 5.71428565e-03 9.52380896e-03 1.90476188e-03
      3.80952377e-03 3.80952377e-03 5.71428565e-03 7.61904754e-03
      1.90476188e-03 0. 3.80952377e-03 3.80952377e-03 9.52380896e-03
      7.61904754e-03 3.80952377e-03 1.90476188e-03 3.80952377e-03
      5.71428565e-03 9.52380896e-03 0. 3.80952377e-03 3.80952377e-03
      3.80952377e-03 5.71428565e-03 3.80952377e-03 3.80952377e-03
      7.61904754e-03 7.61904754e-03 1.90476188e-03 0. 3.80952377e-03
      3.80952377e-03 5.71428565e-03 3.80952377e-03 3.80952377e-03
      5.71428565e-03 5.71428565e-03 3.80952377e-03 3.80952377e-03 0.
      9.52380896e-03 7.61904754e-03 5.71428565e-03 3.80952377e-03
      1.90476188e-03 7.61904754e-03 5.71428565e-03 0. 0. 0.
      9.52380896e-03 5.71428565e-03 5.71428565e-03 3.80952377e-03
      3.80952377e-03 1.14285713e-02 7.61904754e-03 3.80952377e-03
      5.71428565e-03 1.90476188e-03 3.80952377e-03 1.90476188e-03
      7.61904754e-03 5.71428565e-03 7.61904754e-03 9.52380896e-03
      7.61904754e-03 3.80952377e-03 1.90476188e-03 3.80952377e-03</_>
    <_>
      4.31034481e-03 4.31034481e-03 4.31034481e-03 6.46551698e-03 0. 0.
      2.15517241e-03 2.15517241e-03 0. 6.46551698e-03 4.31034481e-03
      6.46551698e-03 6.46551698e-03 4.31034481e-03 2.15517241e-03
      6.46551698e-03 8.62068962e-03 0. 1.29310340e-02 1.72413792e-02
      1.29310340e-02 8.62068962e-03 2.15517241e-03 2.15517241e-03 0.
      2.15517241e-03 2.15517241e-03 0. 0. 2.15517241e-03 8.62068962e-03
      4.31034481e-03 0. 1.07758623e-02 4.31034481e-03 1.29310340e-02
      6.46551698e-03 0. 6.46551698e-03 0. 8.62068962e-03 8.62068962e-03
      6.46551698e-03 6.46551698e-03 2.15517241e-03 2.15517241e-03 0.
      6.46551698e-03 8.62068962e-03 1.29310340e-02 2.15517241e-03
      2.15517241e-03 4.31034481e-03 4.31034481e-03 2.15517241e-03
      4.31034481e-03 4.31034481e-03 1.07758623e-02 2.15517241e-03
      1.72413792e-02 2.15517241e-03 4.31034481e-03 0. 6.46551698e-03
      2.15517241e-03 2.15517241e-03 2.15517241e-03 2.15517241e-03
      8.62068962e-03 2.15517241e-03 0. 4.31034481e-03 2.15517241e-03
      6.46551698e-03 2.15517241e-03 4.31034481e-03 8.62068962e-03 0.
      8.62068962e-03 4.31034481e-03 8.62068962e-03 1.72413792e-02
      4.31034481e-03 4.31034481e-03 0. 2.58620679e-02 8.62068962e-03
      1.93965510e-02 2.15517241e-03 2.15517241e-03 6.46551698e-03
      2.15517241e-03 2.15517241e-03 2.15517241e-03 1.07758623e-02
      6.46551698e-03 2.15517241e-03 1.07758623e-02 4.31034481e-03
      4.31034481e-03 1.50862066e-02 6.46551698e-03 6.46551698e-03
      2.15517241e-03 0. 2.15517241e-03 0. 2.15517241e-03 6.46551698e-03
      0. 8.62068962e-03 4.31034481e-03 0. 2.15517241e-03 1.07758623e-02
      2.15517241e-03 2.15517241e-03 4.31034481e-03 2.15517241e-03
      6.46551698e-03 0. 6.46551698e-03 1.50862066e-02 2.15517241e-03
      4.31034481e-03 4.31034481e-03 6.46551698e-03 2.15517241e-03
      1.07758623e-02 2.15517241e-03 2.15517241e-03 2.15517241e-03
      1.29310340e-02 8.62068962e-03 6.46551698e-03 6.46551698e-03
      4.31034481e-03 4.31034481e-03 6.46551698e-03 1.07758623e-02
      2.15517241e-03 0. 1.29310340e-02 2.15517241e-03 6.46551698e-03
      1.07758623e-02 2.15517241e-03 0. 6.46551698e-03 2.15517241e-03
      4.31034481e-03 6.46551698e-03 2.15517241e-03 1.07758623e-02
      6.46551698e-03 4.31034481e-03 0. 2.15517241e-03 4.31034481e-03
      2.15517241e-03 2.15517241e-03 2.15517241e-03 4.31034481e-03
      8.62068962e-03 4.31034481e-03 2.15517241e-03 8.62068962e-03
      1.07758623e-02 2.15517241e-03 4.31034481e-03 2.15517241e-03
      4.31034481e-03 6.46551698e-03 2.15517241e-03 0. 2.15517241e-03
      2.15517241e-03 2.15517241e-03 2.15517241e-03 1.07758623e-02
      8.62068962e-03 1.07758623e-02 4.31034481e-03 4.31034481e-03 0.
      1.07758623e-02 6.46551698e-03 6.46551698e-03 6.46551698e-03
      2.15517241e-03 2.15517241e-03 2.15517241e-03 4.31034481e-03
      8.62068962e-03 4.31034481e-03 2.15517241e-03 2.15517241e-03
      4.31034481e-03 1.50862066e-02 0.</_>
    <_>
      1.69971660e-02 0. 2.83286115e-03 0. 2.83286115e-03 0.
      5.66572230e-03 5.66572230e-03 0. 8.49858299e-03 2.83286115e-03
      1.13314446e-02 8.49858299e-03 0. 5.66572230e-03 8.49858299e-03 0.
      2.83286115e-03 2.83286115e-03 1.13314446e-02 8.49858299e-03
      2.83286115e-03 2.83286115e-03 2.83286115e-03 1.41643062e-02 0.
      5.66572230e-03 5.66572230e-03 0. 5.66572230e-03 2.83286115e-03 0.
      1.13314446e-02 8.49858299e-03 8.49858299e-03 1.41643062e-02
      1.13314446e-02 5.66572230e-03 0. 2.83286115e-03 8.49858299e-03
      5.66572230e-03 1.13314446e-02 8.49858299e-03 1.69971660e-02
      2.83286115e-03 0. 0. 0. 5.66572230e-03 5.66572230e-03
      2.83286115e-03 5.66572230e-03 0. 2.83286115e-03 2.83286115e-03 0.
      5.66572230e-03 2.83286115e-03 8.49858299e-03 0. 5.66572230e-03 0.
      0. 5.66572230e-03 5.66572230e-03 0. 8.49858299e-03 2.83286115e-03
      2.83286115e-03 0. 5.66572230e-03 5.66572230e-03 5.66572230e-03
      1.69971660e-02 5.66572230e-03 5.66572230e-03 8.49858299e-03 0.
      2.83286115e-03 5.66572230e-03 2.83286115e-03 0. 2.83286115e-03
      8.49858299e-03 1.41643062e-02 0. 2.83286115e-03 1.13314446e-02
      5.66572230e-03 2.83286115e-03 0. 2.83286115e-03 2.83286115e-03
      8.49858299e-03 5.66572230e-03 5.66572230e-03 0. 1.13314446e-02
      5.66572230e-03 5.66572230e-03 2.83286115e-03 2.83286115e-03
      1.98300276e-02 5.66572230e-03 2.83286115e-03 2.83286115e-03
      2.83286115e-03 0. 2.83286115e-03 1.41643062e-02 5.66572230e-03
      5.66572230e-03 2.83286115e-03 2.83286115e-03 2.83286115e-03
      2.83286115e-03 2.83286115e-03 0. 2.83286115e-03 0. 5.66572230e-03
      2.83286115e-03 2.83286115e-03 8.49858299e-03 1.13314446e-02
      1.13314446e-02 5.66572230e-03 2.83286115e-03 2.83286115e-03
      1.41643062e-02 0. 2.83286115e-03 2.83286115e-03 8.49858299e-03
      8.49858299e-03 8.49858299e-03 2.83286115e-03 8.49858299e-03
      2.83286115e-03 2.83286115e-03 0. 0. 8.49858299e-03 8.49858299e-03
      8.49858299e-03 2.83286115e-03 0. 2.83286115e-03 8.49858299e-03
      2.83286115e-03 2.83286115e-03 5.66572230e-03 0. 5.66572230e-03
      8.49858299e-03 2.83286115e-03 8.49858299e-03 2.83286115e-03
      5.66572230e-03 1.13314446e-02 2.83286115e-03 5.66572230e-03
      1.41643062e-02 2.83286115e-03 0. 2.83286115e-03 8.49858299e-03
      2.83286115e-03 8.49858299e-03 1.41643062e-02 8.49858299e-03
      2.83286115e-03 2.83286115e-03 2.83286115e-03 8.49858299e-03
      2.83286115e-03 0. 8.49858299e-03 8.49858299e-03 5.66572230e-03
      5.66572230e-03 0. 0. 0. 5.66572230e-03 2.83286115e-03 0.
      8.49858299e-03 5.66572230e-03 8.49858299e-03 2.83286115e-03
      1.13314446e-02 1.69971660e-02 2.83286115e-03 0. 8.49858299e-03
      5.66572230e-03 2.83286115e-03 2.83286115e-03</_>
    <_>
      2.21729488e-03 6.65188488e-03 0. 6.65188488e-03 8.86917952e-03
      1.33037698e-02 0. 8.86917952e-03 6.65188488e-03 2.21729488e-03 0.
      0. 0. 6.65188488e-03 2.21729488e-03 4.43458976e-03 4.43458976e-03
      6.65188488e-03 8.86917952e-03 4.43458976e-03 2.21729488e-03
      8.86917952e-03 8.86917952e-03 1.10864742e-02 1.10864742e-02
      1.55210644e-02 0. 2.21729488e-03 4.43458976e-03 2.21729488e-03
      2.21729488e-03 6.65188488e-03 1.10864742e-02 0. 2.21729488e-03
      4.43458976e-03 6.65188488e-03 1.10864742e-02 0. 6.65188488e-03 0.
      8.86917952e-03 2.21729488e-03 0. 2.21729488e-03 8.86917952e-03 0.
      6.65188488e-03 4.43458976e-03 4.43458976e-03 0. 2.21729488e-03 0.
      4.43458976e-03 2.21729488e-03 2.21729488e-03 6.65188488e-03
      6.65188488e-03 6.65188488e-03 6.65188488e-03 8.86917952e-03
      1.33037698e-02 6.65188488e-03 0. 2.21729488e-03 4.43458976e-03
      1.10864742e-02 8.86917952e-03 2.21729488e-03 2.21729488e-03
      8.86917952e-03 4.43458976e-03 2.21729488e-03 6.65188488e-03 0.
      6.65188488e-03 0. 0. 8.86917952e-03 0. 2.21729488e-03
      2.21729488e-03 6.65188488e-03 0. 6.65188488e-03 2.21729488e-03
      2.21729488e-03 6.65188488e-03 4.43458976e-03 0. 8.86917952e-03
      8.86917952e-03 1.10864742e-02 1.10864742e-02 4.43458976e-03 0.
      2.21729488e-03 4.43458976e-03 0. 6.65188488e-03 8.86917952e-03
      8.86917952e-03 0. 4.43458976e-03 1.55210644e-02 2.21729488e-03
      8.86917952e-03 0. 1.77383590e-02 0. 1.10864742e-02 6.65188488e-03
      0. 1.99556537e-02 2.21729488e-03 0. 0. 6.65188488e-03
      1.10864742e-02 0. 6.65188488e-03 4.43458976e-03 2.21729488e-03
      2.21729488e-03 6.65188488e-03 6.65188488e-03 1.10864742e-02
      2.21729488e-03 1.10864742e-02 6.65188488e-03 1.33037698e-02
      4.43458976e-03 4.43458976e-03 4.43458976e-03 8.86917952e-03
      6.65188488e-03 0. 4.43458976e-03 0. 1.55210644e-02 8.86917952e-03
      8.86917952e-03 4.43458976e-03 6.65188488e-03 4.43458976e-03
      1.10864742e-02 1.10864742e-02 2.21729488e-03 0. 2.21729488e-03
      4.43458976e-03 6.65188488e-03 6.65188488e-03 6.65188488e-03 0.
      4.43458976e-03 6.65188488e-03 2.21729488e-03 4.43458976e-03 0.
      8.86917952e-03 2.21729488e-03 4.43458976e-03 4.43458976e-03
      1.10864742e-02 2.21729488e-03 8.86917952e-03 0. 8.86917952e-03 0.
      4.43458976e-03 4.43458976e-03 0. 6.65188488e-03 2.21729488e-03 0.
      4.43458976e-03 2.21729488e-03 8.86917952e-03 8.86917952e-03
      2.21729488e-03 8.86917952e-03 6.65188488e-03 6.65188488e-03
      2.21729488e-03 0. 1.33037698e-02 4.43458976e-03 2.21729488e-03
      1.10864742e-02 4.43458976e-03 4.43458976e-03 0. 2.21729488e-03 0.
      4.43458976e-03 4.43458976e-03 0. 2.21729488e-03 4.43458976e-03</_>
    <_>
      2.04081624e-03 2.04081624e-03 4.08163248e-03 4.08163248e-03 0.
      1.83673464e-02 0. 8.16326495e-03 1.22448970e-02 2.04081624e-03
      6.12244848e-03 1.42857134e-02 6.12244848e-03 4.08163248e-03
      6.12244848e-03 2.04081624e-03 4.08163248e-03 2.04081624e-03
      1.42857134e-02 1.22448970e-02 1.02040814e-02 4.08163248e-03 0. 0.
      1.42857134e-02 0. 2.04081624e-03 0. 2.04081624e-03 6.12244848e-03
      4.08163248e-03 0. 2.04081624e-03 2.04081624e-03 2.04081624e-03
      8.16326495e-03 0. 4.08163248e-03 0. 2.04081624e-03 0.
      1.02040814e-02 4.08163248e-03 6.12244848e-03 1.02040814e-02
      6.12244848e-03 0. 0. 0. 4.08163248e-03 0. 1.22448970e-02
      4.08163248e-03 2.04081624e-03 8.16326495e-03 2.04081624e-03
      4.08163248e-03 8.16326495e-03 1.02040814e-02 4.08163248e-03
      2.04081624e-03 8.16326495e-03 0. 6.12244848e-03 2.04081624e-03
      4.08163248e-03 1.02040814e-02 6.12244848e-03 0. 8.16326495e-03
      2.04081624e-03 2.04081624e-03 2.04081624e-03 6.12244848e-03
      4.08163248e-03 1.22448970e-02 6.12244848e-03 4.08163248e-03
      1.02040814e-02 6.12244848e-03 4.08163248e-03 0. 0. 2.04081624e-03
      4.08163248e-03 0. 2.04081624e-03 6.12244848e-03 0. 2.04081624e-03
      2.04081624e-03 4.08163248e-03 8.16326495e-03 2.04081624e-03 0.
      2.04081624e-03 6.12244848e-03 2.04081624e-03 1.22448970e-02 0.
      4.08163248e-03 8.16326495e-03 8.16326495e-03 6.12244848e-03 0.
      2.04081624e-03 4.08163248e-03 4.08163248e-03 0. 4.08163248e-03
      2.04081624e-03 6.12244848e-03 4.08163248e-03 4.08163248e-03
      8.16326495e-03 4.08163248e-03 8.16326495e-03 8.16326495e-03
      6.12244848e-03 1.02040814e-02 6.12244848e-03 2.04081624e-03
      2.04081624e-03 6.12244848e-03 6.12244848e-03 2.04081624e-03
      4.08163248e-03 1.22448970e-02 1.42857134e-02 1.02040814e-02
      8.16326495e-03 0. 6.12244848e-03 1.42857134e-02 0. 6.12244848e-03
      1.02040814e-02 8.16326495e-03 8.16326495e-03 8.16326495e-03
      1.02040814e-02 2.04081624e-03 2.04081624e-03 0. 0. 1.02040814e-02
      0. 4.08163248e-03 4.08163248e-03 1.02040814e-02 2.04081624e-03
      2.04081624e-03 1.02040814e-02 4.08163248e-03 8.16326495e-03
      6.12244848e-03 2.04081624e-03 4.08163248e-03 4.08163248e-03
      6.12244848e-03 8.16326495e-03 4.08163248e-03 4.08163248e-03
      1.02040814e-02 2.04081624e-03 4.08163248e-03 1.02040814e-02
      2.04081624e-03 4.08163248e-03 1.02040814e-02 1.22448970e-02
      4.08163248e-03 4.08163248e-03 6.12244848e-03 2.04081624e-03
      6.12244848e-03 8.16326495e-03 4.08163248e-03 2.04081624e-03
      6.12244848e-03 4.08163248e-03 0. 2.04081624e-03 4.08163248e-03
      8.16326495e-03 1.42857134e-02 8.16326495e-03 1.22448970e-02
      8.16326495e-03 6.12244848e-03 4.08163248e-03 4.08163248e-03
      6.12244848e-03 6.12244848e-03 2.04081624e-03 2.04081624e-03
      6.12244848e-03 8.16326495e-03 4.08163248e-03 2.04081624e-03</_>
    <_>
      3.24675324e-03 0. 3.24675324e-03 0. 3.24675324e-03 3.24675324e-03
      1.29870130e-02 3.24675324e-03 6.49350649e-03 6.49350649e-03
      3.24675324e-03 1.62337665e-02 0. 6.49350649e-03 3.24675324e-03
      3.24675324e-03 3.24675324e-03 3.24675324e-03 6.49350649e-03
      6.49350649e-03 0. 3.24675324e-03 9.74025950e-03 3.24675324e-03
      6.49350649e-03 0. 0. 0. 3.24675324e-03 1.94805190e-02 0.
      6.49350649e-03 0. 0. 3.24675324e-03 6.49350649e-03 9.74025950e-03
      3.24675324e-03 1.29870130e-02 6.49350649e-03 6.49350649e-03 0.
      6.49350649e-03 0. 3.24675324e-03 6.49350649e-03 6.49350649e-03 0.
      3.24675324e-03 3.24675324e-03 3.24675324e-03 0. 0. 3.24675324e-03
      9.74025950e-03 6.49350649e-03 0. 3.24675324e-03 0. 0.
      6.49350649e-03 1.29870130e-02 0. 9.74025950e-03 3.24675324e-03
      3.24675324e-03 3.24675324e-03 6.49350649e-03 0. 6.49350649e-03 0.
      3.24675324e-03 0. 6.49350649e-03 3.24675324e-03 9.74025950e-03
      9.74025950e-03 3.24675324e-03 9.74025950e-03 0. 3.24675324e-03 0.
      1.94805190e-02 0. 3.24675324e-03 0. 6.49350649e-03 1.62337665e-02
      1.29870130e-02 3.24675324e-03 3.24675324e-03 3.24675324e-03
      3.24675324e-03 3.24675324e-03 1.29870130e-02 6.49350649e-03 0.
      9.74025950e-03 9.74025950e-03 0. 9.74025950e-03 6.49350649e-03 0.
      3.24675324e-03 0. 0. 0. 3.24675324e-03 0. 0. 3.24675324e-03
      3.24675324e-03 3.24675324e-03 0. 0. 3.24675324e-03 3.24675324e-03
      6.49350649e-03 6.49350649e-03 1.94805190e-02 9.74025950e-03
      3.24675324e-03 6.49350649e-03 9.74025950e-03 0. 0. 3.24675324e-03
      6.49350649e-03 3.24675324e-03 6.49350649e-03 6.49350649e-03 0.
      3.24675324e-03 3.24675324e-03 3.24675324e-03 3.24675324e-03
      1.29870130e-02 6.49350649e-03 6.49350649e-03 3.24675324e-03 0.
      6.49350649e-03 3.24675324e-03 9.74025950e-03 9.74025950e-03
      1.29870130e-02 1.62337665e-02 3.24675324e-03 1.29870130e-02
      6.49350649e-03 6.49350649e-03 3.24675324e-03 6.49350649e-03
      9.74025950e-03 1.29870130e-02 0. 0. 1.62337665e-02 0.
      9.74025950e-03 0. 6.49350649e-03 6.49350649e-03 0. 3.24675324e-03
      3.24675324e-03 9.74025950e-03 6.49350649e-03 3.24675324e-03
      9.74025950e-03 1.29870130e-02 3.24675324e-03 6.49350649e-03
      1.62337665e-02 6.49350649e-03 6.49350649e-03 0. 3.24675324e-03 0.
      0. 6.49350649e-03 6.49350649e-03 3.24675324e-03 3.24675324e-03 0.
      6.49350649e-03 3.24675324e-03 6.49350649e-03 1.94805190e-02
      3.24675324e-03 0. 3.24675324e-03 6.49350649e-03 3.24675324e-03
      1.94805190e-02 0. 6.49350649e-03 1.29870130e-02 3.24675324e-03
      3.24675324e-03</_>
    <_>
      2.68096523e-03 5.36193047e-03 8.04289617e-03 2.68096523e-03 0. 0.
      0. 2.68096523e-03 2.68096523e-03 5.36193047e-03 5.36193047e-03
      5.36193047e-03 2.68096523e-03 2.68096523e-03 8.04289617e-03 0.
      2.68096523e-03 5.36193047e-03 8.04289617e-03 2.68096523e-03
      2.68096523e-03 2.68096523e-03 0. 0. 5.36193047e-03 0.
      1.07238609e-02 5.36193047e-03 5.36193047e-03 8.04289617e-03 0.
      8.04289617e-03 0. 0. 0. 8.04289617e-03 2.68096523e-03 0.
      2.68096523e-03 2.68096523e-03 2.68096523e-03 2.68096523e-03
      2.68096523e-03 2.68096523e-03 0. 2.68096523e-03 2.68096523e-03 0.
      5.36193047e-03 1.34048257e-02 1.87667571e-02 2.68096523e-03
      5.36193047e-03 0. 0. 2.68096523e-03 1.60857923e-02 5.36193047e-03
      0. 2.68096523e-03 5.36193047e-03 2.68096523e-03 2.68096523e-03
      2.68096523e-03 0. 2.68096523e-03 5.36193047e-03 2.68096523e-03
      3.21715847e-02 2.68096514e-02 8.04289617e-03 2.68096523e-03
      5.36193047e-03 2.68096523e-03 8.04289617e-03 8.04289617e-03
      8.04289617e-03 2.68096523e-03 1.34048257e-02 8.04289617e-03
      5.36193047e-03 0. 0. 2.68096523e-03 0. 2.41286866e-02
      8.04289617e-03 0. 2.68096523e-03 8.04289617e-03 5.36193047e-03
      5.36193047e-03 5.36193047e-03 0. 2.68096523e-03 2.68096523e-03
      5.36193047e-03 2.68096523e-03 2.14477219e-02 8.04289617e-03
      8.04289617e-03 2.68096523e-03 2.68096523e-03 2.68096523e-03
      2.68096523e-03 5.36193047e-03 2.68096523e-03 8.04289617e-03
      1.34048257e-02 8.04289617e-03 2.68096523e-03 1.07238609e-02
      1.07238609e-02 5.36193047e-03 1.34048257e-02 1.07238609e-02
      2.68096523e-03 5.36193047e-03 0. 8.04289617e-03 2.68096523e-03
      5.36193047e-03 0. 2.68096523e-03 0. 8.04289617e-03 0.
      2.68096523e-03 2.68096523e-03 2.68096523e-03 5.36193047e-03
      2.68096523e-03 0. 2.68096523e-03 2.68096523e-03 0. 8.04289617e-03
      2.68096523e-03 1.07238609e-02 2.68096523e-03 0. 2.68096523e-03
      5.36193047e-03 2.68096523e-03 8.04289617e-03 8.04289617e-03
      8.04289617e-03 2.68096523e-03 5.36193047e-03 2.68096523e-03
      1.34048257e-02 2.68096523e-03 2.68096523e-03 5.36193047e-03 0.
      8.04289617e-03 0. 2.14477219e-02 2.68096523e-03 0. 2.68096523e-03
      2.68096523e-03 8.04289617e-03 5.36193047e-03 0. 2.68096523e-03
      2.14477219e-02 2.68096523e-03 5.36193047e-03 5.36193047e-03
      1.07238609e-02 0. 0. 1.07238609e-02 2.68096523e-03 2.68096523e-03
      8.04289617e-03 1.07238609e-02 5.36193047e-03 5.36193047e-03 0. 0.
      0. 8.04289617e-03 2.68096523e-03 1.34048257e-02 0. 5.36193047e-03
      1.34048257e-02 0. 0. 1.34048257e-02 5.36193047e-03 1.34048257e-02
      2.68096523e-03 2.68096523e-03 2.68096523e-03 1.60857923e-02
      5.36193047e-03 5.36193047e-03</_>
    <_>
      0. 0. 2.65957438e-03 0. 0. 2.65957438e-03 7.97872338e-03
      7.97872338e-03 0. 1.59574468e-02 2.65957438e-03 2.65957434e-02 0.
      2.65957438e-03 2.65957438e-03 0. 5.31914877e-03 5.31914877e-03
      5.31914877e-03 0. 2.65957438e-03 2.65957438e-03 7.97872338e-03
      2.65957438e-03 1.06382975e-02 0. 0. 2.65957438e-03 5.31914877e-03
      1.59574468e-02 5.31914877e-03 5.31914877e-03 2.65957438e-03 0.
      2.65957438e-03 1.06382975e-02 2.65957438e-03 2.65957438e-03 0.
      7.97872338e-03 1.06382975e-02 5.31914877e-03 0. 5.31914877e-03
      1.59574468e-02 2.65957438e-03 0. 2.65957438e-03 2.65957438e-03
      2.65957438e-03 2.39361692e-02 2.65957438e-03 0. 1.06382975e-02
      2.65957438e-03 7.97872338e-03 2.65957438e-03 7.97872338e-03 0.
      2.65957438e-03 1.06382975e-02 2.65957438e-03 5.31914877e-03 0.
      2.65957438e-03 7.97872338e-03 0. 0. 1.86170209e-02 0. 0. 0. 0. 0.
      5.31914877e-03 2.65957438e-03 1.06382975e-02 7.97872338e-03
      1.06382975e-02 1.32978717e-02 0. 7.97872338e-03 2.65957438e-03
      2.65957438e-03 2.65957438e-03 1.32978717e-02 2.65957438e-03
      7.97872338e-03 5.31914877e-03 7.97872338e-03 0. 2.65957438e-03
      2.65957438e-03 5.31914877e-03 2.65957438e-03 0. 0. 5.31914877e-03
      1.59574468e-02 1.32978717e-02 2.65957438e-03 5.31914877e-03
      2.65957438e-03 5.31914877e-03 0. 0. 0. 7.97872338e-03
      7.97872338e-03 0. 2.65957438e-03 2.65957438e-03 2.65957438e-03
      2.65957438e-03 7.97872338e-03 0. 5.31914877e-03 7.97872338e-03
      2.65957438e-03 7.97872338e-03 5.31914877e-03 0. 2.65957438e-03 0.
      5.31914877e-03 0. 5.31914877e-03 5.31914877e-03 5.31914877e-03
      1.59574468e-02 2.65957438e-03 5.31914877e-03 0. 7.97872338e-03 0.
      7.97872338e-03 0. 7.97872338e-03 5.31914877e-03 5.31914877e-03
      7.97872338e-03 5.31914877e-03 0. 7.97872338e-03 2.65957438e-03
      1.59574468e-02 5.31914877e-03 5.31914877e-03 2.12765951e-02
      7.97872338e-03 5.31914877e-03 0. 0. 5.31914877e-03 2.65957438e-03
      0. 0. 2.12765951e-02 2.65957438e-03 2.65957438e-03 0. 0.
      5.31914877e-03 0. 2.65957438e-03 0. 1.32978717e-02 1.32978717e-02
      1.06382975e-02 2.39361692e-02 2.65957438e-03 0. 2.65957438e-03
      7.97872338e-03 0. 5.31914877e-03 7.97872338e-03 0. 0.
      7.97872338e-03 5.31914877e-03 5.31914877e-03 5.31914877e-03
      2.65957438e-03 5.31914877e-03 1.32978717e-02 2.65957438e-03
      7.97872338e-03 1.59574468e-02 2.65957438e-03 2.65957438e-03
      7.97872338e-03 2.65957438e-03 1.06382975e-02 2.65957438e-03
      2.65957438e-03 1.06382975e-02 0. 7.97872338e-03 1.32978717e-02</_>
    <_>
      7.54716992e-03 3.77358496e-03 3.77358496e-03 1.88679248e-03
      1.88679248e-03 1.88679248e-03 1.88679248e-03 9.43396240e-03
      3.77358496e-03 3.77358496e-03 3.77358496e-03 2.83018872e-02
      3.77358496e-03 0. 9.43396240e-03 1.88679248e-03 1.88679248e-03 0.
      3.77358496e-03 1.88679248e-03 5.66037744e-03 3.77358496e-03
      7.54716992e-03 0. 0. 3.77358496e-03 3.77358496e-03 9.43396240e-03
      9.43396240e-03 5.66037744e-03 3.77358496e-03 7.54716992e-03
      5.66037744e-03 0. 1.88679248e-03 0. 3.77358496e-03 7.54716992e-03
      3.77358496e-03 1.88679248e-03 3.77358496e-03 1.13207549e-02
      1.88679248e-03 5.66037744e-03 1.50943398e-02 5.66037744e-03
      1.88679248e-03 3.77358496e-03 3.77358496e-03 0. 7.54716992e-03
      1.88679248e-03 9.43396240e-03 1.88679248e-03 3.77358496e-03 0.
      5.66037744e-03 3.77358496e-03 1.88679248e-03 5.66037744e-03
      5.66037744e-03 5.66037744e-03 1.13207549e-02 0. 0. 1.88679248e-03
      7.54716992e-03 5.66037744e-03 1.88679248e-03 1.13207549e-02
      5.66037744e-03 0. 5.66037744e-03 3.77358496e-03 5.66037744e-03
      5.66037744e-03 5.66037744e-03 9.43396240e-03 7.54716992e-03
      3.77358496e-03 0. 3.77358496e-03 3.77358496e-03 5.66037744e-03
      5.66037744e-03 1.88679248e-03 5.66037744e-03 3.77358496e-03
      7.54716992e-03 0. 5.66037744e-03 9.43396240e-03 9.43396240e-03
      3.77358496e-03 5.66037744e-03 5.66037744e-03 1.88679248e-03
      3.77358496e-03 1.69811323e-02 7.54716992e-03 5.66037744e-03
      3.77358496e-03 1.50943398e-02 9.43396240e-03 1.13207549e-02
      7.54716992e-03 1.88679248e-03 1.88679248e-03 7.54716992e-03 0. 0.
      3.77358496e-03 1.88679248e-03 1.88679248e-03 7.54716992e-03
      1.88679248e-03 3.77358496e-03 7.54716992e-03 1.88679248e-03
      3.77358496e-03 7.54716992e-03 0. 5.66037744e-03 3.77358496e-03
      5.66037744e-03 0. 3.77358496e-03 1.88679248e-03 3.77358496e-03
      7.54716992e-03 0. 5.66037744e-03 5.66037744e-03 5.66037744e-03
      7.54716992e-03 1.88679248e-03 1.88679248e-03 5.66037744e-03
      7.54716992e-03 5.66037744e-03 7.54716992e-03 1.88679248e-03
      5.66037744e-03 0. 0. 1.88679248e-03 5.66037744e-03 7.54716992e-03
      2.83018872e-02 1.88679248e-03 5.66037744e-03 3.77358496e-03
      1.88679248e-03 1.88679248e-03 3.77358496e-03 3.77358496e-03
      3.77358496e-03 1.32075474e-02 3.77358496e-03 1.88679248e-03
      1.88679248e-03 5.66037744e-03 3.77358496e-03 3.77358496e-03
      5.66037744e-03 1.88679248e-03 3.58490571e-02 0. 1.13207549e-02
      7.54716992e-03 5.66037744e-03 5.66037744e-03 3.77358496e-03
      7.54716992e-03 7.54716992e-03 3.77358496e-03 1.32075474e-02
      1.88679248e-03 0. 0. 1.32075474e-02 5.66037744e-03 1.88679248e-03
      1.88679248e-03 1.88679248e-03 1.50943398e-02 0. 1.88679248e-03
      9.43396240e-03 3.77358496e-03 5.66037744e-03 3.77358496e-03
      5.66037744e-03 7.54716992e-03 0. 7.54716992e-03 3.77358496e-03
      3.77358496e-03 1.88679248e-03 5.66037744e-03</_>
    <_>
      6.12244848e-03 8.16326495e-03 6.12244848e-03 2.04081624e-03
      2.04081624e-03 4.08163248e-03 0. 1.22448970e-02 1.22448970e-02 0.
      0. 1.42857134e-02 8.16326495e-03 2.04081624e-03 4.08163248e-03
      6.12244848e-03 2.04081624e-03 2.04081624e-03 1.63265299e-02
      1.02040814e-02 0. 6.12244848e-03 2.04081624e-03 4.08163248e-03
      1.02040814e-02 0. 4.08163248e-03 0. 6.12244848e-03 0.
      2.04081624e-03 6.12244848e-03 8.16326495e-03 4.08163248e-03
      2.04081624e-03 2.04081624e-03 6.12244848e-03 2.04081624e-03
      2.04081624e-03 1.42857134e-02 4.08163248e-03 6.12244848e-03
      6.12244848e-03 2.04081624e-03 4.08163248e-03 6.12244848e-03 0.
      2.04081624e-03 1.22448970e-02 1.22448970e-02 1.42857134e-02
      6.12244848e-03 1.02040814e-02 6.12244848e-03 1.42857134e-02
      2.04081624e-03 2.04081624e-03 6.12244848e-03 6.12244848e-03
      6.12244848e-03 2.04081624e-03 1.02040814e-02 0. 6.12244848e-03
      2.04081624e-03 0. 1.02040814e-02 4.08163248e-03 0. 4.08163248e-03
      4.08163248e-03 4.08163248e-03 8.16326495e-03 2.04081624e-03
      1.42857134e-02 8.16326495e-03 2.04081624e-03 6.12244848e-03
      8.16326495e-03 0. 4.08163248e-03 2.04081624e-03 2.04081624e-03 0.
      1.02040814e-02 1.02040814e-02 2.04081624e-03 8.16326495e-03
      1.02040814e-02 4.08163248e-03 6.12244848e-03 1.02040814e-02
      8.16326495e-03 0. 1.02040814e-02 1.22448970e-02 4.08163248e-03
      8.16326495e-03 2.04081624e-03 2.04081624e-03 2.04081624e-03
      4.08163248e-03 8.16326495e-03 4.08163248e-03 6.12244848e-03
      8.16326495e-03 8.16326495e-03 2.04081624e-03 6.12244848e-03
      2.04081624e-03 2.04081624e-03 1.02040814e-02 4.08163248e-03
      2.04081624e-03 4.08163248e-03 2.04081624e-03 4.08163248e-03
      4.08163248e-03 4.08163248e-03 1.02040814e-02 6.12244848e-03
      2.04081624e-03 4.08163248e-03 4.08163248e-03 4.08163248e-03
      4.08163248e-03 4.08163248e-03 6.12244848e-03 4.08163248e-03 0.
      8.16326495e-03 4.08163248e-03 0. 1.42857134e-02 4.08163248e-03 0.
      0. 8.16326495e-03 2.04081624e-03 1.42857134e-02 4.08163248e-03
      2.04081624e-03 1.02040814e-02 4.08163248e-03 0. 6.12244848e-03
      2.04081624e-03 4.08163248e-03 8.16326495e-03 6.12244848e-03
      2.04081624e-03 0. 4.08163248e-03 0. 4.08163248e-03 6.12244848e-03
      2.04081624e-03 4.08163248e-03 6.12244848e-03 0. 2.04081624e-03 0.
      4.08163248e-03 1.02040814e-02 6.12244848e-03 1.02040814e-02
      8.16326495e-03 6.12244848e-03 1.02040814e-02 0. 4.08163248e-03
      1.22448970e-02 0. 8.16326495e-03 2.04081624e-03 6.12244848e-03
      6.12244848e-03 6.12244848e-03 6.12244848e-03 1.02040814e-02
      2.04081624e-03 4.08163248e-03 8.16326495e-03 6.12244848e-03
      2.04081624e-03 2.04081624e-03 0. 0. 4.08163248e-03 1.42857134e-02
      2.04081624e-03 6.12244848e-03 4.08163248e-03 4.08163248e-03
      4.08163248e-03 0. 2.04081624e-03 4.08163248e-03 4.08163248e-03 0.</_>
    <_>
      5.69476094e-03 4.55580885e-03 3.41685675e-03 0. 1.02505703e-02
      3.41685675e-03 1.13895221e-03 6.83371350e-03 4.55580885e-03
      1.25284744e-02 2.27790442e-03 4.55580885e-03 2.27790442e-03
      3.41685675e-03 0. 2.27790442e-03 4.55580885e-03 5.69476094e-03
      5.69476094e-03 4.55580885e-03 3.41685675e-03 5.69476094e-03
      2.27790442e-03 7.97266513e-03 5.69476094e-03 5.69476094e-03 0.
      4.55580885e-03 4.55580885e-03 1.13895221e-03 4.55580885e-03
      6.83371350e-03 2.27790442e-03 6.83371350e-03 3.41685675e-03
      9.11161769e-03 2.27790442e-03 9.11161769e-03 0. 3.41685675e-03
      6.83371350e-03 4.55580885e-03 5.69476094e-03 7.97266513e-03
      3.41685675e-03 1.36674270e-02 7.97266513e-03 0. 3.41685675e-03
      1.13895221e-03 1.13895221e-03 4.55580885e-03 6.83371350e-03
      6.83371350e-03 6.83371350e-03 6.83371350e-03 2.27790442e-03
      5.69476094e-03 3.41685675e-03 9.11161769e-03 7.97266513e-03
      6.83371350e-03 6.83371350e-03 5.69476094e-03 4.55580885e-03
      6.83371350e-03 5.69476094e-03 6.83371350e-03 0. 0. 4.55580885e-03
      5.69476094e-03 0. 2.27790442e-03 6.83371350e-03 3.41685675e-03
      7.97266513e-03 1.02505703e-02 2.27790442e-03 2.27790442e-03
      2.27790442e-03 0. 5.69476094e-03 1.13895221e-03 6.83371350e-03 0.
      1.13895221e-03 5.69476094e-03 6.83371350e-03 4.55580885e-03
      3.41685675e-03 5.69476094e-03 5.69476094e-03 2.27790442e-03
      5.69476094e-03 4.55580885e-03 2.27790442e-03 4.55580885e-03 0.
      3.41685675e-03 4.55580885e-03 9.11161769e-03 2.27790442e-03
      5.69476094e-03 0. 7.97266513e-03 5.69476094e-03 5.69476094e-03
      2.05011405e-02 2.27790442e-03 1.13895221e-03 4.55580885e-03
      4.55580885e-03 1.48063786e-02 2.27790442e-03 3.41685675e-03
      3.41685675e-03 1.59453303e-02 5.69476094e-03 4.55580885e-03
      3.41685675e-03 4.55580885e-03 2.27790442e-03 3.41685675e-03
      2.27790442e-03 1.02505703e-02 1.59453303e-02 4.55580885e-03
      3.41685675e-03 4.55580885e-03 9.11161769e-03 1.48063786e-02
      6.83371350e-03 5.69476094e-03 2.27790442e-03 3.41685675e-03
      2.27790442e-03 1.36674270e-02 4.55580885e-03 5.69476094e-03 0.
      4.55580885e-03 4.55580885e-03 4.55580885e-03 1.13895221e-03
      7.97266513e-03 5.69476094e-03 6.83371350e-03 2.27790442e-03
      3.41685675e-03 1.13895221e-03 6.83371350e-03 1.13895221e-03
      5.69476094e-03 7.97266513e-03 4.55580885e-03 3.41685675e-03
      2.27790442e-03 4.55580885e-03 7.97266513e-03 9.11161769e-03
      2.27790442e-03 4.55580885e-03 1.02505703e-02 1.02505703e-02
      2.27790442e-03 0. 1.02505703e-02 5.69476094e-03 0. 1.13895221e-03
      4.55580885e-03 2.27790442e-03 5.69476094e-03 2.27790442e-03
      3.41685675e-03 4.55580885e-03 2.27790442e-03 9.11161769e-03
      1.02505703e-02 1.25284744e-02 4.55580885e-03 6.83371350e-03
      5.69476094e-03 6.83371350e-03 3.41685675e-03 1.36674270e-02
      1.13895221e-03 0. 3.41685675e-03 6.83371350e-03 2.27790442e-03
      6.83371350e-03 2.27790442e-03 9.11161769e-03 9.11161769e-03
      7.97266513e-03 3.41685675e-03 3.41685675e-03 3.41685675e-03</_>
    <_>
      5.57103055e-03 4.17827303e-03 6.96378807e-03 1.39275764e-03
      2.36768797e-02 1.53203337e-02 6.96378807e-03 6.96378807e-03
      1.39275764e-03 5.57103055e-03 1.39275764e-03 1.39275764e-03
      5.57103055e-03 2.78551527e-03 2.78551527e-03 1.39275764e-03
      5.57103055e-03 2.78551527e-03 4.17827303e-03 2.78551527e-03
      4.17827303e-03 6.96378807e-03 1.53203337e-02 6.96378807e-03
      2.78551527e-03 1.39275764e-03 0. 2.78551527e-03 4.17827303e-03
      2.78551527e-03 0. 6.96378807e-03 9.74930357e-03 1.39275764e-03
      6.96378807e-03 1.11420611e-02 1.39275764e-03 4.17827303e-03
      2.78551527e-03 1.11420611e-02 4.17827303e-03 8.35654605e-03 0.
      6.96378807e-03 2.78551527e-03 2.78551527e-03 9.74930357e-03
      5.57103055e-03 1.39275764e-03 0. 1.39275764e-03 1.39275764e-03
      5.57103055e-03 1.39275764e-03 6.96378807e-03 5.57103055e-03
      4.17827303e-03 6.96378807e-03 2.78551527e-03 5.57103055e-03
      1.25348186e-02 9.74930357e-03 6.96378807e-03 2.78551527e-03
      2.78551527e-03 5.57103055e-03 5.57103055e-03 2.78551527e-03
      5.57103055e-03 1.39275764e-03 1.53203337e-02 6.96378807e-03
      2.78551527e-03 8.35654605e-03 2.78551527e-03 0. 6.96378807e-03
      5.57103055e-03 5.57103055e-03 1.39275764e-03 6.96378807e-03
      4.17827303e-03 0. 2.78551527e-03 4.17827303e-03 6.96378807e-03
      5.57103055e-03 8.35654605e-03 1.39275764e-03 2.78551527e-03
      6.96378807e-03 4.17827303e-03 8.35654605e-03 0. 5.57103055e-03
      6.96378807e-03 5.57103055e-03 4.17827303e-03 0. 0. 1.39275764e-03
      2.78551527e-03 4.17827303e-03 1.53203337e-02 1.25348186e-02
      6.96378807e-03 4.17827303e-03 0. 9.74930357e-03 6.96378807e-03
      1.39275764e-03 1.25348186e-02 1.39275764e-03 9.74930357e-03
      1.39275764e-03 0. 6.96378807e-03 9.74930357e-03 2.78551527e-03
      5.57103055e-03 1.39275761e-02 1.39275764e-03 5.57103055e-03
      2.78551527e-03 1.39275764e-03 2.78551527e-03 5.57103055e-03
      9.74930357e-03 2.78551527e-03 9.74930357e-03 4.17827303e-03
      6.96378807e-03 8.35654605e-03 9.74930357e-03 6.96378807e-03
      5.57103055e-03 2.78551527e-03 6.96378807e-03 1.39275764e-03
      8.35654605e-03 1.25348186e-02 2.78551527e-03 0. 4.17827303e-03 0.
      8.35654605e-03 1.11420611e-02 2.78551527e-03 2.78551527e-03
      8.35654605e-03 4.17827303e-03 2.78551527e-03 2.78551527e-03
      8.35654605e-03 1.39275764e-03 9.74930357e-03 0. 4.17827303e-03
      2.78551527e-03 0. 5.57103055e-03 1.39275764e-03 5.57103055e-03
      2.78551527e-03 1.53203337e-02 2.78551527e-03 1.39275764e-03 0.
      6.96378807e-03 0. 0. 8.35654605e-03 2.78551527e-03 2.78551527e-03
      1.11420611e-02 1.39275764e-03 6.96378807e-03 5.57103055e-03
      5.57103055e-03 4.17827303e-03 6.96378807e-03 4.17827303e-03
      1.39275764e-03 1.39275764e-03 8.35654605e-03 0. 6.96378807e-03
      5.57103055e-03 2.78551527e-03 5.57103055e-03 2.78551527e-03
      1.39275764e-03 9.74930357e-03 2.78551527e-03 9.74930357e-03
      6.96378807e-03 1.11420611e-02 0. 5.57103055e-03 2.78551527e-03</_>
    <_>
      1.31406041e-03 2.62812083e-03 0. 1.31406041e-03 3.67936902e-02
      6.57030195e-03 1.31406041e-03 3.94218136e-03 2.62812083e-03
      3.94218136e-03 3.94218136e-03 1.18265441e-02 9.19842254e-03
      2.62812083e-03 1.31406041e-03 2.62812083e-03 9.19842254e-03
      1.31406041e-03 1.97109058e-02 1.31406041e-03 6.57030195e-03
      1.70827862e-02 9.19842254e-03 1.31406041e-03 3.94218136e-03
      2.62812083e-03 1.31406041e-03 0. 5.25624165e-03 2.62812083e-03 0.
      1.31406041e-03 2.10249666e-02 1.31406041e-03 2.62812083e-03
      1.31406041e-03 5.25624165e-03 5.25624165e-03 1.31406039e-02
      1.31406041e-03 3.94218136e-03 1.18265441e-02 1.31406041e-03 0.
      3.94218136e-03 1.31406041e-03 3.94218136e-03 2.36530881e-02
      1.31406041e-03 1.31406039e-02 0. 2.62812083e-03 2.62812083e-03 0.
      1.97109058e-02 2.62812083e-03 3.94218136e-03 2.62812083e-03
      1.44546647e-02 2.62812083e-03 9.19842254e-03 9.19842254e-03
      3.94218136e-03 0. 5.25624165e-03 0. 1.18265441e-02 3.94218136e-03
      1.44546647e-02 0. 1.05124833e-02 0. 5.25624165e-03 7.88436271e-03
      0. 2.62812083e-03 0. 6.57030195e-03 6.57030195e-03 2.62812083e-03
      1.31406041e-03 1.31406039e-02 1.31406041e-03 0. 2.62812083e-03
      7.88436271e-03 7.88436271e-03 5.25624165e-03 6.57030195e-03
      1.31406041e-03 1.57687254e-02 2.62812083e-03 7.88436271e-03
      1.31406041e-03 1.05124833e-02 9.19842254e-03 5.25624165e-03
      2.62812083e-03 0. 0. 1.31406041e-03 3.94218136e-03 1.44546647e-02
      5.25624165e-03 1.44546647e-02 2.62812083e-03 1.31406041e-03 0.
      9.19842254e-03 1.31406041e-03 2.62812083e-03 1.31406039e-02
      1.31406041e-03 0. 1.31406041e-03 3.94218136e-03 3.94218136e-03
      3.94218136e-03 2.62812083e-03 1.31406039e-02 5.25624165e-03
      1.31406041e-03 5.25624165e-03 1.31406041e-03 1.31406041e-03
      1.31406041e-03 1.31406041e-03 2.62812083e-03 3.94218136e-03
      7.88436271e-03 3.94218136e-03 3.94218136e-03 5.25624165e-03
      6.57030195e-03 1.31406041e-03 5.25624165e-03 3.94218136e-03
      2.62812083e-03 2.62812083e-03 3.94218136e-03 9.19842254e-03
      5.25624165e-03 7.88436271e-03 7.88436271e-03 1.31406041e-03
      1.31406041e-03 5.25624165e-03 2.62812083e-03 3.94218136e-03
      6.57030195e-03 5.25624165e-03 5.25624165e-03 5.25624165e-03
      1.44546647e-02 3.94218136e-03 1.31406041e-03 3.94218136e-03
      6.57030195e-03 3.94218136e-03 2.62812083e-03 6.57030195e-03 0.
      9.19842254e-03 7.88436271e-03 6.57030195e-03 6.57030195e-03
      3.94218136e-03 3.94218136e-03 1.44546647e-02 2.62812083e-03
      1.31406041e-03 6.57030195e-03 3.94218136e-03 0. 1.05124833e-02
      3.94218136e-03 1.31406041e-03 2.62812083e-03 2.62812083e-03
      3.94218136e-03 0. 0. 1.31406041e-03 2.62812083e-03 9.19842254e-03
      1.31406041e-03 3.94218136e-03 2.62812083e-03 0. 5.25624165e-03
      2.62812083e-03 1.31406041e-03 1.05124833e-02 0. 7.88436271e-03
      6.57030195e-03 2.62812083e-03 9.19842254e-03 9.19842254e-03
      6.57030195e-03</_>
    <_>
      2.53807101e-03 0. 2.53807101e-03 0. 1.01522841e-02 0. 0.
      7.61421304e-03 0. 7.61421304e-03 0. 2.53807101e-02 0.
      7.61421304e-03 0. 2.53807101e-03 2.53807101e-03 5.07614203e-03 0.
      1.01522841e-02 0. 1.26903551e-02 5.07614203e-03 0. 2.53807101e-03
      2.53807101e-03 0. 5.07614203e-03 2.53807101e-03 1.01522841e-02
      5.07614203e-03 2.53807101e-03 5.07614203e-03 2.53807101e-03
      2.53807101e-03 2.53807101e-03 2.53807101e-03 1.01522841e-02
      7.61421304e-03 1.26903551e-02 5.07614203e-03 5.07614203e-03
      5.07614203e-03 1.01522841e-02 1.01522841e-02 5.07614203e-03 0.
      5.07614203e-03 5.07614203e-03 2.53807101e-03 1.26903551e-02
      2.53807101e-03 0. 0. 7.61421304e-03 5.07614203e-03 0.
      2.53807101e-03 5.07614203e-03 7.61421304e-03 2.53807101e-03
      5.07614203e-03 2.53807101e-03 0. 2.53807101e-03 5.07614203e-03
      1.26903551e-02 0. 5.07614203e-03 7.61421304e-03 2.53807101e-03 0.
      2.53807101e-03 2.53807101e-03 2.53807101e-03 0. 7.61421304e-03
      7.61421304e-03 0. 7.61421304e-03 0. 1.52284261e-02 5.07614203e-03
      1.01522841e-02 0. 1.01522841e-02 2.53807101e-03 7.61421304e-03
      5.07614203e-03 2.53807101e-03 1.01522841e-02 0. 0. 7.61421304e-03
      2.53807101e-03 7.61421304e-03 2.53807101e-03 2.53807101e-03
      7.61421304e-03 1.01522841e-02 7.61421304e-03 5.07614203e-03
      5.07614203e-03 1.26903551e-02 1.01522841e-02 2.53807101e-03
      2.53807101e-03 2.53807101e-03 5.07614203e-03 2.53807101e-03 0. 0.
      7.61421304e-03 7.61421304e-03 1.26903551e-02 5.07614203e-03
      2.53807101e-03 2.53807101e-03 0. 5.07614203e-03 0. 0.
      7.61421304e-03 7.61421304e-03 1.01522841e-02 1.01522841e-02
      2.53807101e-03 5.07614203e-03 1.26903551e-02 1.26903551e-02
      1.01522841e-02 7.61421304e-03 0. 7.61421304e-03 1.01522841e-02
      1.01522841e-02 5.07614203e-03 1.01522841e-02 2.53807101e-03
      1.01522841e-02 2.53807101e-03 2.53807101e-03 1.52284261e-02
      5.07614203e-03 0. 1.01522841e-02 0. 2.53807101e-03 2.79187821e-02
      5.07614203e-03 2.53807101e-03 5.07614203e-03 2.53807101e-03
      2.53807101e-03 0. 5.07614203e-03 1.01522841e-02 5.07614203e-03
      5.07614203e-03 5.07614203e-03 0. 2.53807101e-03 0. 2.53807101e-03
      5.07614203e-03 0. 7.61421304e-03 0. 5.07614203e-03 1.01522841e-02
      5.07614203e-03 1.01522841e-02 1.52284261e-02 5.07614203e-03
      1.52284261e-02 5.07614203e-03 1.26903551e-02 2.53807101e-03
      2.53807101e-03 0. 2.53807101e-03 1.01522841e-02 0. 0.
      5.07614203e-03 5.07614203e-03 5.07614203e-03 0. 0. 2.53807101e-03
      1.01522841e-02 7.61421304e-03 1.01522841e-02 2.53807101e-03
      5.07614203e-03 0. 2.53807101e-03 5.07614203e-03 0. 5.07614203e-03</_>
    <_>
      7.09219836e-03 3.54609918e-03 0. 7.09219836e-03 7.09219836e-03
      3.54609918e-03 0. 3.54609918e-03 0. 0. 0. 1.06382975e-02 0.
      1.06382975e-02 0. 3.54609918e-03 0. 7.09219836e-03 3.54609918e-03
      7.09219836e-03 0. 1.06382975e-02 3.54609918e-03 0. 0.
      3.54609918e-03 0. 0. 0. 3.54609918e-03 0. 1.06382975e-02
      3.54609918e-03 0. 0. 3.54609918e-03 0. 0. 7.09219836e-03
      3.54609918e-03 0. 3.54609918e-03 0. 3.54609918e-03 7.09219836e-03
      0. 7.09219836e-03 7.09219836e-03 0. 1.06382975e-02 1.41843967e-02
      3.54609918e-03 0. 3.54609918e-03 1.77304968e-02 0. 3.54609918e-03
      0. 7.09219836e-03 0. 7.09219836e-03 0. 0. 3.54609918e-03 0. 0.
      7.09219836e-03 3.54609918e-03 1.77304968e-02 0. 1.06382975e-02 0.
      3.54609918e-03 0. 1.06382975e-02 1.06382975e-02 0. 3.54609918e-03
      7.09219836e-03 3.54609918e-03 0. 3.54609918e-03 3.54609918e-03 0.
      3.54609918e-03 3.90070900e-02 7.09219836e-03 3.54609918e-03
      1.06382975e-02 3.54609918e-03 7.09219836e-03 0. 3.54609918e-03 0.
      2.12765951e-02 0. 3.54609918e-03 7.09219836e-03 2.12765951e-02 0.
      1.06382975e-02 3.54609918e-03 7.09219836e-03 1.06382975e-02
      3.54609918e-03 0. 3.54609918e-03 7.09219836e-03 3.54609918e-03
      3.54609918e-03 7.09219836e-03 0. 1.41843967e-02 3.54609918e-03
      7.09219836e-03 1.41843967e-02 7.09219836e-03 7.09219836e-03 0.
      2.12765951e-02 7.09219836e-03 0. 3.54609918e-03 1.06382975e-02
      1.06382975e-02 0. 0. 1.06382975e-02 3.54609918e-03 0. 0.
      7.09219836e-03 3.54609918e-03 1.41843967e-02 3.54609918e-03 0.
      7.09219836e-03 7.09219836e-03 7.09219836e-03 0. 3.54609918e-03 0.
      7.09219836e-03 3.54609918e-03 0. 1.06382975e-02 2.12765951e-02
      7.09219836e-03 1.41843967e-02 3.54609918e-03 3.54609918e-03 0. 0.
      7.09219836e-03 3.54609918e-03 7.09219836e-03 0. 7.09219836e-03 0.
      0. 0. 3.54609918e-03 1.41843967e-02 0. 0. 7.09219836e-03
      1.77304968e-02 7.09219836e-03 0. 1.06382975e-02 1.41843967e-02
      7.09219836e-03 2.12765951e-02 3.54609918e-03 3.54609918e-03
      3.54609918e-03 3.54609918e-03 0. 3.54609918e-03 3.54609918e-03
      3.54609918e-03 3.54609918e-03 3.54609918e-03 0. 0. 1.06382975e-02
      0. 3.54609918e-03 7.09219836e-03 0. 3.54609918e-03 7.09219836e-03
      1.06382975e-02 7.09219836e-03 1.06382975e-02 0. 3.54609918e-03
      1.41843967e-02 1.41843967e-02 3.54609918e-03</_>
    <_>
      0. 0. 0. 0. 1.39372824e-02 6.96864119e-03 1.04529615e-02 0. 0.
      3.48432059e-03 3.48432059e-03 2.09059231e-02 0. 1.04529615e-02
      1.04529615e-02 3.48432059e-03 3.48432059e-03 6.96864119e-03
      3.48432059e-03 3.48432059e-03 0. 0. 0. 6.96864119e-03
      3.48432059e-03 1.39372824e-02 1.39372824e-02 3.48432059e-03
      6.96864119e-03 6.96864119e-03 3.48432059e-03 3.48432059e-03 0. 0.
      6.96864119e-03 3.48432059e-03 0. 6.96864119e-03 3.48432059e-03
      3.48432059e-03 1.04529615e-02 3.48432059e-03 6.96864119e-03 0.
      1.74216032e-02 1.04529615e-02 0. 0. 3.48432059e-03 0.
      1.04529615e-02 3.48432059e-03 3.48432059e-03 6.96864119e-03
      6.96864119e-03 0. 3.48432059e-03 0. 0. 3.48432059e-03 0.
      3.48432059e-03 6.96864119e-03 0. 0. 0. 3.48432059e-03
      3.48432059e-03 0. 1.74216032e-02 0. 6.96864119e-03 0.
      3.48432059e-03 1.39372824e-02 3.48432059e-03 0. 3.48432059e-03
      3.48432059e-03 6.96864119e-03 3.48432059e-03 3.48432059e-03 0.
      6.96864119e-03 3.48432059e-03 3.48432059e-03 0. 3.48432059e-03
      6.96864119e-03 6.96864119e-03 1.74216032e-02 3.48432059e-03
      3.48432059e-03 6.96864119e-03 0. 6.96864119e-03 3.48432059e-03
      6.96864119e-03 6.96864119e-03 1.39372824e-02 3.48432059e-03
      3.48432059e-03 1.04529615e-02 0. 3.48432059e-03 1.04529615e-02 0.
      0. 6.96864119e-03 6.96864119e-03 0. 3.48432059e-03 2.43902449e-02
      3.48432059e-03 2.09059231e-02 1.04529615e-02 0. 0. 3.48432059e-03
      3.48432059e-03 3.48432059e-03 3.48432059e-03 0. 3.48432059e-03
      6.96864119e-03 0. 3.48432059e-03 0. 6.96864119e-03 1.39372824e-02
      0. 3.48432059e-03 3.48432059e-03 0. 1.04529615e-02 0. 0. 0.
      6.96864119e-03 6.96864119e-03 1.04529615e-02 0. 1.39372824e-02 0.
      3.48432059e-03 6.96864119e-03 3.48432059e-03 3.48432059e-03
      2.43902449e-02 3.48432059e-03 0. 0. 0. 6.96864119e-03 0.
      1.74216032e-02 3.48432059e-03 1.74216032e-02 3.48432059e-03 0. 0.
      1.39372824e-02 3.48432059e-03 3.48432059e-03 0. 0. 1.39372824e-02
      0. 0. 1.74216032e-02 6.96864119e-03 3.48432059e-03 1.04529615e-02
      1.04529615e-02 0. 3.48432059e-03 6.96864119e-03 1.39372824e-02 0.
      3.48432059e-03 3.48432059e-03 3.48432059e-03 0. 0. 3.48432059e-03
      1.04529615e-02 3.48432059e-03 0. 1.39372824e-02 3.48432059e-03
      1.04529615e-02 3.48432059e-03 3.48432059e-03 6.96864119e-03 0.
      2.78745648e-02 3.48432059e-03 1.74216032e-02 0. 3.48432059e-03</_>
    <_>
      4.40528616e-03 2.20264308e-03 1.32158585e-02 0. 1.76211447e-02
      2.20264308e-03 2.20264308e-03 2.20264308e-03 4.40528616e-03
      2.20264308e-03 0. 8.81057233e-03 0. 4.40528616e-03 4.40528616e-03
      0. 1.32158585e-02 0. 6.60792924e-03 4.40528616e-03 8.81057233e-03
      6.60792924e-03 4.40528616e-03 2.20264308e-03 2.20264308e-03
      2.20264308e-03 2.20264308e-03 4.40528616e-03 1.54185016e-02
      4.40528616e-03 4.40528616e-03 0. 6.60792924e-03 4.40528616e-03
      8.81057233e-03 0. 6.60792924e-03 2.20264308e-03 4.40528616e-03
      2.20264308e-03 6.60792924e-03 4.40528616e-03 4.40528616e-03 0.
      1.32158585e-02 4.40528616e-03 4.40528616e-03 8.81057233e-03
      6.60792924e-03 1.76211447e-02 0. 2.20264308e-03 4.40528616e-03
      2.20264308e-03 1.54185016e-02 2.20264308e-03 2.20264308e-03
      4.40528616e-03 4.40528616e-03 4.40528616e-03 1.54185016e-02
      6.60792924e-03 2.20264308e-03 2.20264308e-03 2.20264308e-03
      1.32158585e-02 1.98237877e-02 2.20264308e-03 1.32158585e-02
      4.40528616e-03 2.20264308e-03 0. 0. 2.20264308e-03 4.40528616e-03
      0. 2.20264308e-03 0. 0. 1.10132154e-02 0. 1.54185016e-02
      2.20264308e-03 4.40528616e-03 4.40528616e-03 4.40528616e-03 0.
      6.60792924e-03 4.40528616e-03 8.81057233e-03 1.76211447e-02
      4.40528616e-03 2.20264308e-03 0. 1.10132154e-02 1.32158585e-02
      2.20264308e-03 4.40528616e-03 6.60792924e-03 6.60792924e-03
      8.81057233e-03 2.20264308e-03 8.81057233e-03 2.20264308e-03
      4.40528616e-03 0. 2.20264308e-03 0. 4.40528616e-03 2.20264308e-03
      0. 1.10132154e-02 6.60792924e-03 2.20264308e-03 8.81057233e-03
      4.40528616e-03 0. 2.20264308e-03 0. 2.20264308e-03 2.20264308e-03
      0. 2.20264308e-03 6.60792924e-03 2.20264308e-03 4.40528616e-03
      6.60792924e-03 2.20264308e-03 4.40528616e-03 0. 2.20264308e-03
      2.20264308e-03 4.40528616e-03 4.40528616e-03 6.60792924e-03
      6.60792924e-03 2.20264308e-03 4.40528616e-03 1.10132154e-02
      8.81057233e-03 0. 6.60792924e-03 1.10132154e-02 8.81057233e-03
      6.60792924e-03 2.20264308e-03 6.60792924e-03 2.20264308e-03
      1.54185016e-02 8.81057233e-03 1.10132154e-02 6.60792924e-03
      8.81057233e-03 8.81057233e-03 2.20264308e-03 2.20264308e-03
      2.20264308e-03 1.32158585e-02 0. 0. 0. 0. 1.10132154e-02
      1.54185016e-02 8.81057233e-03 4.40528616e-03 4.40528616e-03 0.
      1.32158585e-02 6.60792924e-03 4.40528616e-03 0. 1.32158585e-02 0.
      8.81057233e-03 2.20264308e-03 1.10132154e-02 1.10132154e-02
      2.20264308e-03 2.20264308e-03 4.40528616e-03 2.20264308e-03 0. 0.
      4.40528616e-03 6.60792924e-03 2.20264308e-03 0. 4.40528616e-03 0.
      0. 6.60792924e-03 6.60792924e-03 4.40528616e-03 1.76211447e-02
      2.20264308e-03 6.60792924e-03 2.20264308e-03 8.81057233e-03
      2.20264308e-03</_>
    <_>
      5.30503970e-03 2.65251985e-03 7.95755908e-03 7.95755908e-03
      2.65251985e-03 2.65251985e-03 5.30503970e-03 5.30503970e-03
      1.59151182e-02 5.30503970e-03 2.65251985e-03 7.95755908e-03 0.
      1.06100794e-02 1.32625997e-02 2.65251985e-03 0. 2.65251985e-03 0.
      2.65251985e-03 7.95755908e-03 7.95755908e-03 2.65251985e-03
      2.65251985e-03 7.95755908e-03 7.95755908e-03 5.30503970e-03
      7.95755908e-03 0. 1.06100794e-02 5.30503970e-03 2.65251985e-03 0.
      7.95755908e-03 7.95755908e-03 2.65251985e-03 5.30503970e-03
      1.06100794e-02 0. 2.65251985e-03 0. 2.65251985e-03 2.65251985e-03
      0. 1.32625997e-02 0. 5.30503970e-03 5.30503970e-03 2.65251985e-03
      2.65251985e-03 1.32625997e-02 0. 2.65251985e-03 5.30503970e-03 0.
      2.65251985e-03 5.30503970e-03 0. 2.65251985e-03 0. 5.30503970e-03
      5.30503970e-03 2.65251985e-03 0. 2.65251985e-03 0. 1.06100794e-02
      2.65251985e-03 0. 1.06100794e-02 5.30503970e-03 2.65251985e-03
      5.30503970e-03 5.30503970e-03 5.30503970e-03 0. 2.65251985e-03
      2.65251985e-03 2.65251985e-03 2.65251985e-03 2.65251985e-03
      5.30503970e-03 2.65251985e-03 5.30503970e-03 2.65251985e-03 0.
      1.06100794e-02 2.65251985e-03 7.95755908e-03 7.95755908e-03
      1.32625997e-02 0. 5.30503970e-03 2.65251985e-03 1.32625997e-02
      2.65251985e-03 2.65251985e-03 1.06100794e-02 2.12201588e-02
      2.65251985e-03 0. 0. 2.65251985e-03 0. 2.65251985e-03
      7.95755908e-03 2.65251985e-03 0. 7.95755908e-03 5.30503970e-03
      2.65251985e-03 0. 1.32625997e-02 5.30503970e-03 5.30503970e-03
      2.65251985e-03 7.95755908e-03 0. 5.30503970e-03 5.30503970e-03
      7.95755908e-03 7.95755908e-03 0. 5.30503970e-03 1.32625997e-02
      2.65251985e-03 1.06100794e-02 2.65251985e-03 1.06100794e-02
      5.30503970e-03 5.30503970e-03 5.30503970e-03 1.06100794e-02 0.
      5.30503970e-03 7.95755908e-03 2.65251985e-03 5.30503970e-03
      5.30503970e-03 1.06100794e-02 0. 0. 7.95755908e-03 2.65251985e-03
      1.06100794e-02 7.95755908e-03 2.65251985e-03 2.65251985e-03
      2.65251985e-03 2.65251985e-03 2.65251985e-03 5.30503970e-03
      7.95755908e-03 0. 0. 7.95755908e-03 0. 1.85676385e-02
      2.65251985e-03 5.30503970e-03 2.65251985e-03 7.95755908e-03
      2.65251985e-03 5.30503970e-03 5.30503970e-03 2.65251985e-03
      2.12201588e-02 2.65251985e-03 1.06100794e-02 7.95755908e-03
      1.06100794e-02 2.65251985e-03 2.65251985e-03 1.06100794e-02
      5.30503970e-03 0. 7.95755908e-03 7.95755908e-03 1.32625997e-02 0.
      5.30503970e-03 0. 2.65251985e-03 0. 1.06100794e-02 1.32625997e-02
      0. 5.30503970e-03 1.06100794e-02 2.65251985e-03 7.95755908e-03
      5.30503970e-03 5.30503970e-03 7.95755908e-03 0. 2.65251985e-03
      5.30503970e-03 7.95755908e-03 5.30503970e-03 7.95755908e-03</_>
    <_>
      4.12087934e-03 5.49450563e-03 2.74725282e-03 0. 1.92307699e-02
      2.74725282e-03 1.37362641e-03 9.61538497e-03 5.49450563e-03
      6.86813192e-03 4.12087934e-03 0. 4.12087934e-03 1.37362641e-03 0.
      4.12087934e-03 8.24175868e-03 9.61538497e-03 5.49450563e-03
      4.12087934e-03 2.74725282e-03 1.37362641e-03 4.12087934e-03
      5.49450563e-03 1.37362641e-03 9.61538497e-03 5.49450563e-03
      4.12087934e-03 9.61538497e-03 1.37362641e-03 2.74725282e-03
      5.49450563e-03 1.09890113e-02 2.74725282e-03 4.12087934e-03
      6.86813192e-03 0. 2.74725282e-03 2.74725282e-03 6.86813192e-03
      8.24175868e-03 4.12087934e-03 5.49450563e-03 5.49450563e-03
      1.37362641e-03 1.09890113e-02 5.49450563e-03 6.86813192e-03
      4.12087934e-03 4.12087934e-03 0. 2.74725282e-03 8.24175868e-03
      4.12087934e-03 8.24175868e-03 4.12087934e-03 1.09890113e-02
      1.37362641e-03 6.86813192e-03 4.12087934e-03 6.86813192e-03
      1.51098901e-02 8.24175868e-03 6.86813192e-03 1.37362641e-03
      5.49450563e-03 1.37362641e-03 4.12087934e-03 1.23626376e-02
      1.37362641e-03 0. 6.86813192e-03 2.74725282e-03 1.23626376e-02
      5.49450563e-03 4.12087934e-03 6.86813192e-03 9.61538497e-03
      1.37362641e-03 4.12087934e-03 5.49450563e-03 0. 0. 2.74725282e-03
      9.61538497e-03 9.61538497e-03 2.74725282e-03 5.49450563e-03
      8.24175868e-03 0. 5.49450563e-03 1.23626376e-02 6.86813192e-03
      1.37362641e-03 2.74725282e-03 0. 4.12087934e-03 2.74725282e-03
      1.37362641e-03 2.74725282e-03 8.24175868e-03 6.86813192e-03
      5.49450563e-03 6.86813192e-03 4.12087934e-03 8.24175868e-03
      4.12087934e-03 2.74725282e-03 1.51098901e-02 1.23626376e-02
      2.74725282e-03 6.86813192e-03 5.49450563e-03 5.49450563e-03
      2.74725282e-03 2.74725282e-03 6.86813192e-03 4.12087934e-03
      2.74725282e-03 1.23626376e-02 5.49450563e-03 4.12087934e-03
      6.86813192e-03 4.12087934e-03 0. 9.61538497e-03 8.24175868e-03
      5.49450563e-03 2.74725282e-03 1.37362641e-03 1.37362641e-03
      1.09890113e-02 6.86813192e-03 1.37362641e-03 5.49450563e-03
      5.49450563e-03 8.24175868e-03 1.37362641e-03 2.74725282e-03
      8.24175868e-03 1.37362641e-03 1.51098901e-02 0. 5.49450563e-03
      4.12087934e-03 4.12087934e-03 6.86813192e-03 4.12087934e-03
      1.37362641e-03 8.24175868e-03 1.37362641e-03 5.49450563e-03
      1.37362641e-03 5.49450563e-03 2.74725282e-03 2.74725282e-03
      4.12087934e-03 2.74725282e-03 5.49450563e-03 2.74725282e-03
      2.74725282e-03 4.12087934e-03 4.12087934e-03 1.37362641e-03
      1.51098901e-02 2.74725282e-03 2.74725282e-03 0. 6.86813192e-03
      1.37362641e-03 2.74725282e-03 9.61538497e-03 4.12087934e-03
      2.74725282e-03 5.49450563e-03 1.23626376e-02 2.74725282e-03
      5.49450563e-03 2.74725282e-03 4.12087934e-03 4.12087934e-03
      5.49450563e-03 1.37362641e-03 1.37362641e-03 1.37362638e-02 0.
      9.61538497e-03 2.74725282e-03 8.24175868e-03 0. 2.74725282e-03
      4.12087934e-03 5.49450563e-03 0. 2.74725282e-03 4.12087934e-03
      2.19780225e-02 1.37362641e-03 5.49450563e-03 2.74725282e-03</_>
    <_>
      2.82485876e-03 2.82485876e-03 0. 2.82485876e-03 8.47457629e-03 0.
      0. 8.47457629e-03 0. 5.64971752e-03 0. 1.12994350e-02
      8.47457629e-03 2.82485876e-03 2.82485876e-03 2.82485876e-03 0.
      2.82485876e-03 5.64971752e-03 2.82485876e-03 0. 5.64971752e-03 0.
      2.82485876e-03 2.82485876e-03 5.64971752e-03 8.47457629e-03 0.
      5.64971752e-03 5.64971752e-03 2.82485876e-03 0. 1.12994350e-02 0.
      2.82485876e-03 8.47457629e-03 2.82485876e-03 2.82485876e-03
      2.82485876e-03 2.82485876e-03 2.82485876e-03 0. 5.64971752e-03 0.
      2.25988701e-02 2.82485876e-03 2.82485876e-03 1.69491526e-02
      2.82485876e-03 8.47457629e-03 5.64971752e-03 0. 0. 2.82485876e-03
      2.82485876e-03 2.82485876e-03 2.82485876e-03 0. 2.82485876e-03
      2.82485876e-03 1.41242938e-02 2.82485876e-03 5.64971752e-03
      2.82485876e-03 2.82485876e-03 1.41242938e-02 0. 0. 2.82485876e-02
      2.82485876e-03 2.82485876e-03 0. 5.64971752e-03 0. 5.64971752e-03
      0. 1.12994350e-02 8.47457629e-03 1.41242938e-02 8.47457629e-03
      5.64971752e-03 0. 8.47457629e-03 2.82485876e-03 2.82485876e-03
      1.12994350e-02 5.64971752e-03 0. 1.69491526e-02 0. 8.47457629e-03
      0. 5.64971752e-03 0. 1.69491526e-02 8.47457629e-03 0.
      5.64971752e-03 2.54237279e-02 5.64971752e-03 2.82485876e-03
      2.82485876e-03 5.64971752e-03 2.82485876e-03 8.47457629e-03
      5.64971752e-03 2.82485876e-03 2.82485876e-03 1.12994350e-02 0.
      2.82485876e-03 1.12994350e-02 0. 0. 0. 2.82485876e-03
      8.47457629e-03 2.82485876e-03 5.64971752e-03 0. 5.64971752e-03 0.
      5.64971752e-03 0. 5.64971752e-03 0. 0. 0. 0. 8.47457629e-03 0.
      5.64971752e-03 5.64971752e-03 0. 0. 0. 8.47457629e-03
      5.64971752e-03 2.82485876e-03 2.82485876e-03 2.82485876e-03 0.
      8.47457629e-03 2.82485876e-03 0. 0. 1.12994350e-02 5.64971752e-03
      8.47457629e-03 1.12994350e-02 5.64971752e-03 1.12994350e-02
      2.82485876e-03 2.54237279e-02 2.82485876e-03 0. 2.82485876e-03
      8.47457629e-03 0. 0. 5.64971752e-03 5.64971752e-03 2.82485876e-03
      8.47457629e-03 2.82485876e-03 2.82485876e-03 1.97740123e-02
      5.64971752e-03 5.64971752e-03 1.41242938e-02 1.12994350e-02
      8.47457629e-03 2.82485876e-03 1.12994350e-02 2.82485876e-03
      8.47457629e-03 0. 0. 5.64971752e-03 0. 1.12994350e-02 0.
      5.64971752e-03 0. 1.12994350e-02 8.47457629e-03 8.47457629e-03 0.
      1.69491526e-02 0. 2.82485876e-03 5.64971752e-03 8.47457629e-03
      5.64971752e-03 1.97740123e-02 5.64971752e-03 1.12994350e-02
      5.64971752e-03 8.47457629e-03 2.82485876e-03</_>
    <_>
      6.39658887e-03 2.13219621e-03 2.13219621e-03 4.26439242e-03 0.
      6.39658887e-03 2.13219621e-03 4.26439242e-03 6.39658887e-03
      4.26439242e-03 2.13219621e-03 6.39658887e-03 2.13219621e-03
      2.13219621e-03 1.27931777e-02 2.13219621e-03 2.13219621e-03
      4.26439242e-03 0. 4.26439242e-03 4.26439242e-03 8.52878485e-03 0.
      2.13219621e-03 2.13219621e-03 4.26439242e-03 1.27931777e-02
      4.26439242e-03 0. 6.39658887e-03 6.39658887e-03 0. 2.13219621e-03
      6.39658887e-03 6.39658887e-03 2.13219621e-03 2.13219621e-03
      2.13219621e-03 0. 4.26439242e-03 4.26439242e-03 0. 2.13219621e-03
      2.13219621e-03 2.13219617e-02 1.27931777e-02 0. 0. 6.39658887e-03
      0. 8.52878485e-03 2.13219621e-03 4.26439242e-03 8.52878485e-03
      2.13219621e-03 2.13219621e-03 8.52878485e-03 2.13219621e-03
      8.52878485e-03 0. 4.26439242e-03 2.13219621e-03 6.39658887e-03
      2.13219621e-03 2.13219621e-03 2.13219621e-03 0. 2.13219621e-03 0.
      1.06609808e-02 8.52878485e-03 1.06609808e-02 0. 4.26439242e-03
      8.52878485e-03 4.26439242e-03 4.26439242e-03 6.39658887e-03
      1.27931777e-02 1.06609808e-02 6.39658887e-03 0. 0. 2.13219621e-03
      2.13219621e-03 0. 0. 1.06609808e-02 2.13219621e-03 0.
      2.13219621e-03 0. 4.26439242e-03 2.13219621e-03 6.39658887e-03 0.
      6.39658887e-03 2.13219621e-03 1.06609808e-02 1.06609808e-02
      8.52878485e-03 2.13219621e-03 2.13219621e-03 4.26439242e-03
      6.39658887e-03 4.26439242e-03 0. 2.13219621e-03 8.52878485e-03
      6.39658887e-03 0. 0. 0. 2.13219621e-03 1.06609808e-02
      6.39658887e-03 4.26439242e-03 6.39658887e-03 2.13219621e-03 0.
      4.26439242e-03 4.26439242e-03 2.13219621e-03 4.26439242e-03
      1.70575697e-02 1.06609808e-02 2.13219621e-03 6.39658887e-03
      1.06609808e-02 2.13219621e-03 2.13219621e-03 0. 4.26439242e-03 0.
      8.52878485e-03 8.52878485e-03 1.06609808e-02 8.52878485e-03
      4.26439242e-03 4.26439242e-03 8.52878485e-03 0. 2.77185515e-02
      6.39658887e-03 6.39658887e-03 6.39658887e-03 2.13219621e-03
      1.49253737e-02 4.26439242e-03 4.26439242e-03 4.26439242e-03
      4.26439242e-03 6.39658887e-03 4.26439242e-03 4.26439242e-03
      1.49253737e-02 2.13219621e-03 1.27931777e-02 4.26439242e-03 0.
      2.13219621e-03 8.52878485e-03 6.39658887e-03 4.26439242e-03 0. 0.
      1.27931777e-02 6.39658887e-03 2.13219621e-03 6.39658887e-03
      4.26439242e-03 6.39658887e-03 4.26439242e-03 4.26439242e-03 0.
      1.06609808e-02 6.39658887e-03 6.39658887e-03 2.13219621e-03
      6.39658887e-03 1.27931777e-02 1.06609808e-02 0. 4.26439242e-03
      2.13219621e-03 1.27931777e-02 1.27931777e-02 1.06609808e-02
      8.52878485e-03 6.39658887e-03 6.39658887e-03 1.49253737e-02
      2.13219621e-03 6.39658887e-03 2.13219621e-03 6.39658887e-03
      6.39658887e-03 1.06609808e-02 4.26439242e-03 8.52878485e-03</_>
    <_>
      6.94444450e-03 0. 4.62962966e-03 9.25925933e-03 4.62962966e-03
      2.31481483e-03 0. 9.25925933e-03 0. 4.62962966e-03 2.31481483e-03
      3.24074067e-02 2.31481483e-03 0. 0. 4.62962966e-03 2.31481483e-03
      6.94444450e-03 4.62962966e-03 6.94444450e-03 2.08333340e-02 0.
      4.62962966e-03 4.62962966e-03 2.31481483e-03 0. 4.62962966e-03
      4.62962966e-03 2.31481483e-03 2.31481483e-03 9.25925933e-03
      2.31481483e-03 2.31481483e-03 9.25925933e-03 0. 2.31481483e-03
      4.62962966e-03 2.31481483e-03 0. 4.62962966e-03 4.62962966e-03
      9.25925933e-03 2.31481483e-03 2.31481483e-03 4.62962966e-03
      6.94444450e-03 0. 2.31481483e-03 2.31481483e-03 2.31481483e-03
      6.94444450e-03 0. 4.62962966e-03 9.25925933e-03 2.31481483e-03
      1.15740746e-02 0. 2.31481483e-03 4.62962966e-03 0. 4.62962966e-03
      6.94444450e-03 4.62962966e-03 6.94444450e-03 6.94444450e-03 0.
      4.62962966e-03 0. 2.31481483e-03 4.62962966e-03 2.31481483e-03 0.
      0. 4.62962966e-03 1.62037034e-02 2.31481483e-03 0. 6.94444450e-03
      6.94444450e-03 4.62962966e-03 0. 0. 6.94444450e-03 2.31481483e-03
      2.31481483e-03 9.25925933e-03 0. 4.62962966e-03 4.62962966e-03
      2.31481483e-03 0. 9.25925933e-03 2.31481483e-03 2.31481483e-03
      1.38888890e-02 1.62037034e-02 2.31481483e-03 6.94444450e-03
      4.62962966e-03 2.31481483e-03 4.62962966e-03 4.62962966e-03
      6.94444450e-03 0. 0. 4.62962966e-03 6.94444450e-03 6.94444450e-03
      9.25925933e-03 6.94444450e-03 0. 2.31481483e-03 1.15740746e-02 0.
      2.31481483e-03 1.15740746e-02 6.94444450e-03 9.25925933e-03
      2.31481483e-03 9.25925933e-03 0. 1.62037034e-02 1.15740746e-02
      2.31481483e-03 9.25925933e-03 4.62962966e-03 2.31481483e-03
      1.15740746e-02 0. 6.94444450e-03 4.62962966e-03 2.31481483e-03
      9.25925933e-03 2.31481483e-03 4.62962966e-03 0. 2.31481483e-03
      4.62962966e-03 9.25925933e-03 6.94444450e-03 9.25925933e-03 0.
      2.31481483e-03 9.25925933e-03 1.62037034e-02 4.62962966e-03
      1.15740746e-02 2.31481483e-03 1.38888890e-02 1.62037034e-02 0.
      4.62962966e-03 1.38888890e-02 4.62962966e-03 2.31481483e-03
      2.31481483e-03 0. 1.38888890e-02 6.94444450e-03 9.25925933e-03
      2.31481483e-03 6.94444450e-03 6.94444450e-03 1.38888890e-02
      2.31481483e-03 0. 6.94444450e-03 9.25925933e-03 9.25925933e-03 0.
      0. 4.62962966e-03 4.62962966e-03 6.94444450e-03 0. 2.31481483e-03
      4.62962966e-03 1.38888890e-02 1.15740746e-02 2.31481483e-03
      4.62962966e-03 2.31481483e-03 4.62962966e-03 2.31481483e-03
      9.25925933e-03 2.31481483e-03 1.15740746e-02 0. 0. 4.62962966e-03
      2.31481483e-03 0. 2.31481483e-03 2.31481483e-03 1.15740746e-02
      2.31481483e-03 6.94444450e-03 6.94444450e-03 4.62962966e-03
      4.62962966e-03</_>
    <_>
      4.46428591e-03 2.23214296e-03 2.23214296e-03 4.46428591e-03
      6.69642910e-03 8.92857183e-03 6.69642910e-03 6.69642910e-03
      2.23214296e-03 6.69642910e-03 1.33928582e-02 1.33928582e-02
      6.69642910e-03 6.69642910e-03 2.23214296e-03 4.46428591e-03 0.
      2.23214296e-03 2.23214296e-03 1.33928582e-02 4.46428591e-03
      8.92857183e-03 4.46428591e-03 2.23214296e-03 6.69642910e-03 0.
      6.69642910e-03 2.23214296e-03 6.69642910e-03 6.69642910e-03
      6.69642910e-03 1.11607146e-02 2.23214296e-03 4.46428591e-03
      4.46428591e-03 1.11607146e-02 4.46428591e-03 6.69642910e-03
      6.69642910e-03 8.92857183e-03 8.92857183e-03 4.46428591e-03
      2.23214296e-03 6.69642910e-03 6.69642910e-03 0. 0. 2.00892873e-02
      2.23214296e-03 6.69642910e-03 2.23214296e-03 2.23214296e-03
      8.92857183e-03 2.23214296e-03 1.11607146e-02 2.23214296e-03
      2.23214296e-03 8.92857183e-03 4.46428591e-03 4.46428591e-03
      2.23214296e-03 4.46428591e-03 2.23214296e-03 0. 2.23214296e-03
      2.23214296e-03 2.23214296e-03 4.46428591e-03 1.78571437e-02
      6.69642910e-03 0. 2.23214296e-03 2.23214296e-03 4.46428591e-03
      1.33928582e-02 6.69642910e-03 4.46428591e-03 4.46428591e-03
      2.23214296e-03 6.69642910e-03 6.69642910e-03 3.12500000e-02
      6.69642910e-03 2.23214296e-03 4.46428591e-03 2.23214296e-03
      6.69642910e-03 1.11607146e-02 4.46428591e-03 0. 1.11607146e-02
      2.23214296e-03 2.23214296e-03 0. 8.92857183e-03 6.69642910e-03
      6.69642910e-03 4.46428591e-03 6.69642910e-03 4.46428591e-03
      6.69642910e-03 2.23214296e-03 1.78571437e-02 4.46428591e-03 0.
      2.23214296e-03 0. 1.11607146e-02 8.92857183e-03 1.11607146e-02
      8.92857183e-03 4.46428591e-03 8.92857183e-03 0. 6.69642910e-03
      2.23214296e-03 2.23214296e-03 6.69642910e-03 0. 8.92857183e-03
      6.69642910e-03 4.46428591e-03 0. 0. 6.69642910e-03 4.46428591e-03
      2.23214296e-03 4.46428591e-03 4.46428591e-03 0. 2.23214296e-03
      4.46428591e-03 6.69642910e-03 2.23214296e-03 0. 0. 6.69642910e-03
      6.69642910e-03 2.23214296e-03 1.11607146e-02 8.92857183e-03
      4.46428591e-03 0. 4.46428591e-03 2.23214296e-03 2.23214296e-03
      4.46428591e-03 2.23214296e-03 2.23214296e-03 4.46428591e-03 0.
      6.69642910e-03 4.46428591e-03 1.78571437e-02 0. 2.23214296e-03 0.
      2.23214296e-03 2.23214296e-03 2.23214296e-03 4.46428591e-03
      6.69642910e-03 6.69642910e-03 2.23214296e-03 6.69642910e-03
      4.46428591e-03 1.11607146e-02 6.69642910e-03 2.23214296e-03
      6.69642910e-03 2.23214296e-03 8.92857183e-03 2.23214296e-03 0.
      2.23214296e-03 2.23214296e-03 4.46428591e-03 4.46428591e-03 0.
      2.23214296e-03 0. 6.69642910e-03 8.92857183e-03 0. 4.46428591e-03
      4.46428591e-03 2.23214296e-03 4.46428591e-03 4.46428591e-03
      4.46428591e-03 8.92857183e-03 0. 2.23214296e-03 4.46428591e-03
      6.69642910e-03 1.11607146e-02 0. 6.69642910e-03 6.69642910e-03
      2.23214296e-03</_>
    <_>
      4.83870972e-03 1.61290320e-03 1.61290320e-03 0. 4.83870953e-02
      6.45161280e-03 9.67741944e-03 1.12903221e-02 4.83870972e-03
      4.83870972e-03 4.83870972e-03 1.12903221e-02 8.06451589e-03 0.
      3.22580640e-03 0. 3.22580640e-03 4.83870972e-03 1.61290320e-03
      6.45161280e-03 1.61290320e-03 4.83870972e-03 9.67741944e-03 0.
      3.22580640e-03 1.61290320e-03 1.61290320e-03 1.61290320e-03
      1.61290320e-03 0. 1.61290320e-03 0. 1.12903221e-02 1.61290320e-03
      6.45161280e-03 3.22580640e-03 3.22580640e-03 0. 1.61290320e-03
      1.61290318e-02 6.45161280e-03 1.45161292e-02 3.22580640e-03
      4.83870972e-03 3.22580640e-03 3.22580640e-03 1.61290320e-03
      3.06451600e-02 0. 8.06451589e-03 0. 3.22580640e-03 3.22580640e-03
      1.61290320e-03 2.41935477e-02 9.67741944e-03 3.22580640e-03
      6.45161280e-03 3.22580640e-03 1.61290320e-03 1.61290318e-02
      4.83870972e-03 8.06451589e-03 4.83870972e-03 3.22580640e-03
      3.22580640e-03 3.22580640e-03 1.61290320e-03 4.19354849e-02 0.
      6.45161280e-03 4.83870972e-03 3.22580640e-03 1.29032256e-02
      3.22580640e-03 4.83870972e-03 3.22580640e-03 0. 6.45161280e-03 0.
      3.22580640e-03 6.45161280e-03 0. 0. 1.61290320e-03 3.38709690e-02
      1.29032256e-02 4.83870972e-03 8.06451589e-03 0. 9.67741944e-03
      1.61290320e-03 3.22580640e-03 1.61290320e-03 6.45161280e-03
      1.29032256e-02 4.83870972e-03 3.22580640e-03 0. 0. 3.22580640e-03
      1.61290320e-03 9.67741944e-03 9.67741944e-03 4.83870972e-03
      8.06451589e-03 4.83870972e-03 0. 6.45161280e-03 0. 1.61290320e-03
      4.83870972e-03 0. 0. 1.61290320e-03 1.61290320e-03 1.61290320e-03
      6.45161280e-03 4.83870972e-03 9.67741944e-03 6.45161280e-03 0.
      4.83870972e-03 0. 0. 0. 4.83870972e-03 8.06451589e-03
      6.45161280e-03 0. 3.22580640e-03 3.22580640e-03 4.83870972e-03
      3.22580640e-03 0. 6.45161280e-03 1.61290320e-03 3.22580640e-03
      1.61290320e-03 6.45161280e-03 6.45161280e-03 9.67741944e-03
      3.22580640e-03 6.45161280e-03 1.61290320e-03 3.22580640e-03
      9.67741944e-03 4.83870972e-03 9.67741944e-03 1.29032256e-02
      3.22580640e-03 1.61290320e-03 3.22580640e-03 1.93548389e-02
      3.22580640e-03 1.61290320e-03 0. 0. 3.22580640e-03 1.61290320e-03
      3.22580640e-03 3.22580640e-03 8.06451589e-03 6.45161280e-03
      4.83870972e-03 0. 1.61290320e-03 0. 1.12903221e-02 1.61290320e-03
      1.61290320e-03 1.12903221e-02 1.45161292e-02 0. 3.22580640e-03
      4.83870972e-03 3.22580640e-03 1.61290320e-03 1.61290320e-03
      1.61290320e-03 6.45161280e-03 1.61290320e-03 4.83870972e-03
      3.22580640e-03 6.45161280e-03 0. 8.06451589e-03 1.61290320e-03 0.
      3.22580640e-03 4.83870972e-03 3.22580640e-03 1.61290320e-03 0.
      1.77419353e-02 3.22580640e-03 6.45161280e-03 1.61290320e-03
      4.83870972e-03 0.</_>
    <_>
      2.15517241e-03 6.46551698e-03 1.29310340e-02 8.62068962e-03
      2.15517241e-03 6.46551698e-03 2.15517241e-03 4.31034481e-03
      1.07758623e-02 2.15517241e-03 0. 2.37068962e-02 0. 1.07758623e-02
      6.46551698e-03 4.31034481e-03 0. 8.62068962e-03 4.31034481e-03
      2.15517241e-03 4.31034481e-03 6.46551698e-03 6.46551698e-03 0.
      2.15517241e-03 8.62068962e-03 1.29310340e-02 0. 2.15517241e-03
      8.62068962e-03 0. 4.31034481e-03 0. 0. 4.31034481e-03
      6.46551698e-03 6.46551698e-03 4.31034481e-03 4.31034481e-03
      1.07758623e-02 4.31034481e-03 0. 2.15517241e-03 2.15517241e-03
      6.46551698e-03 0. 0. 0. 2.15517241e-03 8.62068962e-03
      8.62068962e-03 4.31034481e-03 8.62068962e-03 4.31034481e-03
      2.15517241e-03 2.15517241e-03 6.46551698e-03 0. 2.15517241e-03 0.
      2.15517241e-03 6.46551698e-03 0. 6.46551698e-03 4.31034481e-03
      4.31034481e-03 1.29310340e-02 6.46551698e-03 2.15517241e-03
      6.46551698e-03 1.07758623e-02 0. 4.31034481e-03 1.07758623e-02
      8.62068962e-03 2.15517241e-03 4.31034481e-03 2.15517241e-03
      2.15517241e-03 8.62068962e-03 2.15517241e-03 2.15517241e-03
      2.15517241e-03 6.46551698e-03 0. 6.46551698e-03 0. 4.31034481e-03
      8.62068962e-03 6.46551698e-03 1.07758623e-02 8.62068962e-03
      6.46551698e-03 4.31034481e-03 8.62068962e-03 2.15517241e-03 0.
      4.31034481e-03 2.15517245e-02 1.29310340e-02 2.15517241e-03
      6.46551698e-03 4.31034481e-03 1.07758623e-02 6.46551698e-03
      8.62068962e-03 0. 4.31034481e-03 4.31034481e-03 2.15517241e-03
      4.31034481e-03 4.31034481e-03 1.07758623e-02 2.15517241e-03
      1.50862066e-02 4.31034481e-03 0. 4.31034481e-03 2.15517241e-03
      2.15517241e-03 2.15517241e-03 6.46551698e-03 6.46551698e-03
      8.62068962e-03 6.46551698e-03 2.15517241e-03 0. 6.46551698e-03
      8.62068962e-03 1.29310340e-02 0. 6.46551698e-03 6.46551698e-03
      1.07758623e-02 2.15517241e-03 2.15517241e-03 0. 4.31034481e-03
      4.31034481e-03 4.31034481e-03 4.31034481e-03 4.31034481e-03
      1.93965510e-02 2.15517241e-03 6.46551698e-03 1.07758623e-02
      2.15517241e-03 8.62068962e-03 1.93965510e-02 8.62068962e-03
      1.29310340e-02 4.31034481e-03 4.31034481e-03 0. 2.15517241e-03
      2.15517241e-03 4.31034481e-03 4.31034481e-03 0. 0. 0.
      2.15517241e-03 8.62068962e-03 2.15517241e-03 2.15517241e-03
      4.31034481e-03 6.46551698e-03 4.31034481e-03 4.31034481e-03
      1.07758623e-02 4.31034481e-03 0. 4.31034481e-03 6.46551698e-03
      8.62068962e-03 6.46551698e-03 1.29310340e-02 2.15517241e-03 0.
      4.31034481e-03 4.31034481e-03 4.31034481e-03 4.31034481e-03
      6.46551698e-03 2.15517241e-03 6.46551698e-03 2.15517241e-03 0.
      6.46551698e-03 0. 2.15517241e-03 2.15517241e-03 6.46551698e-03
      8.62068962e-03 2.15517241e-03 6.46551698e-03 8.62068962e-03
      2.15517241e-03 0. 8.62068962e-03</_>
    <_>
      1.83823530e-03 5.51470602e-03 3.67647060e-03 1.83823530e-03
      3.67647060e-03 1.28676472e-02 7.35294120e-03 3.67647060e-03
      1.83823530e-03 1.83823530e-03 1.83823530e-03 1.10294120e-02
      3.67647060e-03 5.51470602e-03 0. 3.67647060e-03 1.83823530e-03
      5.51470602e-03 1.83823530e-03 3.67647060e-03 3.67647060e-03
      9.19117685e-03 3.67647060e-03 1.83823537e-02 3.67647060e-03
      5.51470602e-03 3.67647060e-03 0. 1.83823530e-03 7.35294120e-03
      9.19117685e-03 1.83823530e-03 3.67647060e-03 0. 3.67647060e-03
      1.83823530e-03 7.35294120e-03 5.51470602e-03 5.51470602e-03
      5.51470602e-03 3.67647060e-03 1.83823530e-03 7.35294120e-03
      5.51470602e-03 9.19117685e-03 3.67647060e-03 1.83823530e-03
      1.83823530e-03 3.67647060e-03 9.19117685e-03 3.67647060e-03 0.
      3.67647060e-03 0. 1.10294120e-02 1.83823530e-03 3.67647060e-03
      5.51470602e-03 1.47058824e-02 1.83823530e-03 1.47058824e-02
      1.10294120e-02 0. 1.83823530e-03 7.35294120e-03 1.83823530e-03
      1.28676472e-02 5.51470602e-03 3.67647060e-03 1.83823530e-03
      7.35294120e-03 3.67647060e-03 5.51470602e-03 3.67647060e-03
      3.67647060e-03 5.51470602e-03 1.83823530e-03 3.67647060e-03
      9.19117685e-03 5.51470602e-03 7.35294120e-03 1.83823530e-03
      1.83823530e-03 1.83823530e-03 1.83823530e-03 0. 0. 1.83823530e-03
      9.19117685e-03 1.83823530e-03 1.83823530e-03 1.10294120e-02
      5.51470602e-03 7.35294120e-03 5.51470602e-03 1.83823530e-03
      3.67647060e-03 1.83823530e-03 2.20588241e-02 1.83823530e-03
      3.67647060e-03 1.10294120e-02 3.67647060e-03 1.83823530e-03
      1.10294120e-02 9.19117685e-03 1.10294120e-02 1.83823530e-03
      3.67647060e-03 3.67647060e-03 3.67647060e-03 3.67647060e-03 0.
      5.51470602e-03 5.51470602e-03 1.83823530e-03 5.51470602e-03
      3.67647060e-03 5.51470602e-03 3.67647060e-03 7.35294120e-03
      1.83823530e-03 3.67647060e-03 0. 0. 7.35294120e-03 0.
      3.67647060e-03 1.47058824e-02 7.35294120e-03 1.83823530e-03
      3.67647060e-03 5.51470602e-03 3.67647060e-03 5.51470602e-03
      1.83823530e-03 1.10294120e-02 9.19117685e-03 3.67647060e-03
      3.67647060e-03 7.35294120e-03 0. 5.51470602e-03 3.67647060e-03 0.
      7.35294120e-03 7.35294120e-03 5.51470602e-03 9.19117685e-03
      1.10294120e-02 1.47058824e-02 1.83823530e-03 5.51470602e-03
      3.67647060e-03 1.83823530e-03 0. 7.35294120e-03 5.51470602e-03
      9.19117685e-03 0. 7.35294120e-03 1.83823530e-03 3.67647060e-03
      5.51470602e-03 0. 3.67647060e-03 3.12500000e-02 0. 0.
      7.35294120e-03 7.35294120e-03 3.67647060e-03 3.67647060e-03
      3.67647060e-03 3.67647060e-03 3.67647060e-03 7.35294120e-03
      9.19117685e-03 1.83823530e-03 9.19117685e-03 5.51470602e-03
      1.83823530e-03 5.51470602e-03 1.83823530e-03 1.83823530e-03
      1.47058824e-02 1.83823530e-03 3.67647060e-03 9.19117685e-03
      9.19117685e-03 5.51470602e-03 5.51470602e-03 3.67647060e-03
      1.28676472e-02 3.67647060e-03 3.67647060e-03 1.83823530e-03
      5.51470602e-03 7.35294120e-03 1.83823530e-03</_>
    <_>
      8.51063803e-03 0. 8.51063803e-03 0. 0. 0. 0. 0. 0. 8.51063803e-03
      0. 4.25531901e-03 4.25531901e-03 8.51063803e-03 8.51063803e-03 0.
      4.25531901e-03 0. 0. 0. 0. 0. 0. 0. 0. 0. 8.51063803e-03 0.
      4.25531901e-03 8.51063803e-03 0. 8.51063803e-03 0. 4.25531901e-03
      0. 4.25531901e-03 4.25531901e-03 4.25531901e-03 0. 1.27659570e-02
      0. 0. 0. 4.25531901e-03 1.27659570e-02 4.25531901e-03 0. 0. 0.
      4.25531901e-03 1.27659570e-02 0. 4.25531901e-03 4.25531901e-03 0.
      4.25531901e-03 8.51063803e-03 1.27659570e-02 0. 8.51063803e-03
      4.25531901e-03 0. 8.51063803e-03 0. 0. 0. 4.25531901e-03
      4.25531901e-03 2.55319141e-02 1.27659570e-02 4.25531901e-03
      4.25531901e-03 4.25531901e-03 0. 1.70212761e-02 4.25531901e-03
      4.25531901e-03 0. 4.25531901e-03 2.12765951e-02 4.25531901e-03 0.
      8.51063803e-03 0. 4.25531901e-03 1.70212761e-02 0. 8.51063803e-03
      4.25531901e-03 0. 0. 0. 8.51063803e-03 0. 4.25531901e-03
      4.25531901e-03 0. 4.25531901e-03 5.53191453e-02 4.25531901e-03 0.
      4.25531901e-03 0. 4.25531901e-03 4.25531901e-03 0. 8.51063803e-03
      0. 8.51063803e-03 1.27659570e-02 4.25531901e-03 0. 0.
      1.27659570e-02 1.27659570e-02 0. 0. 8.51063803e-03 0.
      4.25531901e-03 0. 0. 0. 8.51063803e-03 0. 4.25531901e-03 0.
      8.51063803e-03 4.25531901e-03 8.51063803e-03 0. 8.51063803e-03
      8.51063803e-03 0. 4.25531901e-03 0. 0. 8.51063803e-03 0.
      1.70212761e-02 4.25531901e-03 0. 2.12765951e-02 0. 4.25531901e-03
      4.25531901e-03 4.25531901e-03 8.51063803e-03 8.51063803e-03
      4.25531901e-03 4.25531901e-03 4.25531901e-03 0. 4.25531901e-03
      4.25531901e-03 1.27659570e-02 8.51063803e-03 2.55319141e-02 0. 0.
      0. 4.25531901e-03 0. 4.25531901e-03 0. 0. 3.82978693e-02
      1.27659570e-02 0. 1.70212761e-02 2.55319141e-02 0. 0. 0. 0.
      4.25531901e-03 4.25531901e-03 0. 0. 0. 8.51063803e-03 0. 0.
      8.51063803e-03 0. 1.70212761e-02 4.25531901e-03 0. 3.40425521e-02
      4.25531901e-03 4.25531901e-03 4.25531901e-03 8.51063803e-03
      2.55319141e-02 0. 4.25531901e-03 1.27659570e-02 4.25531901e-03
      8.51063803e-03 4.25531901e-03</_>
    <_>
      0. 4.09836043e-03 8.19672085e-03 8.19672085e-03 6.14754064e-03
      6.14754064e-03 4.09836043e-03 4.09836043e-03 0. 4.09836043e-03 0.
      3.68852429e-02 2.04918021e-03 1.22950813e-02 4.09836043e-03
      4.09836043e-03 4.09836043e-03 2.04918021e-03 6.14754064e-03
      2.04918021e-03 0. 1.43442620e-02 4.09836043e-03 4.09836043e-03
      4.09836043e-03 8.19672085e-03 2.04918021e-03 0. 2.04918021e-03
      4.09836043e-03 2.04918021e-03 0. 2.04918021e-03 0. 0.
      2.04918021e-03 1.22950813e-02 8.19672085e-03 4.09836043e-03
      1.02459006e-02 2.04918021e-03 4.09836043e-03 2.04918021e-03
      2.04918021e-03 1.84426215e-02 0. 0. 2.04918021e-03 4.09836043e-03
      6.14754064e-03 6.14754064e-03 4.09836043e-03 4.09836043e-03 0.
      6.14754064e-03 2.04918021e-03 4.09836043e-03 6.14754064e-03
      8.19672085e-03 4.09836043e-03 6.14754064e-03 6.14754064e-03
      2.04918021e-03 2.04918021e-03 2.04918021e-03 2.04918021e-03
      8.19672085e-03 4.09836043e-03 8.19672085e-03 2.04918021e-03
      4.09836043e-03 2.04918021e-03 6.14754064e-03 6.14754064e-03 0.
      8.19672085e-03 2.04918021e-03 4.09836043e-03 4.09836043e-03
      8.19672085e-03 0. 4.09836043e-03 4.09836043e-03 6.14754064e-03 0.
      2.66393423e-02 4.09836043e-03 8.19672085e-03 8.19672085e-03
      2.04918021e-03 2.04918021e-03 6.14754064e-03 0. 6.14754064e-03
      6.14754064e-03 0. 4.09836043e-03 6.14754064e-03 2.45901626e-02
      8.19672085e-03 2.04918021e-03 1.02459006e-02 2.04918021e-03
      1.43442620e-02 0. 4.09836043e-03 8.19672085e-03 2.04918021e-03
      6.14754064e-03 8.19672085e-03 2.04918021e-03 2.04918021e-03
      4.09836043e-03 2.04918021e-03 1.22950813e-02 2.04918021e-03
      2.04918021e-03 6.14754064e-03 6.14754064e-03 6.14754064e-03 0.
      4.09836043e-03 0. 6.14754064e-03 8.19672085e-03 2.04918021e-03
      6.14754064e-03 2.04918021e-03 1.22950813e-02 1.43442620e-02
      2.04918021e-03 2.04918021e-03 4.09836043e-03 2.04918021e-03
      4.09836043e-03 2.04918021e-03 4.09836043e-03 4.09836043e-03
      1.43442620e-02 4.09836043e-03 0. 0. 8.19672085e-03 2.04918021e-03
      2.04918021e-03 8.19672085e-03 0. 6.14754064e-03 1.22950813e-02
      4.09836043e-03 6.14754064e-03 2.04918021e-03 2.04918021e-03
      6.14754064e-03 0. 6.14754064e-03 2.04918021e-03 1.02459006e-02 0.
      0. 6.14754064e-03 0. 2.04918021e-03 1.63934417e-02 2.04918021e-03
      0. 1.84426215e-02 4.09836043e-03 0. 1.02459006e-02 1.43442620e-02
      0. 6.14754064e-03 6.14754064e-03 2.04918021e-03 6.14754064e-03
      8.19672085e-03 8.19672085e-03 2.04918021e-03 2.04918021e-03
      2.04918021e-03 2.04918021e-03 4.09836043e-03 4.09836043e-03
      6.14754064e-03 1.43442620e-02 2.04918021e-03 2.04918021e-03
      8.19672085e-03 0. 0. 8.19672085e-03 1.02459006e-02 8.19672085e-03
      8.19672085e-03 4.09836043e-03 4.09836043e-03 2.04918021e-03
      8.19672085e-03 4.09836043e-03</_>
    <_>
      6.10687025e-03 3.05343512e-03 1.52671756e-03 4.58015269e-03
      1.37404576e-02 6.10687025e-03 1.52671756e-03 4.58015269e-03
      3.05343512e-03 9.16030537e-03 7.63358781e-03 3.05343512e-03
      7.63358781e-03 4.58015269e-03 1.52671756e-03 6.10687025e-03
      9.16030537e-03 7.63358781e-03 7.63358781e-03 0. 6.10687025e-03
      9.16030537e-03 7.63358781e-03 9.16030537e-03 1.22137405e-02
      3.05343512e-03 3.05343512e-03 1.52671756e-03 3.05343512e-03 0.
      1.06870234e-02 1.52671756e-03 6.10687025e-03 1.52671756e-03
      6.10687025e-03 7.63358781e-03 4.58015269e-03 4.58015269e-03
      4.58015269e-03 1.52671756e-03 6.10687025e-03 4.58015269e-03
      6.10687025e-03 4.58015269e-03 3.05343512e-03 4.58015269e-03
      3.05343512e-03 1.52671756e-03 4.58015269e-03 1.52671756e-03 0.
      4.58015269e-03 4.58015269e-03 0. 6.10687025e-03 6.10687025e-03
      9.16030537e-03 4.58015269e-03 4.58015269e-03 9.16030537e-03
      1.06870234e-02 1.52671756e-03 7.63358781e-03 6.10687025e-03
      3.05343512e-03 4.58015269e-03 4.58015269e-03 3.05343512e-03
      2.13740468e-02 1.52671756e-03 3.05343512e-03 6.10687025e-03
      7.63358781e-03 4.58015269e-03 9.16030537e-03 4.58015269e-03
      7.63358781e-03 1.83206107e-02 1.37404576e-02 7.63358781e-03
      6.10687025e-03 0. 6.10687025e-03 3.05343512e-03 1.06870234e-02
      1.22137405e-02 1.52671756e-03 1.06870234e-02 4.58015269e-03
      1.52671756e-03 3.05343512e-03 9.16030537e-03 7.63358781e-03
      3.05343512e-03 4.58015269e-03 3.05343512e-03 1.52671756e-03
      7.63358781e-03 4.58015269e-03 1.52671756e-03 4.58015269e-03
      1.52671756e-03 1.52671756e-03 1.52671756e-02 0. 3.05343512e-03
      1.67938937e-02 3.05343512e-03 1.06870234e-02 0. 4.58015269e-03
      6.10687025e-03 4.58015269e-03 1.52671756e-03 4.58015269e-03
      3.05343512e-03 1.52671756e-03 1.52671756e-03 3.05343512e-03
      3.05343512e-03 7.63358781e-03 1.52671756e-03 1.52671756e-03
      1.52671756e-03 4.58015269e-03 0. 4.58015269e-03 6.10687025e-03
      9.16030537e-03 4.58015269e-03 4.58015269e-03 7.63358781e-03
      4.58015269e-03 4.58015269e-03 3.05343512e-03 4.58015269e-03
      1.52671756e-03 1.06870234e-02 4.58015269e-03 6.10687025e-03
      7.63358781e-03 9.16030537e-03 3.05343512e-03 3.05343512e-03
      3.05343512e-03 4.58015269e-03 6.10687025e-03 4.58015269e-03
      3.05343512e-03 9.16030537e-03 4.58015269e-03 7.63358781e-03
      4.58015269e-03 3.05343512e-03 1.52671756e-03 4.58015269e-03
      4.58015269e-03 4.58015269e-03 1.06870234e-02 3.05343512e-03
      9.16030537e-03 3.05343512e-03 0. 3.05343512e-03 1.52671756e-03
      3.05343512e-03 1.52671756e-03 0. 1.06870234e-02 3.05343512e-03 0.
      1.22137405e-02 1.52671756e-03 1.52671756e-03 3.05343512e-03
      6.10687025e-03 1.52671756e-03 9.16030537e-03 1.52671756e-03
      1.52671756e-03 7.63358781e-03 3.05343512e-03 4.58015269e-03
      6.10687025e-03 1.06870234e-02 1.52671756e-03 4.58015269e-03
      1.52671756e-03 0. 1.22137405e-02 6.10687025e-03 0. 1.52671756e-03
      3.05343512e-03 4.58015269e-03 7.63358781e-03 7.63358781e-03
      3.05343512e-03 3.05343512e-03 3.05343512e-03</_>
    <_>
      8.17438681e-03 9.53678414e-03 5.44959120e-03 1.36239780e-03
      2.58855578e-02 5.44959120e-03 2.72479560e-03 5.44959120e-03
      9.53678414e-03 2.72479560e-03 1.36239780e-03 1.36239780e-03
      1.08991824e-02 2.72479560e-03 0. 2.72479560e-03 1.22615807e-02
      5.44959120e-03 9.53678414e-03 6.81198901e-03 6.81198901e-03
      1.22615807e-02 1.08991824e-02 1.36239780e-03 1.36239780e-03
      1.36239780e-03 1.36239780e-03 2.72479560e-03 1.08991824e-02
      1.36239780e-03 0. 0. 1.36239780e-02 2.72479560e-03 4.08719340e-03
      5.44959120e-03 0. 0. 2.45231614e-02 4.08719340e-03 2.72479560e-03
      1.08991824e-02 0. 1.36239780e-03 1.36239780e-03 5.44959120e-03
      5.44959120e-03 2.17983648e-02 0. 2.72479560e-03 1.36239780e-03
      2.72479560e-03 4.08719340e-03 8.17438681e-03 2.17983648e-02 0.
      5.44959120e-03 1.36239780e-03 2.72479560e-03 1.36239780e-03
      6.81198901e-03 1.63487736e-02 6.81198901e-03 1.36239780e-03
      6.81198901e-03 6.81198901e-03 1.49863753e-02 5.44959120e-03
      5.44959120e-03 0. 8.17438681e-03 0. 2.72479560e-03 8.17438681e-03
      5.44959120e-03 2.72479560e-03 2.72479560e-03 4.08719340e-03 0.
      4.08719340e-03 1.36239780e-03 6.81198901e-03 0. 1.36239780e-03
      5.44959120e-03 6.81198901e-03 1.36239780e-02 2.72479560e-03
      6.81198901e-03 6.81198901e-03 2.31607631e-02 0. 8.17438681e-03
      1.36239780e-03 8.17438681e-03 6.81198901e-03 4.08719340e-03
      6.81198901e-03 0. 1.36239780e-03 1.36239780e-03 5.44959120e-03
      3.26975472e-02 1.36239780e-03 1.36239780e-02 4.08719340e-03
      2.72479560e-03 0. 8.17438681e-03 0. 1.36239780e-03 1.22615807e-02
      2.72479560e-03 1.36239780e-03 2.72479560e-03 4.08719340e-03
      4.08719340e-03 8.17438681e-03 4.08719340e-03 9.53678414e-03
      4.08719340e-03 1.36239780e-03 8.17438681e-03 4.08719340e-03 0.
      1.36239780e-03 0. 1.36239780e-03 6.81198901e-03 4.08719340e-03
      4.08719340e-03 1.36239780e-03 5.44959120e-03 9.53678414e-03
      4.08719340e-03 4.08719340e-03 9.53678414e-03 1.36239780e-03
      1.36239780e-03 4.08719340e-03 6.81198901e-03 9.53678414e-03
      2.72479560e-03 1.36239780e-03 1.36239780e-03 1.36239780e-03
      6.81198901e-03 0. 0. 8.17438681e-03 1.22615807e-02 2.72479560e-03
      6.81198901e-03 1.63487736e-02 1.36239780e-03 0. 2.72479560e-03
      8.17438681e-03 0. 0. 2.72479560e-03 1.36239780e-03 5.44959120e-03
      4.08719340e-03 6.81198901e-03 1.36239780e-03 4.08719340e-03
      1.36239780e-03 9.53678414e-03 1.36239780e-03 0. 8.17438681e-03
      4.08719340e-03 2.72479560e-03 1.63487736e-02 2.72479560e-03
      1.36239780e-03 1.36239780e-03 2.72479560e-03 2.72479560e-03
      4.08719340e-03 2.72479560e-03 1.36239780e-03 0. 1.22615807e-02
      2.72479560e-03 1.36239780e-03 2.72479560e-03 0. 4.08719340e-03
      4.08719340e-03 2.72479560e-03 8.17438681e-03 1.36239780e-03
      9.53678414e-03 0. 4.08719340e-03 9.53678414e-03 4.08719340e-03
      4.08719340e-03</_>
    <_>
      3.02114803e-03 9.06344410e-03 3.02114803e-03 3.02114803e-03 0.
      3.02114803e-03 3.02114803e-03 3.02114803e-03 6.04229607e-03 0.
      3.02114803e-03 0. 6.04229607e-03 0. 6.04229607e-03 0.
      3.02114803e-03 6.04229607e-03 0. 9.06344410e-03 9.06344410e-03
      3.02114803e-03 3.02114803e-03 1.20845921e-02 9.06344410e-03
      3.02114803e-03 9.06344410e-03 6.04229607e-03 0. 0. 6.04229607e-03
      6.04229607e-03 3.02114803e-03 0. 9.06344410e-03 3.02114803e-03
      6.04229607e-03 6.04229607e-03 3.02114803e-03 9.06344410e-03
      6.04229607e-03 3.02114803e-03 6.04229607e-03 0. 1.20845921e-02
      6.04229607e-03 6.04229607e-03 0. 0. 6.04229607e-03 9.06344410e-03
      6.04229607e-03 3.02114803e-03 6.04229607e-03 3.02114803e-03 0.
      3.02114803e-03 0. 3.02114803e-03 0. 0. 6.04229607e-03
      6.04229607e-03 6.04229607e-03 6.04229607e-03 0. 1.20845921e-02
      6.04229607e-03 1.81268882e-02 6.04229607e-03 1.20845921e-02
      6.04229607e-03 1.20845921e-02 3.02114803e-03 6.04229607e-03
      6.04229607e-03 9.06344410e-03 3.02114803e-03 3.02114803e-03
      3.02114803e-03 0. 0. 6.04229607e-03 9.06344410e-03 0.
      2.11480372e-02 6.04229607e-03 0. 6.04229607e-03 6.04229607e-03
      3.02114803e-03 3.02114803e-03 6.04229607e-03 9.06344410e-03
      6.04229607e-03 6.04229607e-03 0. 3.02114803e-03 9.06344410e-03
      1.51057402e-02 6.04229607e-03 9.06344410e-03 3.02114803e-03 0.
      3.02114803e-03 1.51057402e-02 3.02114803e-03 6.04229607e-03
      1.81268882e-02 9.06344410e-03 1.20845921e-02 3.02114803e-03
      9.06344410e-03 3.02114803e-03 6.04229607e-03 6.04229607e-03
      3.02114803e-03 3.02114803e-03 3.02114803e-03 0. 0. 6.04229607e-03
      0. 6.04229607e-03 9.06344410e-03 6.04229607e-03 0. 3.02114803e-03
      3.02114803e-03 3.02114803e-03 3.02114803e-03 3.02114803e-03
      6.04229607e-03 6.04229607e-03 9.06344410e-03 0. 6.04229607e-03
      6.04229607e-03 6.04229607e-03 9.06344410e-03 3.02114803e-03
      6.04229607e-03 6.04229607e-03 0. 9.06344410e-03 6.04229607e-03
      3.02114803e-03 6.04229607e-03 6.04229607e-03 3.02114803e-03 0.
      1.20845921e-02 3.02114803e-03 3.02114803e-03 3.02114803e-03
      9.06344410e-03 6.04229607e-03 1.51057402e-02 3.02114803e-03 0.
      3.02114803e-03 0. 3.02114803e-03 6.04229607e-03 6.04229607e-03 0.
      9.06344410e-03 3.02114803e-03 3.02114803e-03 3.02114803e-03
      1.51057402e-02 9.06344410e-03 3.02114803e-03 6.04229607e-03
      3.02114803e-03 0. 9.06344410e-03 6.04229607e-03 3.02114803e-03 0.
      3.02114803e-03 9.06344410e-03 9.06344410e-03 0. 6.04229607e-03 0.
      0. 1.20845921e-02 1.20845921e-02 0. 3.02114803e-03 6.04229607e-03
      9.06344410e-03 6.04229607e-03 0. 0. 9.06344410e-03 9.06344410e-03
      0. 6.04229607e-03</_>
    <_>
      6.74157310e-03 8.98876414e-03 0. 0. 6.74157310e-03 8.98876414e-03
      2.24719103e-03 2.24719103e-03 2.24719103e-03 8.98876414e-03
      4.49438207e-03 3.37078646e-02 2.24719103e-03 0. 6.74157310e-03
      2.24719103e-03 0. 4.49438207e-03 2.24719103e-03 4.49438207e-03
      4.49438207e-03 0. 4.49438207e-03 0. 4.49438207e-03 8.98876414e-03
      2.24719103e-03 0. 1.12359552e-02 4.49438207e-03 0. 2.24719103e-03
      4.49438207e-03 6.74157310e-03 0. 2.24719103e-03 1.12359552e-02
      8.98876414e-03 8.98876414e-03 1.34831462e-02 4.49438207e-03
      6.74157310e-03 0. 8.98876414e-03 1.34831462e-02 4.49438207e-03
      4.49438207e-03 1.79775283e-02 4.49438207e-03 6.74157310e-03
      2.24719103e-03 2.24719103e-03 6.74157310e-03 8.98876414e-03
      2.02247202e-02 0. 4.49438207e-03 1.12359552e-02 2.24719103e-03 0.
      2.24719103e-03 6.74157310e-03 2.24719103e-03 2.24719103e-03
      4.49438207e-03 2.24719103e-03 8.98876414e-03 0. 8.98876414e-03
      6.74157310e-03 2.24719103e-03 2.24719103e-03 4.49438207e-03 0.
      4.49438207e-03 4.49438207e-03 1.12359552e-02 1.12359552e-02
      1.34831462e-02 8.98876414e-03 4.49438207e-03 2.24719103e-02 0.
      4.49438207e-03 6.74157310e-03 1.34831462e-02 6.74157310e-03
      6.74157310e-03 4.49438207e-03 0. 0. 0. 2.24719103e-03
      2.24719103e-03 0. 4.49438207e-03 2.24719103e-03 1.57303363e-02
      6.74157310e-03 4.49438207e-03 4.49438207e-03 8.98876414e-03
      6.74157310e-03 4.49438207e-03 6.74157310e-03 0. 2.24719103e-03 0.
      4.49438207e-03 4.49438207e-03 4.49438207e-03 2.24719103e-03
      6.74157310e-03 2.24719103e-03 4.49438207e-03 4.49438207e-03
      8.98876414e-03 2.24719103e-03 0. 1.12359552e-02 0. 0.
      4.49438207e-03 2.24719103e-03 0. 8.98876414e-03 6.74157310e-03
      1.12359552e-02 1.12359552e-02 2.24719103e-03 4.49438207e-03
      2.24719103e-03 4.49438207e-03 6.74157310e-03 6.74157310e-03
      2.24719103e-03 0. 6.74157310e-03 2.24719103e-03 6.74157310e-03
      2.24719103e-03 4.49438207e-03 4.49438207e-03 0. 6.74157310e-03
      2.24719103e-03 6.74157310e-03 2.24719103e-03 2.24719103e-02
      6.74157310e-03 4.49438207e-03 4.49438207e-03 4.49438207e-03 0.
      4.49438207e-03 2.24719103e-03 0. 6.74157310e-03 4.49438207e-03
      2.24719103e-03 8.98876414e-03 6.74157310e-03 2.24719103e-03
      2.24719103e-03 6.74157310e-03 8.98876414e-03 6.74157310e-03
      6.74157310e-03 0. 4.49438207e-03 2.24719103e-03 2.24719103e-03
      4.49438207e-03 0. 2.24719103e-03 0. 1.34831462e-02 8.98876414e-03
      0. 2.24719103e-03 2.24719103e-03 0. 6.74157310e-03 6.74157310e-03
      0. 1.57303363e-02 2.24719103e-03 6.74157310e-03 2.24719103e-03
      4.49438207e-03 2.24719103e-03 2.24719103e-03 1.12359552e-02 0.
      2.24719103e-03 0. 8.98876414e-03 6.74157310e-03 4.49438207e-03 0.</_>
    <_>
      3.04878037e-03 3.04878037e-03 3.04878037e-03 9.14634112e-03 0. 0.
      3.04878037e-03 6.09756075e-03 6.09756075e-03 6.09756075e-03
      3.04878037e-03 3.96341458e-02 3.04878037e-03 6.09756075e-03
      9.14634112e-03 0. 0. 3.04878037e-03 0. 0. 0. 9.14634112e-03
      6.09756075e-03 3.04878037e-03 3.04878037e-03 6.09756075e-03
      9.14634112e-03 6.09756075e-03 0. 9.14634112e-03 6.09756075e-03
      1.21951215e-02 3.04878037e-03 3.04878037e-03 0. 3.04878037e-03
      9.14634112e-03 9.14634112e-03 0. 1.21951215e-02 6.09756075e-03
      3.04878037e-03 3.04878037e-03 0. 6.09756075e-03 1.21951215e-02
      6.09756075e-03 0. 6.09756075e-03 1.21951215e-02 6.09756075e-03
      3.04878037e-03 6.09756075e-03 1.52439019e-02 0. 3.04878037e-03 0.
      6.09756075e-03 6.09756075e-03 6.09756075e-03 6.09756075e-03
      3.04878037e-03 3.04878037e-03 0. 3.04878037e-03 0. 0.
      1.52439019e-02 0. 6.09756075e-03 1.21951215e-02 3.04878037e-03
      1.21951215e-02 0. 1.21951215e-02 1.21951215e-02 3.04878037e-03
      6.09756075e-03 1.21951215e-02 3.04878037e-03 0. 3.04878037e-03 0.
      3.04878037e-03 0. 0. 0. 0. 3.04878037e-03 6.09756075e-03
      6.09756075e-03 3.04878037e-03 0. 0. 9.14634112e-03 0. 0.
      3.04878037e-03 0. 6.09756075e-03 1.21951215e-02 9.14634112e-03
      3.04878037e-03 9.14634112e-03 9.14634112e-03 6.09756075e-03
      6.09756075e-03 3.04878037e-03 0. 6.09756075e-03 3.04878037e-03 0.
      3.04878037e-03 9.14634112e-03 0. 9.14634112e-03 3.04878037e-03
      6.09756075e-03 6.09756075e-03 0. 0. 6.09756075e-03 0. 0.
      9.14634112e-03 6.09756075e-03 0. 6.09756075e-03 3.04878037e-03
      1.21951215e-02 3.04878037e-03 1.21951215e-02 6.09756075e-03 0.
      1.52439019e-02 0. 0. 3.04878037e-03 3.04878037e-03 1.52439019e-02
      6.09756075e-03 0. 9.14634112e-03 0. 0. 0. 0. 3.04878037e-03
      3.04878037e-02 6.09756075e-03 1.82926822e-02 0. 0. 0. 0.
      3.04878037e-03 0. 6.09756075e-03 3.04878037e-03 3.04878037e-03 0.
      3.04878037e-03 1.21951215e-02 6.09756075e-03 6.09756075e-03 0.
      1.52439019e-02 0. 1.21951215e-02 9.14634112e-03 9.14634112e-03
      9.14634112e-03 9.14634112e-03 6.09756075e-03 3.04878037e-03
      9.14634112e-03 1.21951215e-02 3.04878037e-03 0. 3.04878037e-03
      3.04878037e-03 3.04878037e-03 6.09756075e-03 0. 0. 3.04878037e-03
      6.09756075e-03 3.04878037e-03 1.82926822e-02 0. 0. 1.21951215e-02
      9.14634112e-03 9.14634112e-03 3.04878037e-03 6.09756075e-03
      1.52439019e-02 0. 6.09756075e-03 0.</_>
    <_>
      7.87401572e-03 7.87401572e-03 3.93700786e-03 3.93700786e-03 0.
      7.87401572e-03 0. 1.18110236e-02 0. 0. 0. 7.48031512e-02 0. 0.
      1.18110236e-02 3.93700786e-03 0. 0. 7.87401572e-03 3.93700786e-03
      3.93700786e-03 0. 0. 3.93700786e-03 1.18110236e-02 7.87401572e-03
      7.87401572e-03 3.93700786e-03 0. 0. 3.93700786e-03 0.
      3.93700786e-03 0. 7.87401572e-03 3.93700786e-03 0. 7.87401572e-03
      3.93700786e-03 0. 3.93700786e-03 1.18110236e-02 3.93700786e-03
      3.93700786e-03 3.93700786e-03 7.87401572e-03 0. 3.93700786e-03
      3.93700786e-03 1.18110236e-02 7.87401572e-03 0. 0. 1.18110236e-02
      1.96850393e-02 0. 0. 3.93700786e-03 3.93700786e-03 0. 0.
      1.18110236e-02 0. 0. 1.18110236e-02 0. 3.93700786e-03
      3.93700786e-03 3.93700786e-03 7.87401572e-03 3.93700786e-03 0.
      3.93700786e-03 0. 1.57480314e-02 7.87401572e-03 0. 7.87401572e-03
      3.93700786e-03 1.57480314e-02 7.87401572e-03 2.36220472e-02
      3.93700786e-03 3.93700786e-03 0. 0. 0. 1.18110236e-02
      7.87401572e-03 0. 7.87401572e-03 0. 1.18110236e-02 0.
      3.93700786e-03 0. 1.18110236e-02 7.87401572e-03 3.93700786e-03
      3.93700786e-03 7.87401572e-03 1.18110236e-02 7.87401572e-03
      3.93700786e-03 0. 0. 0. 0. 3.93700786e-03 3.93700786e-03 0.
      7.87401572e-03 7.87401572e-03 0. 3.93700786e-03 3.93700786e-03 0.
      3.93700786e-03 1.18110236e-02 0. 3.93700786e-03 0. 0. 0.
      1.18110236e-02 1.18110236e-02 3.93700786e-03 0. 3.93700786e-03
      3.93700786e-03 0. 0. 0. 0. 0. 3.93700786e-03 1.18110236e-02
      3.93700786e-03 0. 7.87401572e-03 3.93700786e-03 7.87401572e-03
      3.93700786e-03 3.93700786e-03 7.87401572e-03 7.87401572e-03
      1.18110236e-02 7.87401572e-03 3.14960629e-02 0. 7.87401572e-03 0.
      3.93700786e-03 3.93700786e-03 0. 3.93700786e-03 3.93700786e-03
      1.18110236e-02 3.93700786e-03 0. 7.87401572e-03 3.93700786e-03
      1.18110236e-02 3.93700786e-03 3.93700786e-03 3.93700786e-03
      3.93700786e-03 0. 0. 7.87401572e-03 0. 7.87401572e-03
      2.36220472e-02 0. 3.93700786e-03 0. 3.93700786e-03 7.87401572e-03
      3.93700786e-03 0. 0. 0. 0. 7.87401572e-03 3.93700786e-03
      3.93700786e-03 7.87401572e-03 7.87401572e-03 3.93700786e-03
      7.87401572e-03 0. 3.93700786e-03 3.93700786e-03 1.57480314e-02
      3.93700786e-03 0. 3.93700786e-03 7.87401572e-03 1.18110236e-02
      3.93700786e-03</_>
    <_>
      3.10559012e-03 5.17598353e-03 0. 1.03519671e-03 6.10766038e-02
      2.07039341e-03 3.10559012e-03 1.65631473e-02 3.10559012e-03
      7.24637695e-03 3.10559012e-03 5.17598353e-03 3.10559012e-03
      2.07039341e-03 2.07039341e-03 1.03519671e-03 3.10559012e-03
      1.03519671e-03 1.24223605e-02 1.03519671e-03 6.21118024e-03
      9.31677036e-03 3.10559012e-03 7.24637695e-03 2.07039341e-03
      5.17598353e-03 3.10559012e-03 0. 3.10559012e-03 1.03519671e-03 0.
      3.10559012e-03 1.86335407e-02 2.07039341e-03 4.14078683e-03
      1.03519671e-03 3.10559012e-03 1.03519671e-03 8.28157365e-03
      9.31677036e-03 4.14078683e-03 1.96687374e-02 3.10559012e-03
      2.07039341e-03 6.21118024e-03 5.17598353e-03 1.03519671e-03
      2.17391308e-02 1.03519671e-03 3.10559012e-03 0. 2.07039341e-03
      4.14078683e-03 1.03519671e-03 1.03519671e-02 4.14078683e-03
      2.07039341e-03 2.07039341e-03 1.03519671e-03 2.07039341e-03
      2.17391308e-02 9.31677036e-03 1.24223605e-02 2.07039341e-03
      5.17598353e-03 5.17598353e-03 0. 0. 5.90062141e-02 1.03519671e-03
      5.17598353e-03 1.03519671e-03 6.21118024e-03 4.14078683e-03
      3.10559012e-03 0. 1.03519671e-03 3.10559012e-03 0. 9.31677036e-03
      1.03519671e-03 1.03519671e-03 0. 1.03519671e-03 0. 3.10559012e-02
      1.44927539e-02 5.17598353e-03 7.24637695e-03 2.07039341e-03
      1.13871638e-02 1.03519671e-03 4.14078683e-03 4.14078683e-03
      1.13871638e-02 1.75983440e-02 2.07039341e-03 0. 0. 0.
      2.07039341e-03 4.14078683e-03 7.24637695e-03 4.14078683e-03
      5.17598353e-03 5.17598353e-03 5.17598353e-03 1.03519671e-03
      1.03519671e-03 7.24637695e-03 2.07039341e-03 1.13871638e-02
      1.03519671e-03 3.10559012e-03 1.03519671e-03 2.07039341e-03
      6.21118024e-03 2.07039341e-03 3.10559012e-03 1.03519671e-02
      2.07039341e-03 2.07039341e-03 2.07039341e-03 1.03519671e-03
      1.03519671e-03 3.10559012e-03 3.10559012e-03 3.10559012e-03
      3.10559012e-03 8.28157365e-03 3.10559012e-03 1.03519671e-03
      5.17598353e-03 4.14078683e-03 2.07039341e-03 9.31677036e-03
      1.03519671e-03 0. 4.14078683e-03 6.21118024e-03 7.24637695e-03
      6.21118024e-03 2.07039341e-03 4.14078683e-03 1.03519671e-03
      1.03519671e-03 5.17598353e-03 4.14078683e-03 5.17598353e-03
      2.79503111e-02 5.17598353e-03 7.24637695e-03 4.14078683e-03
      1.24223605e-02 3.10559012e-03 1.03519671e-03 4.14078683e-03
      6.21118024e-03 2.07039341e-03 1.03519671e-03 2.07039341e-03
      2.07039341e-03 5.17598353e-03 3.10559012e-03 6.21118024e-03
      2.07039341e-03 2.07039341e-03 0. 1.86335407e-02 1.03519671e-03 0.
      7.24637695e-03 1.13871638e-02 5.17598353e-03 1.03519671e-02
      2.07039341e-03 5.17598353e-03 0. 4.14078683e-03 1.03519671e-03
      6.21118024e-03 0. 1.03519671e-03 1.03519671e-03 4.14078683e-03
      1.03519671e-03 6.21118024e-03 0. 0. 3.10559012e-03 2.07039341e-03
      2.07039341e-03 6.21118024e-03 1.03519671e-03 1.03519671e-02
      7.24637695e-03 5.17598353e-03 2.07039341e-03 3.10559012e-03 0.</_>
    <_>
      4.54545440e-03 0. 4.54545440e-03 0. 2.27272720e-03 6.81818184e-03
      1.13636358e-02 6.81818184e-03 1.13636358e-02 0. 0. 1.13636358e-02
      9.09090880e-03 6.81818184e-03 1.13636358e-02 0. 2.27272720e-03
      1.13636358e-02 0. 4.54545440e-03 0. 2.27272720e-03 1.13636358e-02
      6.81818184e-03 2.27272720e-03 4.54545440e-03 1.13636358e-02
      2.27272720e-03 4.54545440e-03 9.09090880e-03 4.54545440e-03
      9.09090880e-03 4.54545440e-03 0. 2.27272720e-03 0. 4.54545440e-03
      4.54545440e-03 2.27272720e-03 2.27272720e-03 9.09090880e-03
      1.59090906e-02 0. 0. 2.27272720e-03 2.27272720e-03 4.54545440e-03
      0. 1.13636358e-02 6.81818184e-03 2.27272720e-03 2.27272720e-03
      4.54545440e-03 2.27272720e-03 6.81818184e-03 0. 4.54545440e-03
      4.54545440e-03 1.36363637e-02 0. 4.54545440e-03 6.81818184e-03
      2.27272720e-03 0. 0. 6.81818184e-03 1.13636358e-02 4.54545440e-03
      2.27272720e-03 1.36363637e-02 4.54545440e-03 9.09090880e-03
      4.54545440e-03 0. 9.09090880e-03 6.81818184e-03 4.54545440e-03
      2.27272720e-03 4.54545440e-03 4.54545440e-03 4.54545440e-03 0.
      6.81818184e-03 4.54545440e-03 2.27272720e-03 0. 2.27272720e-03
